tree
num_class=3
num_tree_per_iteration=3
label_index=0
max_feature_idx=19
objective=multiclass num_class:3
feature_names=opponent round_number team_at_home n_times_teams_played beatability_index travel_distance travel_duration day_of_week days_since_last_game win_streak undefeated_streak PPG GFPG GAPG GDPG recent_form season_points_opponent PPG_opponent GDPG_opponent recent_form_opponent
feature_infos=45:1:17:2:27:13:26:48:40:30:42:5:28:22:7:18:14:31:15:23:50:47:39:41:16:12:36:32:49:4:43:38:20:35:21:46:51:10:34:37:25:0:8 [1:42] 1:0 [1:11] [-1:1] [18474:421272] [1809:16787] 5:6:4:2:0:1:3 [1:14] [0:12] [0:23] [0:2.6666666666666665] [0:3] [0:1.75] [-1.5:2.6666666666666665] [-4:5] [0:89] [0:2.6956521739130435] [-1.8571428571428572:2.5] [-5:5]

Tree=0
num_leaves=26
num_cat=1
split_feature=0 10 19 12 13 17 13 12 16 10 17 18 16 12 13 12 5 18 16 16 8 12 10 18 16
split_gain=4.927804401928606 2.0775116201427739 2.4605301802540041 2.033787103224673 2.0400013111373072 1.9824462456573366 1.9055843925770719 2.0659683052480098 1.6150116863331094 2.3297128716693587 1.8416433291666234 1.5880456061016321 1.527312151444228 1.2888968802583287 1.1525231081004721 1.3182111082744239 0.99568726258219087 0.97263358348753526 0.93990995908087727 0.83152133978822462 0.6677954517353043 0.99123674416693286 0.58862911778760818 0.21241876134541426 0.00088392172415119319
threshold=0 5.5 -9.9999996826552254e-21 1.5638586956521738 0.72850122850122845 1.7387914230019494 0.97398648648648645 1.2834821428571428 25.5 1.5 1.2466216216216215 0.059714795008912636 47.5 1.2834821428571428 1.2132034632034632 1.3834841628959276 117644 0.12701612903225801 22.5 19.5 5.5 1.651086956521739 1.5 -0.37668918918918914 32.5
decision_type=5 2 8 8 10 8 10 10 10 2 10 10 10 10 10 10 10 10 8 8 2 10 2 10 10
left_child=3 2 14 6 -5 11 22 -8 9 13 -11 18 17 -4 15 23 -3 -10 -6 -18 -17 -22 -1 -2 -21
right_child=1 16 8 4 5 -7 7 -9 12 10 -12 -13 -14 -15 -16 20 19 -19 -20 24 21 -23 -24 -25 -26
leaf_value=-0.027364597475733578 -0.031868053305923322 -0.0087905342506134476 -0.022273542437528607 0.040250998201419599 0.020844917101488447 -0.01652464818788895 0.020549762620385228 -0.010058894145194753 -0.010838857780821378 -0.002684727448032471 0.031584554398179553 0.041687749685354547 0.0038139207376520151 0.0051028596464719744 -0.031627504430474067 -0.022584152396766012 -0.018494265894632714 -0.032642317502846935 -0.0068568851809108532 -0.036731116365809079 -0.013577504064461544 0.010652967931853679 -0.0090924079935614296 -0.019367639973296349 -0.037499999997506007
leaf_count=35 37 30 39 36 30 31 40 47 51 31 39 31 39 39 53 34 40 42 32 30 41 42 59 30 39
internal_value=0 -0.2658021417521847 -0.22040379764563112 0.05441870848001424 0.26648743063136521 0.13527733175150203 -0.078161717321495752 0.12381758095917735 -0.089729259422243662 0.062156850492857796 0.33719751037189588 0.3186245786837919 -0.25721834408179245 -0.19226187331905431 -0.38632616884263626 -0.29270754098166907 -0.50806953788944142 -0.4089052914730632 0.13355199123238348 -0.60102847703645312 -0.14143678040084029 -0.044652780957256548 -0.30239438910554761 -0.53326584710080949 -0.7438428738866496
internal_count=997 656 517 341 160 124 181 87 280 148 70 93 132 78 237 184 139 93 62 109 117 83 94 67 69
cat_boundaries=0 2
cat_threshold=2214723634 427201
shrinkage=0.05


Tree=1
num_leaves=27
num_cat=3
split_feature=0 2 18 11 2 19 10 13 19 17 5 5 13 17 5 6 17 18 18 18 13 5 14 10 3 3
split_gain=8.8822396912273121 5.1681956403173501 4.6174923449128702 3.7776062190252726 2.7688793549411117 3.3664673430536358 2.6574321124955276 2.5361802411653027 2.5145231386206106 2.8514775844999409 2.0119953201288077 1.933145893934374 1.6402811923068721 1.5173356570667025 1.5458019934656377 1.6554246953140428 1.3177402467208523 2.0147908698041128 1.2444669710160507 1.1883332651626759 0.95969144523990813 0.7436399343198592 0.55543991007421267 0.44779517937817737 0.7678976197364038 0.4464180912281499
threshold=0 1 -0.52086956521739125 1.7537878787878789 2 2.5 7.5 1.0513157894736842 9.9999996826552254e-21 1.1188235294117648 52694 344203 0.9177927927927928 0.65833333333333333 365247.5 2391 1.2752525252525251 -0.52878289473684215 0.20942982456140352 -0.059714795008912636 0.95346320346320346 166420.5 0.23303167420814486 1.5 10.5 7.5
decision_type=5 1 10 10 1 8 2 10 8 10 10 10 8 10 10 10 10 8 10 10 10 10 10 2 8 10
left_child=4 6 7 10 5 21 13 12 9 -5 -4 20 -3 -2 15 -15 17 -17 -18 25 -12 -1 -22 -6 -25 -19
right_child=1 2 3 8 23 -7 -8 -9 -10 -11 11 -13 -14 14 -16 16 18 19 -20 -21 22 -23 -24 24 -26 -27
leaf_value=0.012322522296631361 0.053192441469521616 0.036097304172712057 0.022344601073618145 0.013046427299119477 -0.02595848661251364 -0.01570379159245551 0.05763191478631613 0.051980514334530159 0.0019016511657427766 0.057696056161301724 0.0047710536623117202 0.0146138918727704 0.0028929661248929695 0.013079243236150404 0.010101818105824192 0.021648653654604666 0.01012214343794229 0.0648852028025559 0.036795503411222966 0.032454698851112448 -0.010164211223276423 0.036640302885200503 -0.028299699300537093 -0.022433505774195089 0.0030059185254682655 0.048259649983584278
leaf_count=33 31 43 39 30 46 39 46 35 33 35 34 45 32 44 47 37 37 38 41 31 30 38 36 30 37 30
internal_value=0 0.48911791887168848 0.3466135234649948 0.19598272727692265 -0.056869248274339153 0.18395606038170723 0.68952693167432866 0.69304394160871607 0.53410650597179554 0.76970475397708316 0.014824344538654588 -0.10113889583427069 0.42013771862337423 0.62381651900800816 0.57872670500030421 0.63788521650476238 0.71126460516026901 0.8304461627794667 0.49087620383599329 0.98612542047076501 -0.25634551525718624 0.50784007880043525 -0.37651575695492745 -0.33684232508916884 -0.21393977798896482 1.1368254619536475
internal_count=997 774 392 282 223 110 382 110 98 65 184 145 75 336 305 258 214 136 78 99 100 71 66 113 67 68
cat_boundaries=0 2 3 4
cat_threshold=134225938 262337 2 2
shrinkage=0.05


Tree=2
num_leaves=24
num_cat=1
split_feature=2 17 14 14 6 4 17 16 4 12 5 4 16 6 1 3 5 10 15 14 13 17 14
split_gain=10.080080594174435 3.7111320174253217 2.0768298747867355 1.7090639588956811 2.5677433204035491 1.6291754731148345 2.3338781644453399 1.4472490135575238 2.6516124930273981 1.349366832709918 1.2260272032350934 1.6710915393087462 0.86268581989119508 0.81590616491585521 0.8483911394278536 0.69909367807509071 1.0357011559381224 0.98426572654964151 0.9465691538608425 0.5150168104404127 0.19337290530858997 0.13975936288071011 0.029806166640414133
threshold=0 1.376689189189189 0.65450928381962881 0.17902930402930395 13531 -0.15555555555555553 1.7875939849624061 25.5 -9.9999996826552254e-21 1.6291005291005289 166420.5 0.1818181818181818 24.5 2391 35.5 9.5 85242.5 2.5 -9.9999996826552254e-21 0.85714285714285721 0.89039039039039036 1.0481997677119628 0.5
decision_type=1 10 8 10 8 2 8 10 2 10 10 2 10 10 2 8 10 2 8 8 8 8 8
left_child=5 2 3 -2 12 6 -1 -3 -9 -10 21 -12 -5 -7 15 22 -17 18 -18 -19 -20 -4 -15
right_child=1 7 10 4 -6 13 -8 8 9 -11 11 -13 -14 14 -16 16 17 19 20 -21 -22 -23 -24
leaf_value=-0.02320184931093023 -0.012914529087783594 0.026252475474363497 -0.033847122259444744 -0.011537187454633932 0.032481405737536363 -0.0072925463436492024 0.011343848268247039 0.029478136922733291 0.0044604047765872123 -0.0270919185834467 0.0072272837274328225 -0.021822899784152694 0.010556440041614251 -0.033687918789524172 -0.0080561097041247937 -0.036973308116910776 -0.011266187925055274 -0.0051338026304933657 -0.025238723760929817 -0.023467880969157771 -0.037500000003976935 -0.023580199530777279 -0.037246010823984509
leaf_count=55 58 57 30 46 40 33 30 33 41 32 46 52 34 45 32 57 31 50 30 32 51 36 46
internal_value=0 -0.019992728118234347 -0.14510759213789745 0.0054469802766413528 0.16324746815794405 -0.45137994292393857 -0.19890217237247293 0.25346442061200392 0.096959852807297603 -0.15223071230995516 -0.33046770137619225 -0.1736375453402258 -0.042229018026197426 -0.51101934994786069 -0.53654813361255715 -0.56417311935328585 -0.49991174307283209 -0.41763238016738236 -0.55443260509591441 -0.23367651485798019 -0.68265448836409215 -0.56484463712429822 -0.70694780516809175
internal_count=997 505 342 178 120 492 85 163 106 73 164 98 80 407 374 342 251 194 112 82 81 66 91
cat_boundaries=0 1
cat_threshold=2
shrinkage=0.05


Tree=3
num_leaves=25
num_cat=1
split_feature=0 14 19 1 11 10 11 19 14 11 14 15 1 3 15 1 1 3 18 11 18 3 3 5
split_gain=4.7495844664971374 3.8619124109112484 1.8616087446967082 1.7128951967616977 1.4345300173222999 1.3502832429902014 3.1344702338264439 1.6252200633072338 2.0000175925405297 1.7043419272301741 1.3479591108399602 1.3423080107771177 1.8693807471671879 1.4156469591297149 1.3589470544974236 1.0567401369000695 0.78904502606649629 0.82731493714919813 0.74810803837075013 0.72525446633051094 0.59725255675123456 0.2822873898192686 0.26861776803657822 0.24571345861892269
threshold=0 -0.14835164835164838 2.5 9.5 1.6913919413919414 5.5 1.893796992481203 -9.9999996826552254e-21 0.36842105263157887 1.3964285714285714 -0.18181818181818171 9.9999996826552254e-21 22.5 9.5 2.5 13.5 18.5 8.5 -0.52878289473684215 1.6348484848484848 0.27525252525252519 10.5 8.5 290928
decision_type=5 10 10 2 10 2 10 8 10 10 10 10 2 10 10 2 2 10 10 10 10 8 10 10
left_child=1 -1 5 -3 -4 6 7 16 9 10 -9 12 -5 18 -15 -7 21 19 -13 -18 22 -2 -10 -17
right_child=2 3 4 11 -6 15 -8 8 20 -11 -12 13 -14 14 -16 23 17 -19 -20 -21 -22 -23 -24 -25
leaf_value=0.037743130101233847 -0.034717554996870986 -0.019519085719139753 -0.010877287857704228 0.0092381587198914015 0.019469613492145169 -0.011339243693578391 0.015014104654255636 0.0030176283805205548 -0.034581933853120056 0.015066571097564711 -0.026317429421350753 0.010235696109642754 -0.023570443960236106 0.027529540920872699 0.0016991240978554934 -0.023896141559311117 0.0013536849475802807 -0.028312102083788267 -0.011245626316070961 -0.021315926988527762 -0.0075817251545847245 -0.023312628123333887 -0.0202719846016126 -0.035986224086962768
leaf_count=31 42 54 35 37 32 40 48 33 31 39 30 32 52 52 35 31 39 43 54 33 30 55 34 55
internal_value=0 0.051478808944801967 -0.26094903145028242 -0.01747296532530776 0.043451346887610098 -0.31965804098960521 -0.26435895161533857 -0.32070156424393342 -0.18543495430890297 -0.0087424187773230203 -0.21777949714738035 0.05234765476042124 -0.17631324203416882 0.15828559437896131 0.33269933219307651 -0.51218798014867406 -0.45481570502924706 -0.32588081143842895 -0.056051844686166433 -0.1768498186235973 -0.4392168298185628 -0.5908537167310296 -0.55265780514395679 -0.64302633581538027
internal_count=997 347 650 316 67 583 457 409 197 102 63 262 89 173 87 126 212 115 86 72 95 97 65 86
cat_boundaries=0 2
cat_threshold=335675442 427201
shrinkage=0.05


Tree=4
num_leaves=26
num_cat=3
split_feature=0 2 18 11 2 19 10 13 19 17 5 5 12 13 17 1 17 3 12 13 13 11 12 10 3
split_gain=8.1204265879385602 4.5729944667239906 4.2085724913215117 3.4719155976020288 2.5914115794550767 3.1310269412423377 2.3863625093841208 2.3015642164522117 2.2953359584650004 2.6097168688851706 1.9012101194522195 1.8160851881743119 1.7797272558126549 1.5036366659356206 1.3534409660023812 1.7337387292426385 2.9919054783543144 2.240761109646157 0.94090836178712389 0.88165793851719343 1.5161074722644603 1.1761658308375198 1.196048402497758 0.43672756608697894 0.73532443012566884
threshold=0 1 -0.52086956521739125 1.7537878787878789 2 2.5 7.5 1.0513157894736842 9.9999996826552254e-21 1.1188235294117648 52694 344203 1.623310810810811 0.9177927927927928 0.65833333333333333 17.5 1.2806250000000001 5 1.3834841628959276 0.79057017543859653 1.1835016835016834 1.7928921568627452 1.4156504065040649 1.5 10.5
decision_type=5 1 10 10 1 8 2 10 8 10 10 10 10 8 10 2 10 10 10 10 10 10 10 2 8
left_child=4 6 7 10 5 12 14 13 9 -5 -4 18 -1 -3 -2 16 17 -16 -12 -17 21 22 -21 -6 -25
right_child=1 2 3 8 23 -7 -8 -9 -10 -11 11 -13 -14 -15 15 19 -18 -19 -20 20 -22 -23 -24 24 -26
leaf_value=0.039210781656020557 0.050033141942132778 0.03428349426106031 0.021571693970671137 0.012271463700049379 -0.025480209635552205 -0.015376402130435635 0.05427396419373736 0.04926846639057611 0.0017374710718891424 0.054676889646860807 -0.0032728957759329182 0.013983303320864513 0.001005219466852104 0.0026359146746255408 0.049006628644057193 0.048197246455976867 -0.0098036399232922719 0.015189194815058144 -0.023766306720634796 0.015158271281961976 0.044779858409229052 0.0011275548262028342 0.041931270910572832 -0.02191878043032422 0.003036022845269876
leaf_count=39 31 43 39 30 46 39 46 35 33 35 56 45 32 32 33 36 35 52 44 33 45 30 41 30 37
internal_value=0 0.46548785370098367 0.33169556652879706 0.18770547038864754 -0.055723750177754966 0.17573414389542258 0.65229202523787244 0.65944237832178831 0.50931525619180651 0.73147041380757261 0.013469599796603606 -0.09971983044460668 0.48472723760861136 0.40002065231435485 0.59024857760977578 0.54778819099783471 0.35774301258233526 0.54703921255887278 -0.25109373369868632 0.67740145011113762 0.60387196152574962 0.44780607879536755 0.57529503932390347 -0.32847719268494707 -0.2069240641874745
internal_count=997 774 392 282 223 110 382 110 98 65 184 145 71 75 336 305 120 85 100 185 149 104 74 113 67
cat_boundaries=0 2 3 4
cat_threshold=134225938 262337 2 2
shrinkage=0.05


Tree=5
num_leaves=27
num_cat=2
split_feature=2 18 11 0 6 18 13 9 12 1 6 3 19 18 8 13 6 12 14 14 11 11 13 1 13 17
split_gain=9.5318791968028815 4.8981270606783855 4.1958588292753305 3.6612140956402683 2.3228729326777442 2.2420969118454668 2.0076442620722856 1.3463201129014415 1.3189497135700829 1.8710376428905882 1.2506769293246629 1.37239352278629 0.96854975223509232 0.80951805539231192 0.70812268028189918 0.53837131783606207 0.49099868863376273 0.68303194576290238 0.78109083865007167 0.47133931304989574 2.5241298878108687 0.15419383382238117 0.077389846476860313 0.041490552765225175 0.01972477384833482 6.8609964801957801e-05
threshold=0 -0.66666666666666674 1.7537878787878789 1 2787 0.36700336700336711 1.2834821428571428 1.5 1.3585714285714285 13.5 8005 7.5 -9.9999996826552254e-21 -0.075961538461538636 7.5 1.013157894736842 3907.5 1.1972222222222222 0.098780487804878025 0.37321428571428572 1.5931712962962963 1.9354166666666668 0.79743589743589749 19.5 1.2466216216216215 1.2360681114551084
decision_type=1 10 10 5 10 8 10 2 10 2 10 10 8 10 2 8 8 8 8 10 10 10 10 2 10 8
left_child=3 15 4 12 -3 10 7 8 9 -6 -4 -12 -1 -10 -14 -2 23 18 -18 24 -21 22 -22 -5 -19 -24
right_child=1 2 5 16 6 -7 -8 -9 13 -11 11 -13 14 -15 -16 -17 17 19 -20 20 21 -23 25 -25 -26 -27
leaf_value=-0.014862762975907559 -0.012156691913896258 -0.013326194011278445 -0.033278749958247061 -0.032229790223154982 0.010188122987046232 0.01367348969846789 -0.0045625803868080258 0.038736049492836544 -0.0090018856416968981 0.043697661480071273 0.010084199147906613 -0.021418212464438795 0.021064327704703033 0.01518239418121793 -0.00059037601348773565 -0.028555653545002436 -0.026503282601280143 -0.037032541342518231 -0.0043617138604989548 0.0027734173257455428 -0.030104482469588439 -0.026746505883404211 -0.036909166362263317 -0.036968178692873846 -0.033586434060380942 -0.037153222414451841
leaf_count=31 49 34 38 34 40 38 38 41 32 34 30 39 38 41 35 51 36 38 33 34 30 43 31 49 30 30
internal_value=0 -0.018949714581021373 0.086365670595141414 -0.43975606920043331 0.24756264841855052 -0.2127634555286049 0.32747075875186837 0.42544423881040033 0.32825114682713774 0.51894644819188651 -0.36408932046822223 -0.18558131606829098 0.044398608955161879 0.10532169928130602 0.19586881281854204 -0.44811617206968402 -0.5018545662079158 -0.51966628337071419 -0.34141627222021392 -0.57665567731701595 -0.50830454187391971 -0.64055836158814883 -0.69379484703730032 -0.70104786537083308 -0.71200342269164418 -0.7400819384099302
internal_count=997 505 405 492 260 145 226 188 147 74 107 69 104 73 73 100 388 305 69 236 168 134 91 83 68 61
cat_boundaries=0 1 2
cat_threshold=2 138469380
shrinkage=0.05


Tree=6
num_leaves=24
num_cat=1
split_feature=14 5 11 10 11 6 10 17 1 1 8 18 11 15 12 11 5 18 14 9 9 19 2
split_gain=2.6969326272808978 2.6234768794612982 2.3350504825693319 2.3535453840838114 2.9397106459210551 2.6648639899506823 3.0938300689690292 3.4756595741465683 2.2981704990550185 1.6686854172135668 2.1023318787222052 1.5653262510483794 1.1544122286035168 1.0080562965438187 0.9896058658134137 0.93550089579012274 0.95139901899257207 1.1409795923793689 0.6511958991259994 0.48939309264737041 1.0899359803173772 0.43178801108603704 0.094635217954882833
threshold=-0.17028985507246375 155045.5 1.3858560794044665 11.5 2.1081871345029239 7359 3.5 1.8078947368421052 26.5 7.5 8.5 -0.24999999999999994 1.893796992481203 -9.9999996826552254e-21 1.5917508417508417 1.7974358974358975 223349 -0.1428571428571429 0.57142857142857162 1.5 9.9999996826552254e-21 9.9999996826552254e-21 0
decision_type=10 8 10 2 10 8 2 10 2 2 2 8 10 10 10 10 10 10 10 2 2 10 1
left_child=1 -1 13 4 5 8 7 12 9 -4 11 -11 15 -2 -10 16 -7 18 -18 20 -8 22 -15
right_child=2 -3 3 -5 -6 6 19 -9 14 10 -12 -13 -14 21 -16 -17 17 -19 -20 -21 -22 -23 -24
leaf_value=-0.010251744510811373 -0.0081819076822062225 0.026614027180841035 -0.013192856541515292 -0.030246568777113528 0.025959650717292105 0.0080392093327715242 -0.030886425828598518 0.022579753391973292 -0.020683774646825047 0.020442523890195116 0.034141185017679682 -0.0070752385433742156 0.0094450164351120441 -0.028282154272780014 0.0010682622522945218 -0.030528442909735332 -0.030868514176762393 -0.0026121444307605751 -0.010574239439268832 -0.033740396045681166 -0.006577831463957024 -0.018200636689833329 -0.036237672771970354
leaf_count=37 48 41 34 55 30 40 51 31 53 38 39 57 34 31 40 37 43 57 34 58 36 34 39
internal_value=0 0.19575069827056071 -0.1947207015007032 -0.14593183067359128 -0.11443868366657388 -0.14488913359844741 -0.25626419932571426 -0.11711864104692046 0.019698806348237109 0.17150404465731076 0.27526597067542163 0.10233864022997066 -0.22585134347943708 -0.43988709711253354 -0.23833066650426132 -0.28484029389454091 -0.21531565538993563 -0.28962261259487954 -0.45870795937739561 -0.51270722951168535 -0.41371270657766063 -0.55251087056210479 -0.65203222544846307
internal_count=997 78 919 767 712 682 421 276 261 168 134 95 245 152 93 211 174 134 77 145 87 104 70
cat_boundaries=0 1
cat_threshold=1
shrinkage=0.05


Tree=7
num_leaves=25
num_cat=3
split_feature=0 2 19 11 17 2 19 10 17 5 8 17 5 1 3 12 3 11 17 5 3 12 10 3
split_gain=7.4185883723742201 4.0685724137110739 3.6116485616554375 3.1913173556087866 2.7936164525547351 2.4182461367454064 2.9298158389012117 2.1614112121692628 1.9926922178926869 1.889056961881475 1.6763873060036723 1.9788126652632521 2.2179759694211807 2.2149451775294597 4.2596998176470793 1.6458654116509899 1.4551058774358085 1.3243090205114907 1.2617320402219323 1.1004851166986547 1.0749290427813909 1.0015054786350626 0.42701030929353267 0.69020578173479841
threshold=0 1 9.9999996826552254e-21 1.7312382739212007 1.0822072072072073 2 2.5 7.5 1.106203007518797 199032.5 3.5 0.67333333333333334 365247.5 26.5 5 1.623310810810811 5 1.5735930735930737 1.1376262626262625 320084 9.5 1.2834821428571428 1.5 10.5
decision_type=5 1 10 10 10 1 8 2 8 10 2 10 10 2 10 10 10 10 10 8 8 10 2 8
left_child=5 7 3 4 9 6 15 10 16 -3 -2 -12 13 14 -13 -1 -5 -15 -16 21 -11 -4 -7 -24
right_child=1 2 19 8 -6 22 -8 -9 -10 20 11 12 -14 17 18 -17 -18 -19 -20 -21 -22 -23 23 -25
leaf_value=0.037441647418507279 0.045017131218479903 0.035724147365642889 0.008950289205929678 0.044554370952529884 -0.0084728324872896995 -0.024995823794368047 -0.015101717635222731 0.051299632996332382 0.053980120957500016 0.020645464289400176 0.049580188036157921 0.043986094634093698 -0.0032514048049014084 0.024693597808504983 -0.0074546134266820045 0.00082996818970025501 0.012413797465490664 0.051645896788329808 0.016275110584385646 0.016665037767479681 -0.0070517218158110883 -0.014458113997385176 -0.021290324235311697 0.0029526401296212901
leaf_count=39 55 52 30 31 56 46 39 46 40 30 30 48 38 35 38 32 38 47 45 31 30 54 30 37
internal_value=0 0.44341422483602894 0.31742969531764637 0.44955306938473061 0.26783195333869397 -0.05430954242447078 0.16791119817697753 0.61821097819045523 0.73000301130819012 0.43595868406688454 0.55937596623149666 0.49692758737368858 0.43681262548866562 0.51130268912068944 0.35727367366921603 0.46402419012442664 0.49849946809719869 0.78964150106037245 0.11212549510047998 0.013020568291876573 0.18884009005926117 -0.11340149366013046 -0.31969938154854205 -0.19927579563153294
internal_count=997 774 392 277 168 223 110 382 109 112 336 281 251 213 131 71 69 82 83 115 60 84 113 67
cat_boundaries=0 2 3 4
cat_threshold=134225938 262337 2 2
shrinkage=0.05


Tree=8
num_leaves=27
num_cat=1
split_feature=2 18 18 14 5 1 18 13 16 4 4 5 5 4 5 4 1 14 5 1 18 13 13 17 13 3
split_gain=9.0168895553527584 4.6122375854469366 3.2221113258875587 2.609914698192672 2.3240616567926375 2.0055611604892003 1.7022098865151953 1.6515177841511588 1.9452579869597102 1.4892175879369161 1.3006704364497432 1.2804520079412054 1.2561777580829094 1.2272968502443415 0.81123416626747291 0.81848221957530676 0.63955198491631471 1.3047909546944092 0.57423566969454765 0.53378524399618144 0.4193534898038962 0.46627468767499547 0.12177936130638223 0.093612462896504489 0.070115426657865854 0.0031884971991935629
threshold=0 -0.66666666666666674 1.0909090909090908 0.72111111111111115 47370.5 15.5 -0.23669467787114851 1.2834821428571428 34.5 -0.15555555555555553 -0.23636363636363636 365247.5 304262 0.1818181818181818 166420.5 9.9999996826552254e-21 17.5 0.4932432432432432 155045.5 30.5 -0.64611005692599621 1.0779352226720649 0.85504201680672265 1.1091269841269842 0.90161290322580645 3.5
decision_type=1 10 8 10 10 2 10 10 10 2 2 10 10 2 10 2 2 10 8 2 10 8 10 10 10 10
left_child=6 13 3 4 -3 -5 20 8 12 10 -8 16 23 18 -7 -16 17 -11 -2 24 21 -1 -22 -6 -18 -24
right_child=1 2 -4 5 7 14 9 -9 -10 11 -12 -13 -14 -15 15 -17 19 -19 -20 -21 22 -23 25 -25 -26 -27
leaf_value=-0.032388333648776968 -0.02179273718112594 -0.014861346844926085 0.036848215039183091 0.010022843855500814 0.0097379811420990527 -0.032480978016382937 -0.016187175701396075 -0.0083874247453009799 -0.00055394229467339471 -0.030118819836819834 0.012445530392290897 0.00013363763016538207 0.036406143317753333 -0.034492020465794013 0.0041899578544687954 -0.022429431135774166 -0.029320613543357583 -0.001230481105303815 0.0010043680880360351 -0.019100094160492725 -0.028186248003110592 -0.015859300212580085 -0.035172526188304229 0.018276816113022405 -0.036097648406712708 -0.036586887409919215
leaf_count=47 30 39 30 39 30 38 38 33 50 35 30 30 54 39 32 30 33 39 31 50 40 33 33 30 40 44
internal_value=0 -0.017949383664442431 0.08367138358800498 0.027063037535635586 0.15762332074179197 -0.22225465762474225 -0.42858155677626564 0.25472082986350036 0.34486683757673692 -0.32769205399419471 -0.062871447917344836 -0.41452726551742197 0.49778121175547502 -0.43725586537900224 -0.39442673517728521 -0.23208260590873575 -0.47745969578783809 -0.31681131798877976 -0.20714356793236824 -0.57140428288745171 -0.58822137758480531 -0.46919720942607684 -0.67430684493014481 0.27963479452568879 -0.67680010514768829 -0.7206755904689377
internal_count=997 505 405 375 236 139 492 197 164 295 68 227 114 100 100 62 197 74 61 123 197 80 117 60 73 77
cat_boundaries=0 1
cat_threshold=2
shrinkage=0.05


Tree=9
num_leaves=25
num_cat=1
split_feature=0 14 12 14 15 19 11 10 11 19 14 12 13 16 14 1 12 1 3 11 3 3 16 15
split_gain=4.4079360588964134 3.5284214359314037 2.1829108592492132 1.8559230810598342 1.74551997172532 1.6912682420112688 1.3277499353051179 1.2536555425865696 2.8757590024628703 1.513746541556575 1.8670636921043764 1.7537769607312192 1.2181434090005405 1.1026448776398381 1.3582157758357949 1.437711954526282 0.99392580901706573 0.7607575847944954 0.80576065546844644 0.69609476699984341 0.56068017417887095 0.27740939264486641 0.20928250461118125 0.036769498242076537
threshold=0 -0.14835164835164838 1.5638586956521738 1.052777777777778 9.9999996826552254e-21 2.5 1.6913919413919414 5.5 1.893796992481203 -9.9999996826552254e-21 0.36842105263157887 1.1644144144144144 0.62033462033462028 9.5 0.4932432432432432 25.5 1.7464285714285714 18.5 8.5 1.6348484848484848 8.5 10.5 22.5 3.5
decision_type=5 10 10 8 10 10 10 2 10 8 10 10 8 10 10 2 10 2 10 10 10 8 8 8
left_child=1 -1 13 4 -4 7 -7 8 9 17 11 -11 -9 -3 15 -15 -6 21 19 -19 -12 -2 -14 -24
right_child=5 2 3 -5 16 6 -8 12 -10 10 20 -13 22 14 -16 -17 -18 18 -20 -21 -22 -23 23 -25
leaf_value=0.036064683781276502 -0.033807298719089759 -0.025564229500493443 -0.0079976684040916051 -0.0099541640260712386 0.01659019583390365 -0.010523485785905418 0.018640795366490819 -0.0060806770250678051 0.014398407940341805 -0.013335103117573103 -0.030597336668955095 0.012539445763854035 -0.023671605837061262 0.015522809594738472 -0.019331325664762929 -0.011912136107735741 0.043044479301377857 0.0019246086910865053 -0.027458563589452652 -0.020437083842282672 -0.012905652389595271 -0.022368221810456515 -0.030774305173889821 -0.036156539592243908
leaf_count=31 42 39 32 39 51 35 32 31 48 52 43 50 30 45 41 39 30 39 43 33 52 55 31 34
internal_value=0 0.053612953028716902 -0.01242069708139416 0.19485309886365648 0.35948169505673527 -0.24730759637788072 0.042410429261356658 -0.30394874884643058 -0.25057040400666192 -0.30544506430149237 -0.1746606603696422 -0.0043042372444217804 -0.4919215058255173 -0.17315975802335926 -0.084789318601231331 0.06901962361625745 0.5259810526364922 -0.43650615649375518 -0.30919132128140864 -0.16153266940342051 -0.42260175960803781 -0.57197299823655601 -0.61096381366789532 -0.6837338975962769
internal_count=997 347 316 152 113 650 67 583 457 409 197 102 126 164 125 84 81 212 115 72 95 97 95 65
cat_boundaries=0 2
cat_threshold=335675442 427201
shrinkage=0.05


Tree=10
num_leaves=25
num_cat=3
split_feature=0 2 19 11 14 2 19 16 10 9 12 5 12 19 16 3 1 12 9 19 15 5 14 10
split_gain=6.8172686769142459 3.623272695650428 3.3502975105332986 2.9349538546119955 2.5138683921875962 2.248741576916673 2.7459027953583912 1.992072325721443 1.9533393132617327 1.5960267262782208 1.5209595731637089 1.0465656949827264 0.95781758516655779 0.9083854742926647 1.8451448710057732 1.3166937895725539 1.3806657929666599 1.6303179502743745 1.0393195989364903 0.60889686851634384 0.60587987673312504 0.41737628481327765 0.40965334710770462 0.15801847787804624
threshold=0 1 9.9999996826552254e-21 1.7312382739212007 0.17902930402930395 2 2.5 23.5 7.5 9.9999996826552254e-21 1.6120071684587813 320084 1.2834821428571428 9.9999996826552254e-21 20.5 6.5 28.5 1.1644144144144144 9.9999996826552254e-21 -1.5 1.5 223349 0.45830115830115825 2.5
decision_type=5 1 10 10 8 1 8 8 2 2 8 8 10 10 10 8 2 10 2 10 8 10 10 2
left_child=5 8 3 4 -3 6 10 -5 13 19 -1 12 -4 15 -15 -2 17 -17 -19 -6 -16 -11 -7 -24
right_child=1 2 11 7 9 22 -8 -9 -10 21 -12 -13 -14 14 20 16 -18 18 -20 -21 -22 -23 23 -25
leaf_value=0.035723073001215362 0.045309974180803465 0.031352274659390111 0.0086204220386433533 0.020706364018124004 0.026721751621006224 -0.0073101050490970727 -0.014885839712264703 0.048975313692002462 0.048542606039261887 0.00050997187097496805 0.00064448909819193672 0.016106952680723135 -0.014260477892890004 -0.0029063648839819612 0.035618969792616306 0.035958101886621401 0.041374970842229283 0.0024153788219244952 0.024966012443697831 0.0039772945512908517 0.017098353224159785 -0.016950620955340754 -0.028698714493414369 -0.016639015695615947
leaf_count=39 41 46 30 55 31 45 39 54 46 31 32 31 54 32 39 43 54 56 39 30 32 30 30 38
internal_value=0 0.42298777261100118 0.30433275080075195 0.43074557273745012 0.25659787283325508 -0.053503421297886287 0.1593001004023622 0.69767520061831145 0.5868594437647453 0.078996250612747898 0.44349637122980928 0.010981277805853057 -0.11264085443451319 0.53109924009523823 0.37285190350397684 0.60315838849217518 0.52377888616683066 0.41897454426960007 0.25055638004792496 0.3439757570846102 0.54462160220483269 -0.15421626060083468 -0.31142618733348065 -0.4384599127606793
internal_count=997 774 392 277 168 223 110 109 382 122 71 115 84 336 103 233 192 138 95 61 71 61 113 68
cat_boundaries=0 2 3 4
cat_threshold=134225938 262337 2 2
shrinkage=0.05


Tree=11
num_leaves=25
num_cat=3
split_feature=2 0 0 11 17 11 16 6 3 16 12 19 16 5 12 14 5 14 11 11 12 1 11 12
split_gain=8.5428687919365469 3.5193383582723818 3.3485971930244811 2.5266463237333046 2.0171890459143715 2.5496373452341627 2.1343287465949214 1.9051169068793028 1.7581353528192922 2.2517819043719225 1.6311460011074854 1.5367979752687708 1.0632627767100784 0.53977239666074439 0.65697072944462853 0.77927136736971558 0.49619592908210652 0.45705250827754895 2.4233017206390919 0.15617751386636769 0.12023140891111073 0.05262148048397286 0.046066815961482099 0.02055966060119907
threshold=0 1 2 1.7537878787878789 1.1550480769230769 1.4082491582491583 34.5 14127 6.5 23.5 1.3288288288288288 1.5 25.5 85242.5 1.1972222222222222 0.10912698412698418 114694 0.37321428571428572 1.5931712962962963 1.9354166666666668 1.7625313283208019 17.5 1.7974358974358975 1.4082491582491583
decision_type=1 5 5 8 10 10 8 10 10 8 10 10 8 8 8 10 10 10 10 10 8 2 10 8
left_child=1 12 10 4 7 -6 -7 16 9 -5 -2 -12 -1 21 15 -15 -4 23 -19 22 -10 -3 -20 -16
right_child=2 13 3 8 5 6 -8 -9 20 -11 11 -13 -14 14 17 -17 -18 18 19 -21 -22 -23 -24 -25
leaf_value=-0.008027936950842739 0.033136349161910016 -0.030357638562781775 -0.0079484658678359993 0.018597723739640366 -0.014229430918862876 0.043514329987290323 0.0035397713715719192 0.013209971233298527 -0.025415598737761426 -0.021769253087845514 -0.0063429937826431117 0.022770414159532491 0.014800883449742822 -0.025364077550280691 -0.036154534882272639 -0.0029532856406066094 -0.022406796670767469 0.0035080147158602056 -0.036102701843324828 -0.025506444139890727 -0.034571644366483127 -0.035854771867828393 -0.030934825476119199 -0.032512949807002221
leaf_count=48 34 31 57 32 30 33 30 36 30 50 50 39 56 36 33 32 49 34 47 43 35 58 43 31
internal_value=0 -0.41788851481160916 -0.016824789993526226 -0.11838018756946769 0.00041887131385457955 0.25404182228782723 0.49714788433721235 -0.15443396674653109 -0.36807676082858187 -0.12185194086887713 0.23712806724743929 0.14873081073412939 0.049570533110224392 -0.48022731019716008 -0.49278459481691211 -0.31620201460599245 -0.29713484754035213 -0.55077987199695055 -0.48321866290387777 -0.61763355047809732 -0.61279859778837542 -0.68143102423006419 -0.67305646388252083 -0.69086831439708429
internal_count=997 492 505 382 235 93 63 142 147 82 123 89 104 388 299 68 106 231 167 133 65 89 90 64
cat_boundaries=0 1 2 4
cat_threshold=2 138469380 1207967746 8192
shrinkage=0.05


Tree=12
num_leaves=27
num_cat=1
split_feature=0 14 16 19 11 1 10 11 19 13 13 6 13 15 15 17 19 3 5 1 3 11 16 13 18 3
split_gain=4.1268442046231462 3.2956562631707369 1.8904901894114263 1.6101448498452982 1.2524690451290665 1.2199274308234227 1.2080037319589554 2.747618885296081 1.4902204822949967 1.7179973405876849 3.2797415945712127 2.6329556190729666 1.1918809009832536 1.1448410758107572 0.98600949851865449 1.0730737968451205 1.0306939111821674 0.97768630062190442 0.74786121283388796 0.74271798974879655 0.78206260735802768 0.66198702868959436 0.61938414315723844 0.27397876444664959 0.25647440912776265 0.063740842600349623
threshold=0 -0.14835164835164838 9.5 2.5 1.6913919413919414 26.5 5.5 1.8982758620689655 -9.9999996826552254e-21 1.3279569892473118 1.0754985754985755 14422.5 0.62033462033462028 9.9999996826552254e-21 1.5 1.3660287081339713 -9.9999996826552254e-21 9.5 155045.5 18.5 8.5 1.6348484848484848 29.5 1.0533428165007113 -9.9999996826552254e-21 5
decision_type=5 10 10 10 10 2 2 10 8 8 10 8 8 8 10 8 10 10 8 2 10 10 10 10 10 10
left_child=1 -1 18 6 -5 14 7 8 19 10 11 22 -8 -7 16 -16 -4 -15 -3 23 21 -21 -10 25 -14 -2
right_child=3 2 5 4 -6 13 12 -9 9 -11 -12 -13 24 17 15 -17 -18 -19 -20 20 -22 -23 -24 -25 -26 -27
leaf_value=0.034655507216537457 -0.026516144343595463 -0.032001408614989311 -0.012432193475352196 -0.010196216817841778 0.01812025738525375 -0.022697882165963849 -0.0056996265434510465 0.01509979904199569 -0.0036228149596407994 0.011278278813623026 -0.030903841808275559 0.025252234507998069 -0.03529281180318454 -0.012065472709759578 0.034325104609171035 0.0064091577412679727 0.01220122130615469 0.012942619652855612 -0.006639477122311806 0.0019994321626690837 -0.026926946840697231 -0.019884580126686202 -0.025118727740556082 -0.033665962700309318 -0.024112036053092534 -0.018637145909300542
leaf_count=31 30 30 34 35 32 37 31 46 42 33 54 39 52 31 30 31 48 36 39 39 43 33 31 37 43 30
internal_value=0 0.05189107360965102 -0.01233394041110376 -0.23954590417415361 0.043106159616469408 0.066675221166595508 -0.29512953720202495 -0.24266321297959667 -0.29489290230367782 -0.16623528658232126 -0.26469285154747518 -0.0039307719126419989 -0.48104519476737417 -0.1101794030384871 0.19479946966134146 0.39448043789946213 0.036634058792560764 0.037058287452671361 -0.37776231240673469 -0.42631532521388943 -0.30015426008621526 -0.15460166448603099 -0.25652485588845436 -0.56134355022168292 -0.60017641693631285 -0.44515881232868193
internal_count=997 347 316 650 67 247 583 457 411 199 166 112 126 104 143 61 82 67 69 212 115 72 73 97 95 60
cat_boundaries=0 2
cat_threshold=335675442 427201
shrinkage=0.05


Tree=13
num_leaves=26
num_cat=2
split_feature=18 2 1 2 1 16 11 13 3 16 1 18 1 6 17 3 9 17 13 1 13 6 13 19 14
split_gain=6.3454842350295593 3.5782635548590824 3.2519711549592962 1.9789754021711303 2.5191534315657069 1.5809279093987545 2.1560059367970918 1.5563150410462459 1.5478119625193272 1.2584094786985234 2.4713786695575788 1.5836414449188119 1.1920305166425607 1.6705897077764771 1.5293940282568137 1.3567732220615021 1.3638361192722019 1.2387024004474112 1.1736853926462718 1.0604702468226979 0.92728593566882878 0.87004270291571828 0.81430253338448677 0.7593753230494098 0.69060139395284759
threshold=0.059714795008912636 0 17.5 1 5.5 12.5 1.8550420168067228 0.98780487804878048 8.5 48.5 23.5 0.58257713248638832 27.5 13793 0.62019230769230771 3.5 9.9999996826552254e-21 0.96662958843159075 1.0392307692307692 31.5 0.94590643274853803 11601 1.0350985221674878 1.5 0.58333333333333348
decision_type=10 1 2 1 2 8 10 10 8 8 2 10 2 8 8 10 2 8 10 2 10 10 10 8 10
left_child=3 2 7 12 -5 21 8 -2 -7 10 11 20 14 -14 -1 17 18 -16 -17 23 -3 -6 24 -4 -10
right_child=1 9 19 4 5 6 -8 -9 22 -11 -12 -13 13 -15 15 16 -18 -19 -20 -21 -22 -23 -24 -25 -26
leaf_value=0.047079640710855908 0.015972329775134221 -0.0039413870239171766 0.042358624210970509 -0.0090036224367630677 0.048284204566559949 0.025172870283686768 0.031611306770080831 -0.014090447853556495 0.022903105648673608 -0.023674357755223779 0.028021241085428091 0.0088825028396844127 0.050397834178128001 0.020715483065941866 0.015799979724352931 -0.0088333564343049936 0.028872013044805602 0.045639047973831059 0.017618608123369964 0.0097809541749152486 -0.027608569324481438 0.023798901489554363 -0.0076280439778345357 0.022508620781190408 -0.0026621957882024894
leaf_count=33 40 43 45 38 33 40 56 38 30 36 31 44 54 35 32 35 41 42 30 32 38 32 53 35 31
internal_value=0 0.11749998290920211 0.31561055422157969 0.46615476136909401 0.34807410990184312 0.41559802073850599 0.328078695246938 -0.01784778189541639 0.18055250520507207 -0.1000741121151639 -0.014895342442366956 -0.14823685496967864 0.58533113368104717 0.7890516127215309 0.50172819784977429 0.4316624863490921 0.30357861300923095 0.67912521634006529 0.12702280933947804 0.54005271228172447 -0.33404081714404765 0.70401255561906528 0.032407343208420404 0.65860431734688663 0.23089111409857807
internal_count=997 382 190 615 313 275 210 78 154 192 156 125 302 89 213 180 106 74 65 112 81 65 114 80 61
cat_boundaries=0 1 2
cat_threshold=2 2
shrinkage=0.05


Tree=14
num_leaves=26
num_cat=0
split_feature=17 1 4 11 13 15 6 12 17 17 16 11 11 12 13 13 13 12 13 13 11 16 19 19 6
split_gain=3.141108418437522 1.8356129858887356 2.3125854523819545 1.3142979641202324 2.3152203984536004 1.8337980727619323 1.3750164262186981 1.5094773320752941 1.1915832056718614 1.1170854080947179 0.9408136251025736 0.89128437274914551 1.1051920979017125 0.86024095894009456 0.74181488300306875 0.68770787996944716 1.0342139756635156 0.58788217018920186 0.68150246488049504 0.73178531145179937 0.53302875368236524 0.50139552315010594 0.49971215509688882 0.35319548505261356 0.099309271562931567
threshold=1.396969696969697 17.5 -9.9999996826552254e-21 1.6561576354679803 1.2875939849624061 1.5 14236 1.6306042884990253 1.5406593406593407 1.8596059113300494 31.5 1.4082491582491583 1.581989247311828 1.5917508417508417 1.0339080459770116 0.74642857142857144 1.179144385026738 1.3956521739130434 1.0274024024024024 0.90161290322580645 1.2970588235294118 23.5 -1.5 -9.9999996826552254e-21 7359
decision_type=10 2 2 8 10 10 10 10 10 10 8 10 10 10 8 10 10 10 10 10 10 8 8 8 10
left_child=3 11 9 4 5 10 17 -8 -4 -3 15 -2 -13 -10 -7 -1 20 -5 19 21 -17 -19 -22 -6 -23
right_child=1 2 8 6 23 14 7 -9 13 -11 -12 12 -14 -15 -16 16 -18 18 -20 -21 22 24 -24 -25 -26
leaf_value=0.0024555881967796294 -0.0027442528046904974 -0.0075572000200707055 0.0015028476635278063 -0.033500241827736497 -0.019727547773038926 0.024150626484492031 0.0061893890849883124 -0.020919807268613994 -0.01330508691996116 0.020761843876296759 0.0045641611659251475 0.031283193857918126 0.0049149170242828062 -0.034844108290267538 0.00088354260176293383 -0.011203778556746978 -0.0036498978441845777 -0.010137753236586465 -0.030403698037979088 0.0080214112110319046 -0.017779866154736531 -0.031777598984490639 -0.035692064064650822 -0.034521090579722115 -0.021875035069886823
leaf_count=31 41 33 38 58 37 30 42 55 41 30 41 33 50 40 31 32 43 55 36 30 33 30 46 31 30
internal_value=0 -0.024783050633439101 -0.16253306654771926 -0.28883417498704356 -0.20124497022824608 -0.11419743784507841 -0.39171473755755493 -0.17823922483696381 -0.34590467784719803 0.16130195919130791 -0.20773166479620944 0.1796413973277976 0.32445980352741555 -0.47337235982604731 0.19883301433696202 -0.27297850448964989 -0.32691662673138094 -0.48774881475770931 -0.41802197319081391 -0.31085135734194191 -0.44704019555191921 -0.38342771908282858 -0.55090135002517782 -0.53885759262469923 -0.53311448697153907
internal_count=997 306 182 691 355 287 336 97 119 63 226 124 83 81 61 185 154 239 181 145 111 115 79 68 60
shrinkage=0.05


Tree=15
num_leaves=25
num_cat=1
split_feature=0 14 12 14 18 16 13 11 14 5 13 14 17 12 19 13 17 11 18 3 4 18 11 1
split_gain=3.9339440654894133 3.0416220218201424 2.088826340316468 1.710588825762986 1.5576005738666474 2.3370902402095282 2.8119286474867953 1.9187610443947527 1.406965622293797 2.0164653095623204 1.2111614725742363 1.1846753580554203 1.1755538815067661 1.0702587362707665 0.98393209905340129 0.8302412541141535 0.67554362846675153 0.65737971716343502 0.74939118285180695 1.788978479203305 0.4926479454572732 0.43294654643381714 0.4020064889567414 0.34946856389468661
threshold=0 -0.08391608391608385 1.5638586956521738 1.052777777777778 0.14087301587301582 25.5 0.98780487804878048 2.1557575757575758 0.65751879699248117 166420.5 1.0727513227513228 0.37089947089947084 0.89087301587301582 1.7343137254901961 -1.5 1.0339080459770116 1.3469899665551841 1.603030303030303 -0.17445652173913051 6.5 0.17424242424242423 -0.26969696969696977 1.581989247311828 25.5
decision_type=5 10 10 8 10 10 10 8 10 8 10 10 10 10 8 10 10 10 10 10 2 8 10 2
left_child=1 -1 15 8 7 6 -6 10 -4 -10 11 12 -2 22 -12 16 21 -13 19 23 -16 -3 -7 -19
right_child=4 2 3 -5 5 13 -8 -9 9 -11 14 17 -14 -15 20 -17 -18 18 -20 -21 -22 -23 -24 -25
leaf_value=0.031433785980621458 -0.016393592495941304 -0.012420070449791999 -0.0023872004656983505 -0.0096741525232539975 -0.015126248856174994 -0.028372567839377711 0.024713296389070452 0.0091163102937374708 0.041079817145373489 0.0021204222052815759 -0.014369142611076855 -0.029998661649052794 0.012607535967159484 0.0043156034396884414 -0.0206923390748067 0.0029044140733320428 -0.0029535803165724565 -0.027929086378872738 -0.025328459467429138 0.017522228741936673 -0.035263717010666058 -0.028979507918669902 -0.013996577936039097 -0.0091232712176342653
leaf_count=34 33 36 32 39 45 35 42 33 44 37 54 44 35 30 32 46 43 33 59 32 57 36 56 30
internal_value=0 0.05188054546524281 -0.014348370046200166 0.18642619824151607 -0.2327894336567079 -0.095158494339995028 0.17663292214200568 -0.32229510074265971 0.34314617581503465 0.52010889057861542 -0.36261852467892264 -0.25098715937774024 -0.0097291114178523954 -0.28878137983072222 -0.48687092221796574 -0.17569356778725012 -0.27502791888828837 -0.35774500017801047 -0.27263295268593885 -0.13686875175164051 -0.60622821988107878 -0.39970263924157184 -0.39880102342759005 -0.38274890857086813
internal_count=997 347 313 152 650 208 87 442 113 81 409 266 68 121 143 161 115 198 154 95 89 72 91 63
cat_boundaries=0 2
cat_threshold=335675442 427201
shrinkage=0.05


Tree=16
num_leaves=26
num_cat=3
split_feature=0 2 18 11 2 17 1 13 5 5 9 1 18 5 1 1 1 4 12 3 1 12 14 17 17
split_gain=5.9894070367403955 3.0489530077025151 3.3314339579426973 2.5524263219343526 1.995312696286849 2.1922353076202623 1.9759647132356901 1.9304136156620526 1.3574407701728071 1.5556655993996091 1.3383905116086869 1.1970442646006494 1.0248228160226418 2.7061272582343534 2.0505586970016605 1.6458267268151108 2.0758154586688304 0.79417836967466471 0.72612239753295893 0.67191301111142998 0.53123041569881901 0.48744273232124291 0.40332378520705325 0.35513900713166535 0.27760004823645623
threshold=0 1 -0.52086956521739125 1.7679487179487179 2 1.464102564102564 17.5 1.0513157894736842 52694 344203 9.9999996826552254e-21 24.5 -0.33333333333333337 365247.5 17.5 14.5 27.5 0.5357142857142857 1.5322916666666666 10.5 12.5 1.2629629629629631 0.45830115830115825 1.3660287081339713 1.6300751879699247
decision_type=5 1 10 10 1 8 2 10 10 10 2 2 10 10 2 2 2 2 8 10 2 10 10 10 8
left_child=4 12 7 8 5 -1 -7 10 -4 18 -3 -5 15 14 21 -2 -17 19 20 23 -10 -14 -6 -16 -24
right_child=1 2 3 11 22 6 -8 -9 9 -11 -12 -13 13 -15 17 16 -18 -19 -20 -21 -22 -23 24 -25 -26
leaf_value=0.035326034637570163 0.04720104714742937 0.033923316769184926 0.017437649519270858 0.010797756347317587 -0.0068968598382413608 -0.021436884768634572 0.013753976865626816 0.042733142020931217 0.0050822044194437027 0.0128402032156973 0.0042282670692373597 0.034482643748990703 0.021621941425732438 -0.0057211475172261701 0.037288915484348636 0.011916254837981116 0.043798784966508325 0.019402580808112205 -0.025685886469256066 0.028562940882686395 -0.013105226271718458 0.0051109937889597737 -0.031836490740391375 0.052497776184849798 -0.015331662707919736
leaf_count=38 59 33 40 51 45 33 39 35 30 46 42 42 31 33 33 49 34 30 30 40 43 41 33 32 35
internal_value=0 0.38727876644060621 0.27855511655958648 0.15065160980306722 -0.055950898759297284 0.14127595759787046 -0.040664222873064579 0.56367800946736957 0.0057579719420016631 -0.089551083119277591 0.3291694416100846 0.42999149692875094 0.53581203202593475 0.45475057351043868 0.53639116285366273 0.67183915318947207 0.49760281166798331 0.68403130435730553 -0.22777505986877478 0.76523721344143358 -0.11843918065357024 0.26369273751996891 -0.30235816708690794 0.89883041773757988 -0.42924038628951833
internal_count=997 774 392 282 223 110 72 110 189 149 75 93 382 240 207 142 83 135 103 105 73 72 113 65 68
cat_boundaries=0 2 3 4
cat_threshold=134225938 262337 2 2
shrinkage=0.05


Tree=17
num_leaves=24
num_cat=1
split_feature=2 18 11 5 5 11 8 18 16 18 5 1 1 17 5 14 12 14 13 11 18 13 1
split_gain=7.9323874213774861 4.1617236148996479 3.3164750418607589 2.1554051178842557 2.4774157195655357 2.1207792173075766 1.9264736461556635 2.0149422554405425 1.637194873247688 1.5955049118511653 1.1675783254126022 1.0663177360035414 1.2699473315936665 1.3771185311676408 0.94994747368957988 0.70150886056152117 0.84513844617144551 0.54109775447564123 0.50328339275504996 0.42390281474041203 0.28228163196318867 0.082807042689106325 0.0046033470827033796
threshold=0 -0.66666666666666674 1.7537878787878789 47370.5 112282 1.3538899430740039 8.5 0.33974358974358981 29.5 -0.23669467787114851 199032.5 33.5 17.5 1.5584707646176912 304262 0.71428571428571441 1.430952380952381 0.36515151515151512 1.013157894736842 1.2970588235294118 -0.85714285714285721 0.84495192307692313 25.5
decision_type=1 10 10 10 10 10 2 10 10 10 10 2 2 10 10 10 10 8 8 10 10 10 2
left_child=9 18 3 -3 -5 -6 7 10 14 19 -4 12 13 17 -7 16 -14 -11 -2 -1 -21 -22 -23
right_child=1 2 6 4 5 8 -8 -9 -10 11 -12 -13 15 -15 -16 -17 -18 -19 -20 20 21 22 -24
leaf_value=-0.018086092505908102 -0.010764971749573469 -0.011086513853406116 -0.027357209779994771 0.036225251433425996 -0.010537171473652365 0.011954360245507025 -0.033656294607602034 0.022373044972857817 0.003519368547730016 -0.02530045801269969 -0.0008223811950048345 0.00040859735282442323 -0.02741712512493551 0.0078586584970006985 0.038397668189563181 -0.035416102114053868 -0.0043315926892716246 -0.0079925410848098923 -0.02687728264952978 -0.019274884767234324 -0.028840938147675806 -0.035381418363526831 -0.033668855173481442
leaf_count=40 49 41 36 45 45 30 31 32 58 44 46 46 45 33 41 55 30 42 51 30 51 46 30
internal_value=0 -0.011063519109097808 0.084749183133320777 0.22569589291788558 0.31001351926916026 0.18568374521006806 -0.18614800519667912 -0.053067564193448151 0.33034527022493193 -0.40022735479846494 -0.22549943052519617 -0.30167414649869545 -0.35630008011689496 -0.19713139915935188 0.56279197910230339 -0.50527204112302004 -0.38039057971069706 -0.34724341593232361 -0.41532317849250278 -0.55864605115844679 -0.61356992251666176 -0.65395711722586536 -0.69518932835218106
internal_count=997 505 405 260 219 174 145 114 129 492 82 295 249 119 71 130 75 86 100 197 157 127 76
cat_boundaries=0 1
cat_threshold=2
shrinkage=0.05


Tree=18
num_leaves=25
num_cat=1
split_feature=0 14 16 18 16 13 11 10 13 1 18 15 19 1 19 16 15 19 10 14 17 18 19 6
split_gain=3.7986847241048993 3.5166023345695669 1.5679418516315986 1.5269219825502685 2.1721884190399008 2.4899121205593184 1.9367264930180603 2.7679010921742022 1.2935468246932089 1.1611560907305312 1.2921814615148286 1.7950448204746836 1.1838322966610482 1.0595325968308353 0.9505838269283311 1.2680443812146416 0.9289030988322331 0.91345042787206099 0.77321276723139754 0.69817932249104286 0.61811344360288034 0.41210789338973974 0.26628424490323477 0.020037033587813724
threshold=0 -0.14835164835164838 9.5 0.14087301587301582 25.5 0.98780487804878048 1.893796992481203 5.5 1.0727513227513228 27.5 0.64961636828644509 1.5 -9.9999996826552254e-21 32.5 1.5 47.5 9.9999996826552254e-21 9.9999996826552254e-21 1.5 0.66666666666666652 0.91833333333333333 -0.21320346320346317 -1.5 9534.5
decision_type=5 10 10 10 10 10 10 2 10 2 10 10 10 2 8 8 8 8 2 10 8 10 8 8
left_child=1 -1 19 6 5 -5 8 -8 16 10 11 12 -4 -11 -6 -16 20 21 23 -3 -2 22 -18 -10
right_child=3 2 9 4 14 -7 7 -9 18 13 -12 -13 -14 -15 15 -17 17 -19 -20 -21 -22 -23 -24 -25
leaf_value=0.03433188390878307 -0.015448642890243889 -0.027532277473139816 -0.011234396270108905 -0.014344841986532592 -0.025651779721741531 0.023022930897077652 0.021838925109632815 -0.018068173646542222 -0.035740995501996206 -0.021065620166795897 -0.0091336928769668955 0.028201089448825864 0.016257670864885596 0.0027483260599397217 -0.021351707682485187 0.0075759132113661495 -0.024937866376674511 -0.0035263273772707482 -0.019063226675203836 -0.0020002840028004632 0.0064673956503331969 -0.034308309956796311 -0.010530479982474134 -0.032272334949284456
leaf_count=30 32 39 35 45 57 43 39 44 35 35 33 54 35 57 33 30 46 41 58 30 45 39 31 31
internal_value=0 0.050732350219613212 -0.017864762514096022 -0.22795712422921038 -0.092307695939739101 0.16699732394827557 -0.31819521597008948 -0.021715164766685786 -0.3892386077134698 0.05219874372572772 0.15880230829705741 0.2648781939449899 0.044416925962707778 -0.14652977059178976 -0.28113676045669916 -0.12144916527593987 -0.26910253755505475 -0.37451320258307513 -0.53439934756343754 -0.35610126874350323 -0.051977876482374952 -0.48449527395605113 -0.38264268168638832 -0.6847218952631382
internal_count=997 348 318 649 208 88 441 83 358 249 157 124 70 92 120 63 234 157 124 69 77 116 77 66
cat_boundaries=0 2
cat_threshold=2483159090 427073
shrinkage=0.05


Tree=19
num_leaves=27
num_cat=3
split_feature=0 2 18 11 19 2 13 10 19 17 8 17 6 6 17 8 6 9 17 19 12 17 13 11 12 10
split_gain=5.5364535609491696 2.7519000499139814 3.0482376650019809 2.3420751959093424 1.9586708213879442 2.2238384401308546 1.7692767818002153 1.7236873000590016 1.6532929542202832 2.0226672468770737 1.4556409885345651 1.5861708274865798 1.7809884965913767 1.8987432423491875 1.6306174392310204 1.3823138731680655 1.3139200433093718 1.2537617160147514 0.88048275418556232 0.85156193181454132 1.2381403732580594 0.78734098246805395 0.80009575853975967 0.74882541630913046 0.74765847289122656 0.69269916728873371
threshold=0 1 -0.52086956521739125 1.7537878787878789 1.5 2 1.0513157894736842 7.5 9.9999996826552254e-21 1.1188235294117648 3.5 0.67333333333333334 14824.5 2391 1.2806250000000001 7.5 3300.5 9.9999996826552254e-21 1.5192592592592593 -1.5 1.5935935935935936 1.1490740740740741 1.0339080459770116 1.4558441558441557 1.5075757575757576 2.5
decision_type=5 1 10 10 10 1 10 2 8 10 2 10 10 10 10 2 10 2 10 10 8 10 10 10 8 2
left_child=4 7 6 16 5 24 17 10 9 -5 -2 -12 13 -13 21 -6 -4 -3 -16 -18 23 22 -15 -21 -1 -7
right_child=1 2 3 8 15 25 -8 -9 -10 -11 11 12 -14 14 18 -17 19 -19 -20 20 -22 -23 -24 -25 -26 -27
leaf_value=0.031629037021860595 0.038487730948747731 0.032507812137127029 0.01952886998551779 0.0080806346231623947 -0.0012697937779653893 -0.024000863316310801 0.040753748185935273 0.043318617482306476 1.3158405432379655e-05 0.044455673620348558 0.041700259503896768 -0.00035487487509645448 -0.0025273972030035075 0.038035308530467084 0.0003989613244732158 -0.028669374361697871 0.011202348550803763 0.00387635919315415 0.024310572902229138 -0.010884963304598884 -0.027730093335938524 0.045730878254371922 0.017953451360278171 0.0086021068393652266 0.0066006255448364153 0.0023967511010973045
leaf_count=36 55 33 32 30 44 35 35 46 33 35 30 38 42 43 33 42 30 42 30 50 30 33 32 42 35 31
internal_value=0 0.37040624837858838 0.26726107653793019 0.14474948715956298 -0.055265484965001534 0.13170102528734362 0.53850159028680167 0.51092069458220968 0.40140921908049665 0.58255283247233669 0.45916535235002431 0.40186203454437003 0.34870400857336248 0.42125515861096186 0.5064491089120341 -0.30960320131627139 0.00034046279410276931 0.31436434444842087 0.24509071329927762 -0.082922698144930099 -0.16616130480345487 0.65020908965716651 0.54385471646251526 -0.044584604815271579 0.4180748543803397 -0.21925836126482706
internal_count=997 774 392 282 223 137 110 382 98 65 336 281 251 209 171 86 184 75 63 152 122 108 75 92 71 66
cat_boundaries=0 2 3 4
cat_threshold=134225938 262337 2 2
shrinkage=0.05


Tree=20
num_leaves=26
num_cat=1
split_feature=2 18 18 5 14 1 18 13 14 5 4 4 5 4 12 10 13 1 14 5 18 13 13 13 1
split_gain=7.4992476592092467 3.9087956392656631 2.6623663723775959 2.1393109602051905 2.1713286873031779 2.3533010507159853 1.5413533545355378 1.3894384778767042 1.5596697561086157 1.6032737742180219 1.2789419454589215 1.196590227971456 1.1749481829175501 1.1665837824033674 1.0590155322822201 0.7416897965207685 1.072798077158625 1.7067100502559673 0.63429112665008303 0.52033791214305425 0.41491599882504815 0.46737649195035402 0.31167490514396068 0.12839267541657762 0.0051052513963592006
threshold=0 -0.66666666666666674 1.0909090909090908 47370.5 0.72111111111111115 15.5 -0.23669467787114851 1.2834821428571428 0.26666666666666666 353785.5 -0.15555555555555553 0.1818181818181818 365247.5 -0.23636363636363636 1.708204334365325 5.5 1.1126984126984127 13.5 0.42857142857142849 155045.5 -0.64611005692599621 1.0779352226720649 0.87867647058823528 0.85504201680672265 23.5
decision_type=1 10 8 10 10 2 10 10 10 8 2 2 10 2 10 2 10 2 10 8 10 8 8 10 2
left_child=6 11 3 -3 7 -6 20 8 -5 18 13 19 15 -8 -7 16 17 -12 -10 -2 21 -1 -19 -22 -25
right_child=1 2 -4 4 5 14 10 -9 9 -11 12 -13 -14 -15 -16 -17 -18 22 -20 -21 23 -23 -24 24 -26
leaf_value=-0.030547722921862797 -0.019975240481212384 -0.017437932119377081 0.033331900333993941 0.029145615522374241 0.017735439838643962 0.00045777847482430855 -0.014959438391500096 -0.0079220049893217164 -0.01290224652194188 0.029729884378040267 0.014231042438665832 -0.03307738742452046 0.0013022554077018092 0.012321443776176472 -0.026287252172433058 -0.035027903824007882 -0.029034412664195 -0.028124813322600702 0.0072158240274866423 0.0020473231180722115 -0.025961404995713949 -0.013537802320498577 -0.012692720766256741 -0.03496497930861011 -0.033084340129134894
leaf_count=47 30 58 30 51 33 30 38 33 30 31 31 39 30 30 57 40 53 35 52 31 40 33 38 47 30
internal_value=0 -0.010484874960956913 0.081871498075680699 0.029480964365209403 0.10039601281361217 -0.14594346581345513 -0.390286344055642 0.23163169868395167 0.31291934791938131 0.15361865479213829 -0.2932113393770327 -0.40514490706315254 -0.37643816202708363 -0.046971294520772276 -0.3472941795727264 -0.43902674390075735 -0.36876886561784505 -0.20966443214945299 -0.0057963633853244873 -0.17566408838487116 -0.54763995631185913 -0.42630910886285017 -0.39966205040605957 -0.63646376932397442 -0.6857344699511041
internal_count=997 505 405 375 317 120 492 197 164 113 295 100 227 68 87 197 157 104 82 61 197 80 73 117 77
cat_boundaries=0 1
cat_threshold=2
shrinkage=0.05


Tree=21
num_leaves=26
num_cat=3
split_feature=0 10 11 18 18 0 1 18 1 16 16 13 13 16 13 10 18 18 2 3 12 5 16 8 3
split_gain=3.6187850297192727 1.6714105029233437 2.4453175537586844 1.5066792328510565 3.0642143390122425 1.3201642139731131 1.3097135933055135 3.2724931750014079 1.2036153822448694 1.1567587631784351 1.2968824409182615 1.4233383255213516 1.8499854157961528 1.1525393225895921 0.80616520685496162 1.0011806525173128 1.3720623065095263 0.78660012621403097 1.2517602355575821 0.63642574429408061 0.72315440112725438 0.40139812800331653 0.69868751284062758 0.19324306798675578 0.19046251530576175
threshold=0 11.5 2.0923295454545454 0.58257713248638832 0.33974358974358981 1 15.5 0.14087301587301582 26.5 47.5 33.5 1.179144385026738 1.0281746031746031 13.5 1.2132034632034632 5.5 -0.05718954248366015 -0.43614130434782616 2 5 1.445906432748538 340535 12.5 7.5 9.5
decision_type=5 2 10 10 8 5 2 10 2 10 10 10 8 10 10 2 8 10 1 10 8 10 10 2 10
left_child=3 2 5 4 8 9 7 19 13 10 11 12 21 -1 15 16 17 -8 -19 -7 -21 22 -2 -5 -18
right_child=1 -3 -4 23 -6 6 14 -9 -10 -11 -12 -13 -14 -15 -16 -17 24 18 -20 20 -22 -23 -24 -25 -26
leaf_value=0.00067664315583429609 -0.025937501012935252 -0.03341089391716677 0.020160666526582487 -0.0023507272380362469 0.044344607633847684 -0.028446825319882491 -0.01601493855814155 0.015451321231463901 -0.009784317480367585 0.016848906976351 -0.023710666240368241 -0.017060190450857365 0.025701815442055454 0.02347263030867542 -0.032099006165098996 -0.031697322264920912 -0.020724714569464731 0.015304736656670629 -0.015631799205481408 -0.0021187460386474406 -0.022029566264241233 0.0068377142533370119 0.0014353268279365019 -0.013873017965438401 -0.032961392543859623
leaf_count=55 31 42 30 30 30 50 56 49 49 32 43 38 31 45 50 47 31 33 30 40 34 30 31 30 30
internal_value=0 -0.20189664061357807 -0.1912632188353435 0.092578408307757321 0.21511046923923668 -0.21886090542725564 -0.27610360041146265 -0.15920022196302158 0.094932112863713003 -0.033951455393221724 -0.1070624559884497 -0.017834863416758176 0.12037324982840766 0.22357178275998774 -0.39856585448636772 -0.34185630932506444 -0.26949138240952553 -0.13453117311575344 0.033223234570242538 -0.34527836055068956 -0.23941157690907156 -0.090253366998419265 -0.21190696770270476 -0.16330838002897471 -0.53730197934411639
internal_count=997 758 716 239 179 686 450 173 149 236 204 161 123 100 277 227 180 119 63 124 74 92 62 60 61
cat_boundaries=0 2 4 5
cat_threshold=67239986 1025 2428510208 434304 2
shrinkage=0.05


Tree=22
num_leaves=22
num_cat=3
split_feature=0 2 18 19 16 5 5 10 8 17 5 5 8 2 16 5 12 17 17 16 16
split_gain=5.2453996575748292 2.7337247860365466 3.131054525236765 2.4911927395443021 2.0313543444595634 2.4460683558367258 1.9132606808685422 1.516687454291695 1.430234690999697 2.1379416142985068 1.6770064694583811 1.842213174354054 1.4126994879593509 1.3048028051457887 1.2440991394151837 1.2415570206200233 1.213828851969446 1.1152785227475377 0.98750584531514207 0.52135465560427185 0.49505212875650995
threshold=0 1 -0.52086956521739125 1.5 34.5 223349 199032.5 7.5 3.5 0.65833333333333333 365247.5 41963 7.5 2 15.5 58765.5 1.4604989604989604 1.1234756097560976 1.1449579831932772 35.5 12.5
decision_type=5 1 10 8 10 10 10 2 2 10 10 10 2 1 10 10 10 10 8 10 10
left_child=3 7 6 13 15 -6 -3 8 -2 -10 11 -11 -5 -1 -13 -4 20 -16 -18 -19 -17
right_child=1 2 4 12 5 -7 -8 -9 9 10 -12 14 -14 -15 17 16 18 19 -20 -21 -22
leaf_value=0.020855649124416328 0.037866161749980309 0.039756498332659318 0.013038252555529052 -0.0017252381536342039 -0.001658557802788488 0.03515850281174572 0.013858289763014318 0.041387841880291279 0.044407558246070622 -0.00027962964677915469 -0.0051757131545244845 0.011362894419871988 -0.027441823630388325 -0.0045322487543239479 0.043758570329215207 -0.0042629302108807762 0.016784629115188795 0.012820627850802067 -0.0098052712635503941 0.02915608721617648 -0.022044810574546839
leaf_count=59 53 53 55 59 38 44 57 46 31 41 38 52 55 56 35 31 35 34 36 50 39
internal_value=0 0.35672343808319262 0.2528098189618746 -0.052154598440418871 0.12781105909712176 0.40390922970840493 0.52726757131421753 0.49594713779832961 0.44718580013475046 0.39076121583604817 0.32860173764104184 0.3917387990845001 -0.30296466305268105 0.18541851741473056 0.47818856096048451 0.010481689401627303 -0.10224337664969935 0.59074597392466133 0.10974313943547118 0.46179512529613148 -0.29096417063682761
internal_count=997 768 388 229 278 82 110 380 334 281 250 212 114 115 171 196 141 119 71 84 70
cat_boundaries=0 2 3 4
cat_threshold=138420242 262209 2 2
shrinkage=0.05


Tree=23
num_leaves=25
num_cat=3
split_feature=2 0 0 10 17 13 13 13 16 12 5 16 13 13 12 5 12 17 17 16 17 17 16 16
split_gain=7.093880006685251 3.2793697397337134 2.7431931772749127 1.1791345179178232 1.5203993260636481 1.2897947860922987 2.0642800210520673 1.2006498151678833 1.1942232997975477 1.7859973659238235 1.1324966293402736 1.0204465229665898 0.92135836103157698 0.84701088730594787 0.78680364825738192 0.5240971622520938 0.66089501811869056 0.58829326424537554 0.42186338916560651 0.76120849772761656 0.230900539476524 0.13444603968851254 0.052584916090242295 0.007449365740451519
threshold=0 1 2 8.5 1.1550480769230769 1.013157894736842 0.9177927927927928 1.1408730158730158 33.5 1.56125 337499.5 25.5 0.92724867724867721 0.72850122850122845 1.661904761904762 85242.5 1.1972222222222222 1.1526806526806528 1.3027777777777778 35.5 0.82085561497326198 1.1188235294117648 21.5 20.5
decision_type=1 5 5 2 10 8 8 10 10 10 8 8 8 8 8 8 8 10 10 10 8 10 8 10
left_child=1 11 13 4 5 6 10 -7 12 -10 -4 -1 -6 -2 -15 22 17 -17 20 -20 -18 23 -3 -22
right_child=2 15 3 -5 8 7 -8 -9 9 -11 -12 -13 -14 14 -16 16 18 -19 19 -21 21 -23 -24 -25
leaf_value=-0.0072254969545149086 0.031415535823735179 -0.028614636474234907 -0.019915922471072312 -0.022217297358759186 0.030674732173465918 -0.033090036616325889 0.026062333567303538 -0.009339267174035111 0.011448230367393779 -0.023648554914073621 0.011783622518234463 0.015264393319619622 0.0048205541744669924 0.017711151598850925 -0.003878983687377849 -0.0035065420455857137 -0.020882053625165861 -0.023219867999472461 -0.0022917668870094513 -0.027166823963738013 -0.034774081987521431 -0.026375357385296651 -0.034249618041639042 -0.032538978413772936
leaf_count=48 30 32 52 46 31 33 31 59 39 36 31 56 35 51 31 38 35 30 31 43 45 47 57 30
internal_value=0 -0.38070220334888344 -0.0098767356234216591 -0.099884682479469106 -0.068592934018180465 -0.18673443884366947 0.010100175762794117 -0.33781902528441737 0.10999196104083608 -0.09016836448996933 -0.20432830878933061 0.058398969009179395 0.31793806285808379 0.22770681860567193 0.21030345234131928 -0.44382836760943334 -0.45490617350147516 -0.27392783448574409 -0.51488246520181702 -0.36565714008857125 -0.57670000436344038 -0.62159288087171671 -0.64699482828660815 -0.67825649703655511
internal_count=997 492 505 393 347 206 114 92 141 75 83 104 66 112 82 388 299 68 231 74 157 122 89 75
cat_boundaries=0 1 2 4
cat_threshold=2 138469380 1476403200 8192
shrinkage=0.05


Tree=24
num_leaves=25
num_cat=2
split_feature=0 14 10 11 17 16 19 7 1 11 13 12 9 10 5 17 6 5 11 9 16 13 16 19
split_gain=3.4610233075171579 2.7242425547785603 1.6540080024905484 3.5475477233053527 1.9010247377716336 2.4585945426254483 1.4439087820818217 1.3315314945493104 2.694604555813624 2.9310141786795234 1.3006997023686226 1.2710855798777656 1.8152908454207779 1.2018392608086002 1.1983989212771142 1.1957514013400599 1.057408655216032 0.7768352837015664 1.2521749013862191 0.58233060664503267 0.3449317253945452 0.26454190095613983 0.11884188820965136 0.009456648376095167
threshold=0 -0.08391608391608385 5.5 1.8982758620689655 1.2806250000000001 24.5 -3.5 1 26.5 1.5694980694980694 1.0513157894736842 1.254032258064516 9.9999996826552254e-21 1.5 117644 0.76095238095238094 14127 187636.5 1.5441558441558443 9.9999996826552254e-21 19.5 1.0274024024024024 22.5 9.9999996826552254e-21
decision_type=5 10 2 10 10 10 10 1 2 10 10 10 2 2 10 8 10 10 8 2 8 10 10 8
left_child=1 -1 3 4 10 13 -3 11 9 -9 15 -8 -13 -6 -4 -2 21 -17 -19 22 -16 -7 -12 -22
right_child=2 6 14 -5 5 16 7 8 -10 -11 19 12 -14 -15 20 17 -18 18 -20 -21 23 -23 -24 -25
leaf_value=0.02962594147710956 -0.026133276551775799 -0.02672401740678923 -0.0045965006513330629 0.01905297148330742 -0.001088617645522362 -0.015089947992232329 -0.023771703944923107 -0.0028994061104893679 -0.0078612847136335148 0.038843462916533622 -0.034508014119995566 -0.01598808725406441 0.011917956628883154 0.028931906531165449 -0.019544799504397328 -0.016123186600640955 -0.0010787946393051569 -0.013410372924311117 0.017117532891135295 -0.016581096423480546 -0.032260773901482243 -0.029451125904626587 -0.026086882552480414 -0.034925842262968083
leaf_count=31 46 33 31 56 31 38 37 30 53 48 35 51 56 31 33 53 48 33 44 48 39 31 31 30
internal_value=0 0.049765208169734766 -0.21591682191645986 -0.1764450856124288 -0.23607924650298046 -0.058125500075254494 -0.011493009535064151 0.030076389962035502 0.15394326981356174 0.45405181123356242 -0.34690233864677866 -0.10302143401330642 -0.017372163675722072 0.28511184643037846 -0.45492444895798145 -0.2001707442008745 -0.25175614957628256 -0.07637628069495124 0.06947700741691358 -0.49613306638007293 -0.57877719038116526 -0.44599204634877443 -0.61632960262532788 -0.6711505386149117
internal_count=997 339 658 525 469 179 308 275 131 78 290 144 107 62 133 176 117 130 77 114 102 69 66 69
cat_boundaries=0 2 3
cat_threshold=335675442 429121 34
shrinkage=0.05


Tree=25
num_leaves=26
num_cat=1
split_feature=0 18 10 8 11 1 1 9 11 13 11 3 17 11 11 8 10 8 13 12 18 4 1 5 5
split_gain=4.8562733514507954 1.8663135981954788 2.0433891842861236 2.202109193866189 1.5934407087805376 1.2096552430783616 1.1767676636391986 1.3099956849210681 1.5325812940246131 1.484192954635176 1.2179545385451309 1.1396815604699633 1.7071647522508968 1.2453996809300354 2.2960313248278106 1.1291128548955371 1.1164007618559377 1.7634873039923118 1.0936086836121091 1.0507686016782556 1.3364072440385901 1.0045057305935812 0.801325728103779 0.65088855444118643 0.52261953106100911
threshold=0 -0.41176470588235292 7.5 3.5 1.2899159663865547 19.5 24.5 1.5 1.4932432432432432 0.92724867724867721 1.7639318885448916 3.5 1.2696969696969695 1.8393548387096774 1.6711711711711712 7.5 5.5 7.5 0.97100840336134453 1.1644144144144144 -9.9999996826552254e-21 -9.9999996826552254e-21 15.5 223349 223349
decision_type=5 10 2 2 8 2 2 2 10 10 8 10 10 10 8 2 2 2 10 10 10 2 2 10 10
left_child=16 4 3 24 -2 -4 7 8 -6 -10 -8 12 23 14 15 19 17 18 -1 -13 -21 -19 -17 -5 -3
right_child=1 2 5 11 6 -7 10 -9 9 -11 -12 13 -14 -15 -16 22 -18 21 -20 20 -22 -23 -24 -25 -26
leaf_value=-0.0099773869277844825 0.043946839591340485 0.039363208526125508 0.016719642740093948 0.041407691535610247 0.039507234748657305 0.042767777294085367 0.021461569248654486 0.0020991917105795442 0.030600832199453448 0.0011213886769043358 0.046942611766143297 0.029349918017007037 0.00063346289555099794 0.017968130808728396 -0.025305629229341736 -0.013337742187145602 0.013506048242511011 -0.032003682825679475 0.014686095324510002 0.018756378016119329 -0.0079913328635416343 -0.0065650096911058975 0.0071655593958265332 0.018988353600940176 0.019895004328007233
leaf_count=57 32 33 35 32 35 34 45 47 34 37 30 30 48 52 39 32 44 35 53 37 38 40 32 32 34
internal_value=0 0.34166353331535848 0.28539647180583488 0.23063925539724717 0.49458417484925188 0.59765278853731407 0.43206828492935212 0.32801916366227118 0.4504477632210695 0.2782217996029771 0.63035178093619704 0.17227356877086833 0.37576760789851454 0.10852847374149198 0.034314547729484467 0.11660792967184253 -0.05143610073841854 -0.14392008326569294 0.068103094268171002 0.25331428450454052 0.13091015687249344 -0.39116994958357593 -0.067736034786281915 0.60011415328760487 0.60170733954476607
internal_count=997 768 508 439 260 69 228 153 106 71 75 372 112 260 208 169 229 185 110 105 75 75 64 64 67
cat_boundaries=0 2
cat_threshold=138420242 262209
shrinkage=0.05


Tree=26
num_leaves=25
num_cat=0
split_feature=18 18 11 5 8 18 13 3 18 16 10 18 11 4 13 18 4 3 8 12 13 11 1 18
split_gain=3.8768329913487456 2.0428361708113627 2.1791558671991198 2.1046398341537573 1.8655367696463494 2.0362525539519729 1.5007411283828129 1.5817955302292903 1.2619818574606056 0.8734207500737643 0.77794562642506548 0.97716081517623055 1.2731204237966838 0.96666835101415138 0.75859719887566079 0.71165434855405285 0.66769763895111711 0.64822853533885016 0.51151927429712085 0.67863183939562921 1.0519786606473187 0.37308604459925032 0.27046611445646374 0.21997477117103426
threshold=1.0909090909090908 -0.31762749445676269 1.7537878787878789 353785.5 7.5 0.32843137254901961 1.0754985754985755 10.5 0.029910714285714346 28.5 9.9999996826552254e-21 -0.66666666666666674 1.5477272727272728 0.1818181818181818 1.0615530303030303 -0.87083333333333335 0.30681818181818177 7.5 8.5 1.6837499999999999 0.71825396825396826 1.4599358974358974 16.5 -0.1470588235294118
decision_type=10 10 10 10 2 10 10 8 10 10 2 10 10 2 10 8 2 10 2 10 8 10 2 8
left_child=1 9 4 18 5 8 7 -6 16 10 22 13 -13 15 -10 -12 23 -14 19 20 -4 -7 -1 -3
right_child=-2 2 3 -5 6 21 -8 -9 14 -11 11 12 17 -15 -16 -17 -18 -19 -20 -21 -22 -23 -24 -25
leaf_value=-0.031387061516083246 0.015129872164790191 -0.010503072568875067 -0.02292237854349144 0.0053167959869768779 0.030064384849711401 -0.034305276534815493 -0.004305464206798326 -0.0017362504380505979 -0.0019344598734610174 -0.029545716619425084 0.0043539054657972531 0.0056760185130488514 -0.0022911212295926328 -0.030282447836210064 0.022045067119290114 -0.019733648467065944 0.0020765033228979661 -0.026571771818805059 -0.033941782035738506 -0.029145220014276635 0.0072589217234761364 -0.016366336019806724 -0.017550261484259019 -0.023267492465972404
leaf_count=39 59 35 31 43 40 30 56 32 41 56 33 58 31 45 33 46 33 31 40 57 30 33 31 34
internal_value=0 -0.22182988992480565 -0.13800568899654991 -0.33444257726325705 -0.04142556586909614 -0.16921088839367346 0.14816430653260237 0.35478163994265421 -0.04589218672495337 -0.35017698177601347 -0.30181332337952549 -0.24089782498214568 -0.10131144020566063 -0.3863533633633453 0.19651977098877246 -0.19931936698330088 -0.1979467665558278 -0.34261106832858396 -0.46056287048506112 -0.38095148932891354 -0.22515966339973278 -0.52817649438604675 -0.5062537077303767 -0.33046416352888103
internal_count=997 938 568 201 367 239 128 72 176 370 314 244 120 124 74 79 102 62 158 118 61 63 70 69
shrinkage=0.05


Tree=27
num_leaves=27
num_cat=1
split_feature=0 14 12 14 10 11 18 16 13 16 5 13 14 14 11 10 11 11 19 13 10 17 14 14 11 11
split_gain=3.3524739299203503 2.9207965720103894 1.7372849873679914 1.527059712333964 1.4682951400879531 2.5060635173684433 1.6285651880560197 2.3921389838533247 1.6515565123654723 1.3453878282895662 1.3089443604758255 1.2313876473274679 1.1297515951755095 0.96478501351026402 0.90451352521110495 1.0348099032309395 1.0684125865153953 0.84059512593143371 0.84003848418729277 0.82239040426780652 0.76966452647422123 0.7125480567429181 0.39289077797762273 0.32586987706420462 0.29189285932832809 0.061489761143763921
threshold=0 -0.08391608391608385 1.5638586956521738 1.052777777777778 11.5 2.0678160919540232 0.14087301587301582 25.5 0.98780487804878048 47.5 182594.5 1.0597147950089125 0.36842105263157887 0.28348214285714279 1.6165158371040724 2.5 1.7795138888888888 1.8873015873015873 -9.9999996826552254e-21 0.71825396825396826 1.5 1.0851449275362319 0.60303030303030314 0.3221621621621622 1.8410526315789473 1.4530791788856305
decision_type=5 10 10 8 2 10 10 10 10 10 8 8 8 10 10 2 10 8 10 10 2 8 10 10 8 8
left_child=1 -1 19 10 5 6 11 8 -8 22 18 12 13 -2 -14 16 -16 20 -4 -3 25 -21 -9 -23 -17 -13
right_child=4 2 3 -5 -6 -7 7 9 -10 -11 -12 17 14 -15 15 24 -18 -19 -20 21 -22 23 -24 -25 -26 -27
leaf_value=0.031497698939744717 -0.0096191843807743906 -0.018847252073317677 0.012647174775124798 -0.0091747216405947563 -0.034051057613100712 0.019950730686172365 -0.01028530285439634 -0.032136795660565591 0.021677008215346755 -0.0006092300043898961 -0.0022407249863635945 -0.034616752621065366 -0.028960530968547168 0.017627530972995686 0.022084116833687641 -0.02845089354553279 -0.012724662945643837 -0.0080243810805151975 0.037720519162739718 0.0097339279700846132 -0.017017721928607989 -0.016797690610322762 -0.014171422395305494 -0.0021501726177268342 -0.011072006949142302 -0.028618624971799563
leaf_count=30 36 49 34 38 37 30 38 34 43 46 39 43 48 30 30 40 34 30 32 32 58 34 31 40 31 30
internal_value=0 0.057323567318113181 -0.0077036956878295234 0.17771485578554638 -0.20687644310294487 -0.19858553958395769 -0.23091722854660085 -0.067321306247964577 0.20871872771277192 -0.28016359819016118 0.32887344026312681 -0.31181984226169412 -0.18578950585633033 0.054813560828954055 -0.30338825404708514 -0.18111453992012974 0.065687871403397088 -0.43049323693268965 0.50652572263352813 -0.15729191867352557 -0.50391304339775755 -0.049292708846062502 -0.49854849020752678 -0.17496261305330832 -0.406755073156083 -0.64506499313300025
internal_count=997 328 298 143 669 632 602 192 81 111 105 410 249 66 183 135 64 161 66 155 131 106 65 74 71 73
cat_boundaries=0 2
cat_threshold=335675442 427073
shrinkage=0.05


Tree=28
num_leaves=25
num_cat=1
split_feature=0 19 10 16 19 9 1 11 11 11 12 13 19 17 13 4 16 19 8 13 9 3 12 14
split_gain=4.4506610222267717 1.6881275402141789 3.0363208941569462 1.8396961100345646 1.6761784690749668 1.4432012318554297 1.4270347786874247 2.0533399791632583 1.9682575084997644 1.8161375577848489 1.4684770717003373 2.6233980033235511 2.3942349210653133 1.4738082238182546 1.38481676408832 1.3798216474917879 1.3026919747796315 1.4006930024893363 1.236958940812108 0.94975581905530815 0.9095515031950443 0.86394903793716704 0.7998992553463562 0.78814996348612976
threshold=0 9.9999996826552254e-21 7.5 20.5 1.5 9.9999996826552254e-21 29.5 1.9864864864864864 1.7795138888888888 1.7029411764705882 1.1883445945945947 1.1633333333333333 -9.9999996826552254e-21 1.015625 1.2236111111111112 0.43181818181818177 43.5 1.5 7.5 0.74642857142857144 9.9999996826552254e-21 9.5 1.5779352226720649 0.072751322751322789
decision_type=5 10 2 10 10 2 2 10 10 10 8 8 8 8 8 2 10 10 2 10 2 10 10 10
left_child=4 6 3 5 14 -3 7 9 21 10 23 13 -13 -12 19 20 17 -5 -6 -1 -11 -8 -21 -2
right_child=1 2 -4 16 18 -7 8 -9 -10 15 11 12 -14 -15 -16 -17 -18 -19 -20 22 -22 -23 -24 -25
leaf_value=-0.0039255682251077987 0.019443338186082213 0.0051331160809363306 0.036433243163997868 0.0070890699163775883 -0.0013462259726766891 -0.023218139309767866 0.028461215367781574 -0.0033134156112489483 0.044859105296269353 0.0082443679898910726 0.0063062703302965081 0.034966568882993466 0.0017721283840293766 -0.023785986728225381 -0.017561495335606369 0.045704611024912502 -0.003589804720676144 0.03190511310642298 -0.027480567563378029 0.033558445656282215 0.033383742877989002 0.0055798742645819356 0.0071108867270243603 0.03928496096128737
leaf_count=30 56 44 34 46 44 36 45 47 51 31 51 47 34 33 32 38 35 44 42 30 34 33 45 35
internal_value=0 0.32573507351565617 0.2034040591842185 0.10584064153461981 -0.054278722270375605 -0.14760837860911724 0.4074010734878189 0.34977174098692537 0.59989582568864186 0.39962462230136464 0.31072577701817045 0.19229029760168115 0.41947315073867719 -0.098880024562109925 0.11629954712331514 0.63070770100573492 0.25110541281603332 0.37811810986427474 -0.29349397073158601 0.24956643069302933 0.43246752138816402 0.37651448200567222 0.41694210184863734 0.50492977809058126
internal_count=997 774 239 205 223 80 535 406 129 359 256 165 81 84 137 103 125 90 86 105 65 78 75 91
cat_boundaries=0 2
cat_threshold=134225938 262337
shrinkage=0.05


Tree=29
num_leaves=25
num_cat=2
split_feature=2 18 0 11 8 18 14 12 11 16 9 6 16 1 12 14 19 11 11 12 11 11 13 18
split_gain=6.720110543111482 3.4281882924519467 3.0456952181794055 2.6944397765449093 1.8352494845782739 1.710352277794112 1.6825583071598365 1.6845936515033335 1.3249805816190925 1.206029640662351 1.2639342442929022 1.1716318624666762 0.92612458475903714 0.84536655649074355 0.4813472089054045 0.71765520747340084 0.47298288428069801 0.79336130714284436 0.34803915875229663 0.24390537392075906 0.27411695646049417 0.18120514152389511 0.1346903107134878 0.0010942322938696236
threshold=0 -0.66666666666666674 1 1.7537878787878789 8.5 0.33974358974358981 -0.069047619047619024 1.2880184331797235 1.4843597262952102 23.5 9.9999996826552254e-21 8211 25.5 13.5 1.1972222222222222 -0.069047619047619024 -2.5 1.5303308823529411 1.3858560794044665 1.4127789046653145 1.5931712962962963 1.9354166666666668 0.79238505747126431 -0.23669467787114851
decision_type=1 10 5 10 2 10 10 10 10 10 2 10 8 2 8 8 8 10 8 10 10 10 10 8
left_child=2 16 12 6 5 11 -3 13 -9 -10 -11 -5 -1 -8 15 -4 -2 -18 -16 -20 -21 22 -22 -24
right_child=1 3 14 4 -6 -7 7 8 9 10 -12 -13 -14 -15 18 -17 17 -19 19 20 21 -23 23 -25
leaf_value=-0.0069293738491859949 -0.029433444118016711 -0.010542749349529108 -0.02874260648862656 -0.027255324917091896 -0.032579208320111734 0.021070559324144006 0.015846094001714744 -0.0067993133561789921 0.030623237981225002 0.022240561708868161 -0.0061351267124015695 8.1530331417582573e-05 0.014491362816902885 0.039624803288321575 -0.016596544307082989 -0.0089902326120436908 -0.025413575986275257 -0.00038460477737899579 -0.033969090195823379 -0.018732708046305478 -0.025155092023843841 -0.02214960388985019 -0.033355735589568163 -0.034261412129147732
leaf_count=48 34 31 30 32 31 32 35 51 40 33 36 50 56 34 43 57 33 33 56 47 36 44 32 43
internal_value=0 -0.0030297849285372204 -0.36660093085857859 0.082644962176401812 -0.16563859765974243 -0.035578238584199617 0.20809142024368327 0.27797249198751078 0.15586555210400305 0.28821819806899046 0.13060922023459931 -0.19896397850998093 0.055987080180754628 0.55806394554697525 -0.42883758543326378 -0.34549342279464101 -0.37989549192258815 -0.2646982830419583 -0.52913493183009064 -0.55932985872262264 -0.5192481213395348 -0.56913583585421479 -0.61998000374271145 -0.67720914702142831
internal_count=997 505 492 405 145 114 260 229 160 109 69 82 104 69 388 87 100 66 301 258 202 155 111 75
cat_boundaries=0 1 2
cat_threshold=2 138469380
shrinkage=0.05


Tree=30
num_leaves=28
num_cat=2
split_feature=0 14 12 14 10 19 5 1 18 0 19 14 14 18 14 3 12 19 10 12 14 12 12 14 3 14 4
split_gain=3.1686917846712945 2.7110599544627485 1.6409467897066996 1.447008497068661 1.4289788962029846 1.4515611437175453 1.2356978423820162 0.8595262583868557 1.1007852219355749 1.2748845680140335 1.1886243484747678 1.3561310658205286 1.1384722405478129 0.81847298677995317 0.77428116742517383 1.5303593354163094 0.90179887460067409 0.76513681424111324 0.59835904917027527 0.89444092665771358 0.52314754865737179 0.51241990706334728 0.48558255681199297 0.41653547611167019 0.36045001199749438 0.35898304771289036 0.25064368879212928
threshold=0 -0.08391608391608385 1.5638586956521738 1.052777777777778 11.5 2.5 182594.5 34.5 -0.43614130434782616 1 -9.9999996826552254e-21 0.36842105263157887 0.5669642857142857 -0.22048611111111105 0.4749373433583961 7.5 1.2629629629629631 -9.9999996826552254e-21 2.5 1.4082491582491583 0.83333333333333326 1.5594117647058825 1.5972972972972972 0.65751879699248117 9.5 0.087121212121212099 0.1818181818181818
decision_type=5 10 10 8 2 10 8 2 10 5 10 10 10 10 8 10 10 10 2 10 8 10 10 10 8 8 2
left_child=1 -1 14 6 5 7 17 8 18 13 12 25 -11 -10 15 -3 -17 -4 19 -2 26 -20 -7 -9 -13 -12 -15
right_child=4 2 3 -5 -6 22 -8 23 9 10 11 24 -14 20 -16 16 -18 -19 21 -21 -22 -23 -24 -25 -26 -27 -28
leaf_value=0.030292078716223154 -0.031899799573484704 0.018614997315463018 0.012463608690873457 -0.0089653474949587791 -0.033656303590388466 -0.0036503115030683837 -0.0021875264710915017 -0.031887009335826708 -9.372337819244158e-05 -0.029847639334216532 0.0098129340027785904 0.0025675397016769416 0.00083196373697781072 -0.033936702577461307 -0.017862682156859627 -0.023501249667627903 0.00028717705531677656 0.036324417750941848 0.00068551874806475769 -0.010386075708580515 -0.010048336612990306 -0.018870190220869484 0.014415742721250275 -0.013938976541750307 -0.013583250962988026 0.025422600220463096 -0.020824282436722349
leaf_count=30 52 35 34 38 37 34 39 38 33 30 30 36 45 33 53 30 37 32 30 44 30 36 30 31 40 30 30
internal_value=0 0.056417068382338974 -0.0064309862913433163 0.17339526886561141 -0.20067743010416 -0.19242603681701606 0.31987047090581933 -0.23083608382963161 -0.19961956238666628 -0.12628777389420742 0.013674684665457638 0.12853727955267036 -0.24177576360102693 -0.25378062491311215 -0.15239838045754536 -0.042862717375085006 -0.20680915160939534 0.49158667844488491 -0.34849016087253948 -0.45861120611877809 -0.43913989984775398 -0.18520504371489419 0.1011098632428966 -0.47268910519579688 -0.095536172603273725 0.33885397739927631 -0.54374299604557863
internal_count=997 328 298 143 669 632 105 568 499 337 211 136 75 126 155 102 67 66 162 96 93 66 64 69 76 60 63
cat_boundaries=0 2 4
cat_threshold=335675442 427073 138707072 65792
shrinkage=0.05


Tree=31
num_leaves=26
num_cat=3
split_feature=0 2 2 17 1 3 12 10 13 13 17 8 5 1 3 15 17 15 17 10 10 4 5 17 12
split_gain=4.165320516783563 2.2505542391483999 1.408643952196331 1.6020210377194823 1.911908435369488 1.3793063343835632 3.3673729460193775 1.3006063598540862 1.2295609104987673 1.4866385131229944 1.2222189080670276 1.5841448277945709 1.5486467504792092 1.716655630993702 1.7260172687840887 1.0661404766925766 0.88857615823267633 0.71727223300672893 0.78833221279744325 0.68273863696040427 0.67166520301335231 0.62930591894267351 0.73758830131675701 0.4342856669148043 0.42370329915931748
threshold=0 1 2 1.464102564102564 17.5 8.5 1.8681159420289855 7.5 1.1342342342342342 0.9177927927927928 0.63961038961038963 3.5 365247.5 27.5 5 9.9999996826552254e-21 1.015625 2.5 1.1026315789473684 1.5 4.5 0.43181818181818177 120450 1.2330316742081449 1.623310810810811
decision_type=5 1 1 8 2 10 8 2 10 8 10 2 8 2 10 10 10 8 10 2 2 2 10 10 10
left_child=2 7 3 -1 -5 8 17 10 9 21 -2 -12 13 14 -13 -16 -10 18 -7 -20 24 22 -3 -15 -4
right_child=1 5 20 4 -6 6 -8 -9 16 -11 11 12 -14 23 15 -17 -18 -19 19 -21 -22 -23 -24 -25 -26
leaf_value=0.028102498205525329 0.038862341254441601 0.013934926869315837 -0.025087631210984774 -0.022518549027251221 0.012489800076422123 0.0043819988621304883 0.029129684097749534 0.037156232725810062 0.035668172621239398 -0.002103395544208899 0.033635781214593936 0.027342990724557842 -0.0062361259255524597 0.038749228689861616 0.01538210787060295 -0.0049739224374895676 0.011849750671150468 0.010195490273061571 -0.0018202440494104327 -0.022379967824058059 0.001346847272509266 0.0070819166533452457 0.038764963421472988 0.022717866385365278 -0.0057514146161023261
leaf_count=41 32 31 54 31 39 40 39 46 30 58 54 51 38 33 39 51 30 31 31 37 30 33 31 37 30
internal_value=0 0.31292528643327228 -0.053008138687796733 0.10880887666615589 -0.054853901816947652 0.21877327928905979 0.091489348224545616 0.43759134470010586 0.33550650319582664 0.21655954767356345 0.39288139450561554 0.35459603084742169 0.28866802601696467 0.34854390880208758 0.22996525475092874 0.085688999980409158 0.54898337281985699 -0.062911847799828099 -0.14247690086892117 -0.27410855953275448 -0.26421062810508572 0.40141240699330916 0.53499847118588584 0.61344388992362908 -0.38526864029076024
internal_count=997 772 225 111 70 391 178 381 213 153 335 303 249 211 141 90 60 139 108 68 114 95 62 70 84
cat_boundaries=0 2 3 4
cat_threshold=134242322 262209 2 2
shrinkage=0.05


Tree=32
num_leaves=26
num_cat=2
split_feature=2 18 0 18 14 1 6 13 16 1 4 16 6 4 14 6 6 3 8 19 13 16 1 16 13
split_gain=6.4419138398497937 3.2628739371222513 2.9232859629099579 2.1438683286606532 1.7211593164022989 1.6343607832315854 1.4234745217680826 1.3213008132173623 1.5399514843454529 1.2863301796055344 1.1554076139347775 0.87009866865495811 0.68966089819091581 0.62574101312146801 0.5646682752066029 0.47104364311490821 0.45460837724328229 0.63423139830521613 0.60920279215463147 0.95158894533082439 0.8059878381028871 0.35970724492809492 0.27415362221279604 0.061846326526700857 0.043070685727096603
threshold=0 -0.66666666666666674 1 1.0909090909090908 0.72111111111111115 15.5 2787 1.2834821428571428 29.5 13.5 0.1818181818181818 25.5 8005 9.9999996826552254e-21 0.41042780748663099 8005 3907.5 9.5 4.5 -1.5 0.91042780748663099 31.5 18.5 21.5 0.86425061425061434
decision_type=1 10 5 8 10 2 10 10 10 2 2 8 10 2 10 8 8 8 2 8 8 10 2 10 10
left_child=2 10 11 4 6 -6 -3 8 9 -8 15 -1 -7 -14 -10 -2 23 21 -19 -20 -21 24 -22 -4 -18
right_child=1 3 16 -5 5 12 7 -9 14 -11 -12 -13 13 -15 -16 -17 17 18 19 20 22 -23 -24 -25 -26
leaf_value=-0.0067156196544872196 -0.018180381747965057 -0.012940856046662959 -0.026828761052568165 0.029998477952490655 0.010240792510340883 -0.029529252999646441 0.011101228793061656 -0.0084535920974830019 0.011712044987852889 0.03450229022913813 -0.031634489444806936 0.014045361949802278 0.004169926346200465 -0.019487259664601866 -0.0085933407071369546 0.0031177597745927436 -0.02821964745239533 -0.031096717931494738 0.0012969310966962769 -0.007939606723917492 -0.020046358232827133 -0.01734622637659728 -0.034176553457136633 -0.033338431056441117 -0.033552054675333065
leaf_count=48 30 34 30 30 39 38 57 34 32 46 39 56 32 30 33 31 30 45 40 52 32 32 30 53 44
internal_value=0 -0.0012332248865536007 -0.35860286561420029 0.082069917602397749 0.034148099709876353 -0.17547967043828824 0.13799340029042323 0.20584069467033736 0.28389337494142824 0.43880204355556646 -0.37136994438648846 0.054849250221169953 -0.33955931388841831 -0.18941032535060831 0.017892974742975628 -0.14394169573073631 -0.42038949883537302 -0.43514259814403239 -0.35356846312649076 -0.29177559611611192 -0.39207815814705943 -0.5652090930719319 -0.54430671202189185 -0.62317352616582866 -0.63673162831451735
internal_count=997 505 492 405 375 139 236 202 168 103 100 104 100 62 65 61 388 305 199 154 114 106 62 83 74
cat_boundaries=0 1 2
cat_threshold=2 138469380
shrinkage=0.05


Tree=33
num_leaves=23
num_cat=0
split_feature=14 5 10 19 14 13 14 12 4 5 10 17 16 16 14 4 4 13 19 15 10 18
split_gain=1.8047577107113448 2.3026665213866893 1.5112320213460952 1.3109330206452414 1.3045233473477025 1.9084419549618392 1.3981881680564148 1.8004056014108094 1.6395004301460072 0.83875012083470324 1.9944580038102444 1.4347600185070428 1.304666741897976 1.4329324805505552 1.3750408302827317 0.97321528431487891 1.0621111448718494 0.85206209329520799 0.82616839032005907 0.63208143421487084 0.55111860743396068 0.44951737484929732
threshold=-0.17028985507246375 155045.5 11.5 -3.5 0.85714285714285732 0.65045248868778283 0.97259759759759767 2.1913919413919416 0.17424242424242423 304262 3.5 0.82807881773399017 20.5 8.5 0.24999999999999994 9.9999996826552254e-21 -0.15555555555555553 1.179144385026738 -9.9999996826552254e-21 9.9999996826552254e-21 2.5 -9.9999996826552254e-21
decision_type=10 8 2 10 10 10 10 10 2 10 2 10 10 10 10 2 2 8 10 8 2 10
left_child=1 -1 3 -2 9 -6 8 -8 -7 12 11 -11 13 21 -14 16 -16 19 -15 -13 -18 -5
right_child=2 -3 -4 4 5 6 7 -9 -10 10 -12 17 14 18 15 -17 20 -19 -20 -21 -22 -23
leaf_value=-0.010317436168265279 -0.02437533582064277 0.024302049938284293 -0.026873523451332954 -0.0017496054731485165 0.025549550969765984 0.03174811762261634 -0.025320196365449604 0.0038642110099110626 -0.0081675504758443023 -0.028142027807831739 -0.030665072283259015 0.010900683266707564 -0.027482086589747174 -0.00086249382776195792 0.0015808404365122734 0.0055189121251747117 -0.01210592877118264 -0.017381380990102269 0.01745324578356992 -0.0062043677245071267 -0.032612578248889183 -0.020902977126928127
leaf_count=37 56 41 55 31 42 40 58 30 30 32 57 59 44 50 38 55 44 34 55 46 33 30
internal_value=0 0.17513312428463637 -0.14532639981484477 -0.12453915262085323 -0.10402486971679267 0.056131078456981773 -0.051543467044370309 -0.19839733968615511 0.25063496474283947 -0.15290467090656396 -0.25911878925766418 -0.13927225156062742 -0.091053419984699818 0.046598353387127693 -0.20851934599907396 -0.11593058368478734 -0.24151932235090245 -0.042786874855301422 0.18449415127905855 0.054965796900602604 -0.41810230649214059 -0.23310489098509579
internal_count=997 78 919 864 808 200 158 88 70 608 228 171 380 166 214 170 115 139 105 105 77 61
shrinkage=0.05


Tree=34
num_leaves=25
num_cat=3
split_feature=0 2 19 11 14 2 19 16 9 10 12 8 6 5 12 6 11 11 14 14 14 8 14 5
split_gain=3.8548224710077683 1.924312393426387 1.9702200528604532 1.9711493038265546 1.9609162523102415 1.5465143670110186 2.0533841549579628 1.387976567150579 1.3377377732143372 1.2575274611999312 1.2090246730002876 1.0953688930159267 1.0079603057153781 0.83377706476715374 0.86240911143809074 0.67387421900354028 2.3180367478013331 1.0868670667894902 0.50405436585222319 1.3325265218336106 0.43225861625279971 0.54396119507004936 0.3965155767335754 0.37058864088602761
threshold=0 1 9.9999996826552254e-21 1.7312382739212007 0.17902930402930395 2 2.5 23.5 9.9999996826552254e-21 7.5 1.6120071684587813 3.5 2391 320084 1.2834821428571428 14422.5 1.6348484848484848 1.8164983164983166 0.11979913916786233 0.37715517241379304 0.45830115830115825 7.5 0.4932432432432432 223349
decision_type=5 1 10 10 8 1 8 8 2 2 8 2 10 8 10 10 10 10 10 10 10 2 10 10
left_child=5 9 3 4 -3 6 10 -5 22 11 -1 -2 -13 14 -4 17 -17 18 -14 -20 -7 -22 -6 -10
right_child=1 2 13 7 8 20 -8 -9 23 -11 -12 12 15 -15 -16 16 -18 -19 19 -21 21 -23 -24 -25
leaf_value=0.029567497441588153 0.031830008487052301 0.024287044875297217 0.0072538584353552572 0.014392895873185128 0.0030995168477199455 -0.0051377422382548714 -0.014259826922818278 0.03740389562087728 -0.0023957279452288586 0.035773867954253247 -0.0013125744364717814 0.0010096228172781321 0.010459168672795926 0.013075226411043262 -0.014427662566562791 0.024502829360370494 -0.0097368774716060681 0.038531752278642521 0.039406308597948053 0.012398485287787765 -0.030814330306036759 -0.0080939753776437303 0.020904833264136721 -0.018650905673968234
leaf_count=39 55 46 30 55 30 45 39 54 31 46 32 41 40 31 54 51 32 35 31 51 38 30 31 30
internal_value=0 0.29977105560271144 0.21330462717779045 0.30714863339345611 0.16616213169235125 -0.053259198649324803 0.11726009135551042 0.51978602873327617 0.010966050703475897 0.4152265509798288 0.35574484449624849 0.37146312393493908 0.32200242489055775 -0.012156464800009514 -0.12348327609838755 0.36944467746757603 0.22337055690425647 0.44527913940081715 0.36185733066074205 0.46544374556395185 -0.27607292370265035 -0.40899463706003647 0.24855049761677447 -0.20060799464877876
internal_count=997 774 392 277 168 223 110 109 122 382 71 336 281 115 84 240 83 157 122 82 113 68 61 61
cat_boundaries=0 2 3 4
cat_threshold=134225938 262337 2 2
shrinkage=0.05


Tree=35
num_leaves=25
num_cat=1
split_feature=2 18 11 8 5 5 11 18 18 12 6 1 6 14 13 14 14 13 13 11 18 13 10 1
split_gain=6.1012863327100106 3.0869749319567275 2.4018920683906075 1.7706671246516936 1.5380237534890475 2.0319682384483677 1.8697973436513626 1.5154110515074644 1.3605774564423569 1.2420105083334447 1.125974408256714 1.0422189226856324 1.496532333369891 0.91888156757786221 0.82320673856164839 0.77440166026782276 1.7212612308206166 0.56185987992474651 0.44872725094675436 0.44056344483599474 0.27483506831328341 0.091471406388050625 0.033117758084937776 0.0066473082524929339
threshold=0 -0.66666666666666674 1.7537878787878789 8.5 47370.5 112282 1.3538899430740039 0.33974358974358981 -0.23669467787114851 1.3288288288288288 8211 33.5 3300.5 0.42206477732793524 0.98780487804878048 0.73076923076923062 0.45307917888563054 1.1863425925925926 1.013157894736842 1.2970588235294118 -0.85714285714285721 0.84495192307692313 4.5 24.5
decision_type=1 10 10 2 10 10 10 10 10 10 10 2 10 10 10 8 10 10 8 10 10 10 2 2
left_child=8 18 4 7 -3 -6 -7 10 19 -8 -4 12 -10 -11 -15 16 17 -14 -2 -1 -21 -22 -17 -23
right_child=1 2 3 -5 5 6 9 -9 11 13 -12 -13 15 14 -16 22 -18 -19 -20 20 21 23 -24 -25
leaf_value=-0.014781497315238243 -0.0085873738890140851 -0.0094102435766157382 -0.026539843061840204 -0.032023458058172881 0.031780501743369334 -0.010957141154167025 0.032509908574507945 0.019895855274581764 0.00026633185920954121 -0.0044137187848121489 0.0005415599558356945 0.0027448804988673657 -0.016699190565896173 0.00043977720320523099 0.027362211860657983 -0.028593760551773581 0.0022488512223110711 -0.033921906173605548 -0.024261174381844192 -0.016602307326870579 -0.026082804533576909 -0.033461574729686132 -0.034075141435608504 -0.031306893502969411
leaf_count=40 49 41 32 31 45 45 33 32 56 31 50 46 51 30 35 34 39 38 51 30 51 45 31 31
internal_value=0 -0.0008802989721327589 0.07980805149719844 -0.15667093861977879 0.19746185737388713 0.26664009744799649 0.15397334029107773 -0.029062945706629831 -0.35011833534121972 0.28780193627603229 -0.18544743223230564 -0.25780606590628635 -0.31372932482861315 0.16344883690440226 0.34134762286153786 -0.40650621752881061 -0.3182201602753813 -0.48691882036957185 -0.36335885296849108 -0.50510961399694376 -0.56435859979164726 -0.60711351930312152 -0.63045508061652633 -0.65291595368656807
internal_count=997 505 405 145 260 219 174 114 492 129 82 295 249 96 65 193 128 89 100 197 157 127 65 76
cat_boundaries=0 1
cat_threshold=2
shrinkage=0.05


Tree=36
num_leaves=25
num_cat=1
split_feature=14 5 10 19 14 13 14 12 2 5 10 17 16 16 14 3 13 13 18 3 14 5 10 18
split_gain=1.6960377717142658 2.164793359622438 1.4523627155389862 1.2685810864777514 1.2252941923087071 1.7775411470418658 1.3208164162257683 1.7120271574177877 0.85257160449721014 0.80762932510403918 1.9375674863890233 1.3900201835896437 1.2330153858891926 1.355622642493197 1.3249428068170934 1.2672643665936303 0.82109020511387643 0.81736896048944752 1.0664048411589047 0.74293270358824648 0.62683183468388248 0.78172584180261195 0.53835548202051697 0.43367362606601478
threshold=-0.17028985507246375 155045.5 11.5 -3.5 0.85714285714285732 0.65045248868778283 0.97259759759759767 2.1913919413919416 0 304262 3.5 0.82807881773399017 20.5 8.5 0.24999999999999994 9.5 1.179144385026738 0.98780487804878048 -0.33333333333333343 8.5 0.36363636363636359 353785.5 2.5 -9.9999996826552254e-21
decision_type=10 8 2 10 10 10 8 10 1 10 2 10 10 10 10 10 8 10 10 8 8 8 2 10
left_child=1 -1 3 -2 9 -6 8 -8 -7 12 11 -11 13 23 -14 19 20 -15 -19 -16 -13 -22 -21 -5
right_child=2 -3 -4 4 5 6 7 -9 -10 10 -12 16 14 17 15 -17 -18 18 -20 22 21 -23 -24 -25
leaf_value=-0.010067613945843963 -0.023969057039131839 0.023486047353168338 -0.026413500627941035 -0.0015949655296209301 0.024597205261805796 -0.0018302054749957165 -0.024826574209663235 0.0037370453229595649 0.026916449454979348 -0.027755204988640245 -0.030248538371976663 0.013572384167009767 -0.026977402320877759 -0.0043302402925122106 -0.00045481822788182242 0.0062103836186404547 -0.017020576887515012 0.0043506889130483662 0.029594993797261361 -0.011772759107668819 -0.016500984035106841 0.0077558894193851778 -0.032177523165045033 -0.020474618925374298
leaf_count=37 56 41 55 31 42 38 58 30 32 32 57 37 44 39 36 57 34 36 30 44 31 37 33 30
internal_value=0 0.17020631513501228 -0.14026668714905885 -0.11995351457280475 -0.099797420704761552 0.055429133431840576 -0.049207988957711432 -0.19279198188080815 0.24382863353439588 -0.14740433972858133 -0.25215730371266776 -0.1342618761536456 -0.08664471427673022 0.047069759818053655 -0.20146645239589703 -0.11076360927553558 -0.039661181533181142 0.18068067538242261 0.30337310381141586 -0.26907611414775101 0.056110809685864335 -0.078521084288722981 -0.40947510778312546 -0.22639191797708544
internal_count=997 78 919 864 808 200 158 88 70 608 228 171 380 166 214 170 139 105 66 113 105 68 77 61
cat_boundaries=0 1
cat_threshold=2
shrinkage=0.05


Tree=37
num_leaves=24
num_cat=3
split_feature=0 2 18 5 12 16 5 5 8 17 5 6 2 17 1 15 6 16 17 16 14 16 13
split_gain=3.6693553075151506 1.9459996472335384 2.2891636972822238 1.7446206813928926 1.6284542307080179 1.1178058134200155 2.2113911476809114 1.4442886904191243 1.1117676781500059 1.2946662192882279 2.3249337947667659 1.8569966188362574 1.0462218401089494 1.5171823936933619 1.8705992993188518 0.97430299600603298 1.176097512406443 1.0078952091801074 1.1091958430460016 0.59224845569227624 0.54220066559855296 0.47480551716689057 0.80334995884949545
threshold=0 1 -0.52086956521739125 199032.5 1.8873015873015873 34.5 223349 58765.5 3.5 0.65833333333333333 365247.5 2391 2 1.464102564102564 17.5 -9.9999996826552254e-21 14127 34.5 1.179144385026738 49.5 0.4932432432432432 11.5 0.90767045454545459
decision_type=5 1 10 10 10 10 10 10 2 10 10 10 1 8 2 8 10 10 10 8 10 10 10
left_child=12 8 3 -3 5 7 -7 -4 -2 -10 11 -11 13 -1 -15 -13 17 18 -17 20 -14 -9 -23
right_child=1 2 4 -5 -6 6 -8 21 9 10 -12 15 19 14 -16 16 -18 -19 -20 -21 -22 22 -24
leaf_value=0.027706396550502468 0.033169516232065634 0.034281856226159944 0.0099901020018413264 0.0098181693343584904 0.021673438727154385 -0.010524022102109579 0.028569942874535521 -0.00087924875209576545 0.03466102885339542 -0.0019297352454166299 -0.0083823034520811423 0.0077317702062339655 0.0059305190476725937 -0.02266480775366328 0.011222196398884552 0.033896878618010599 0.013083858549885322 0.044308158704355845 0.010378813346868356 -0.024558627265913516 -0.014452316916862799 -0.00020390972178764064 -0.023727942881025348
leaf_count=35 57 53 50 57 44 34 36 34 39 41 43 33 30 32 45 55 45 36 31 40 47 35 45
internal_value=0 0.28941569936571415 0.20143789069616971 0.4331370630640845 0.094568791250497386 0.018619178156403966 0.24933241229942327 -0.075122891483337437 0.40503803230910246 0.35991864052979688 0.31207906176132372 0.38033397315933071 -0.050640625795350253 0.086497231521078508 -0.061136800890582134 0.45164539242557733 0.5134014808281645 0.61964814079200881 0.49735180847069599 -0.23220240626488869 -0.11424693810978458 -0.21806590594551337 -0.31601280045534758
internal_count=997 768 388 110 278 234 70 164 380 323 284 241 229 112 77 200 167 122 86 117 77 114 80
cat_boundaries=0 2 3 4
cat_threshold=138420242 262209 2 2
shrinkage=0.05


Tree=38
num_leaves=24
num_cat=2
split_feature=2 18 0 11 8 6 6 6 11 16 4 4 1 16 11 12 11 11 12 11 11 19 18
split_gain=5.7762371245462978 2.9478370902071624 2.7729726601341902 2.246753154561604 1.7111024357478608 1.4038737613871435 1.250749316902076 1.375563306610085 1.7242539880726304 1.3435089374275893 1.1501806156134244 1.129654233863469 1.0438172985490621 0.81238139067503667 0.64059430431039366 0.48664343522306197 0.57155683357048837 0.35191760288992313 0.2490259561528525 0.27456679471351286 0.18916428341904012 0.034609927424940068 0.075702268525574823
threshold=0 -0.66666666666666674 1 1.7537878787878789 8.5 8005 2787 4930.5 1.3538899430740039 29.5 0.17424242424242423 0.1818181818181818 24.5 25.5 1.7399355877616747 1.1972222222222222 1.3454907161803713 1.3858560794044665 1.4127789046653145 1.5931712962962963 1.9354166666666668 -1.5 -9.9999996826552254e-21
decision_type=1 10 5 10 2 10 10 10 10 10 2 2 2 8 8 8 10 8 10 10 10 10 10
left_child=2 11 13 6 5 -5 -3 -8 -9 10 -10 14 -7 -1 -2 16 -4 -17 -19 -20 21 -21 -23
right_child=1 3 15 4 -6 12 7 8 9 -11 -12 -13 -14 -15 -16 17 -18 18 19 20 -22 22 -24
leaf_value=-0.0062703099382120627 -0.017051162023754354 -0.010016078295391993 -0.023710415996566907 -0.019486184870659201 -0.031604508663205459 0.018831402746051051 0.02628340657512376 -0.010531841025225787 0.010552372061749429 0.0021093915124142425 0.038509787031773192 -0.031007695318131946 -0.007411340037470209 0.013828835931144423 0.0083266768469410293 -0.015117436074469498 -0.0058284559324025776 -0.033037027104685847 -0.017363891162362127 -0.033175486803679509 -0.020681226071948892 -0.024887670942439051 -0.032452184928663738
leaf_count=48 31 34 46 37 31 43 52 45 39 58 32 39 34 56 30 43 41 56 47 37 44 37 37
internal_value=0 -0.00044210526282628237 -0.34163365664188799 0.078172597351367945 -0.15167357668853956 -0.026619449417354248 0.19153497735554462 0.2468082106326254 0.1493378280341098 0.27706714854713749 0.48372001550794064 -0.35668851965920795 0.14446553561929421 0.056788565691294514 -0.13135823392175658 -0.40352277047678331 -0.31590328122441386 -0.5046343717387437 -0.53592156250936829 -0.49449185080667907 -0.54607695943211476 -0.59941904743952368 -0.57112666388993216
internal_count=997 505 492 405 145 114 260 226 174 129 71 100 77 104 61 388 87 301 258 202 155 111 74
cat_boundaries=0 1 2
cat_threshold=2 138469380
shrinkage=0.05


Tree=39
num_leaves=25
num_cat=0
split_feature=8 11 13 5 16 18 14 11 11 16 15 1 8 6 15 5 17 4 12 11 11 16 17 18
split_gain=1.6703904434293997 2.795361126054857 1.5416158838697989 1.4112757591584828 1.7412130766650293 2.3641894702586734 1.2211191000864692 1.2768353136804835 1.0171264231191728 0.93091660480960181 0.7248662475738219 1.2230767133443017 0.96496506546913685 1.6620894118246365 1.3893002879565828 1.3359283071889951 1.1987995351007037 1.2472341763902568 1.1370613254497615 1.5278355069090295 0.72027476932930257 0.44196926119133939 0.38516946237223015 0.31330177134704584
threshold=8.5 1.9519450800915332 0.80707196029776673 344203 33.5 -0.48571428571428565 -0.17028985507246375 1.3858560794044665 1.4188596491228069 19.5 3.5 26.5 4.5 7239 -9.9999996826552254e-21 52694 1.14760348583878 0.1818181818181818 1.4127789046653145 1.6913919413919414 1.6165158371040724 8.5 1.0944940476190477 -0.42857142857142855
decision_type=2 10 8 8 10 10 10 10 10 8 10 2 2 10 10 10 10 2 10 10 8 8 10 10
left_child=6 2 -2 4 5 -4 -1 9 -9 21 12 -12 13 -10 -14 -16 17 20 -18 -20 -17 -8 -15 -19
right_child=1 -3 3 -5 -6 -7 7 8 10 -11 11 -13 14 22 15 16 18 23 19 -21 -22 -23 -24 -25
leaf_value=0.0076823549363678805 -0.021398608197361876 0.031536250085400674 -0.0026958342375914268 -0.019837576789519029 -0.011897620915146111 0.034415351302192511 -0.020376054136079617 0.010984765554484055 0.0014987833124096423 -0.031043425048153186 -0.0030977314467256134 -0.031386346848554125 -0.026635121967709442 -0.033113945849428672 -0.018082392211992697 -0.0066362791530871455 0.026640751786787976 -0.0089345193944211504 -0.012554043105689036 0.015530526595124258 0.016214804948358901 -0.0030841471195121044 -0.017716961474229471 -0.023832931451711756
leaf_count=45 52 31 39 32 34 39 37 31 58 52 39 36 36 42 49 31 32 33 39 54 33 34 59 30
