tree
num_class=3
num_tree_per_iteration=3
label_index=0
max_feature_idx=12
objective=multiclass num_class:3
feature_names=opponent round_number team_at_home n_times_teams_played beatability_index day_of_week days_since_last_game win_streak undefeated_streak PPG GFPG GAPG GDPG
feature_infos=45:13:17:24:2:27:26:48:30:5:40:42:28:22:23:15:7:14:18:50:47:39:31:36:41:32:16:12:49:4:35:43:21:46:38:20:51:25:34:37:0:10:8 [1:42] 1:0 [1:11] [-0.30000000000000004:1] 5:6:4:1:2:0:3 [1:14] [0:14] [0:49] [0:6] [0:10] [0:5] [-4:8]

Tree=0
num_leaves=5
num_cat=0
split_feature=7 9 6 10
split_gain=269.35361527697603 5.6843418860808015e-14 7.1054273576010019e-15 7.1054273576010019e-15
threshold=9.9999996826552254e-21 2.4305019305019302 13.5 2.9615384615384617
decision_type=2 10 2 10
left_child=2 -2 -1 -3
right_child=1 3 -4 -5
leaf_value=-0.037500000058205828 0.075000000086510754 0.075000000153375809 -0.03750000050256664 0.074999999703755024
leaf_count=417 428 78 40 33
internal_value=0 1.5000000014040233 -0.75000000189667426 1.5000000001545577
internal_count=996 539 457 111
shrinkage=0.05


Tree=1
num_leaves=7
num_cat=0
split_feature=7 8 8 9 9 10
split_gain=83.726353656399056 117.92241021018083 1.4210854715202004e-14 1.4210854715202004e-14 3.5527136788005009e-15 1.7763568394002505e-15
threshold=9.9999996826552254e-21 9.9999996826552254e-21 11.5 2.4305019305019302 2.1040540540540542 2.9615384615384617
decision_type=2 2 2 10 10 10
left_child=1 4 -3 -2 -1 -5
right_child=3 2 -4 5 -6 -7
leaf_value=-0.037500000159992351 -0.037500000043255377 0.075000000077965659 0.074999999912056733 -0.037500000076687905 -0.037500000253633481 -0.037499999851877512
leaf_count=157 428 216 44 78 40 33
internal_value=0 0.50444666968659868 1.500000001058692 -0.75000000070201167 -0.75000000361957575 -0.75000000007727885
internal_count=996 457 260 539 197 111
shrinkage=0.05


Tree=2
num_leaves=4
num_cat=0
split_feature=8 4 9
split_gain=170.65593916021939 1.4210854715202004e-14 1.4210854715202004e-14
threshold=9.9999996826552254e-21 0.39393939393939392 1.4599358974358974
decision_type=2 2 8
left_child=1 -1 -2
right_child=2 -3 -4
leaf_value=0.075000000320330926 -0.0375000001619685 0.075000000499823416 -0.037500000029885551
leaf_count=157 35 40 764
internal_value=0 1.5000000072391515 -0.75000000064992989
internal_count=996 197 799
shrinkage=0.05


Tree=3
num_leaves=7
num_cat=1
split_feature=7 3 3 9 2 11
split_gain=242.12827433293327 2.8421709430404007e-14 1.4210854715202004e-14 1.4210854715202004e-14 7.1054273576010019e-15 8.8817841970012523e-16
threshold=9.9999996826552254e-21 5.5 1.5 1.7071078431372548 0 1.2402597402597402
decision_type=2 10 10 8 1 10
left_child=3 2 4 5 -2 -1
right_child=1 -3 -4 -5 -6 -7
leaf_value=-0.036797615568733504 0.069679867393013295 0.069679867489830682 0.069679867223234396 -0.03679761564080599 0.069679867352789623 -0.036797616559049326
leaf_count=69 96 317 53 357 73 31
internal_value=0 1.3935973486543611 1.3935973465982603 -0.73595231370024428 1.393597347515992 -0.73595231912444137
internal_count=996 539 222 457 169 100
cat_boundaries=0 1
cat_threshold=2
shrinkage=0.05


Tree=4
num_leaves=9
num_cat=1
split_feature=7 8 1 10 10 2 10 10
split_gain=78.4456839568508 106.03756730329221 1.4210854715202004e-14 1.4210854715202004e-14 7.1054273576010019e-15 3.5527136788005009e-15 3.5527136788005009e-15 1.7763568394002505e-15
threshold=9.9999996826552254e-21 9.9999996826552254e-21 24.5 1.4919354838709677 1.7759856630824373 0 1.957427536231884 1.1775210084033614
decision_type=2 2 2 10 10 1 10 10
left_child=1 5 4 7 -2 6 -1 -3
right_child=2 3 -4 -5 -6 -7 -8 -9
leaf_value=-0.036797615712399714 -0.036797615764583069 0.069679866411523489 -0.036797615600697928 0.069679867493430539 -0.036797615622108266 -0.036797615689906762 -0.036797615192965087 0.069679867147508887
leaf_count=96 78 33 195 194 266 55 46 33
internal_value=0 0.47996194834894335 -0.73595231258014226 1.3935973475719527 -0.73595231289671625 -0.73595231082110035 -0.73595230969606773 1.3935973344776735
internal_count=996 457 539 260 344 197 142 66
cat_boundaries=0 1
cat_threshold=1
shrinkage=0.05


Tree=5
num_leaves=24
num_cat=1
split_feature=2 4 11 9 9 11 3 4 12 10 10 9 11 9 3 10 9 11 11 4 4 6 3
split_gain=7.8659159496959603 8.0231979283045387 6.018756104572061 4.5355784178885763 2.1890961317388857 1.8031942462777515 2.2969143325595187 1.1690426448819302 1.3835843044819924 1.0754813758503408 0.82626943525528695 0.66361165162065372 0.59451867752472509 0.74306675609685158 0.75768477010785484 0.58668225225387616 0.56246802732887069 0.43245257058804798 0.4066054149073246 0.32455887077564505 0.093759256304895899 0.11831256502644294 3.5527136788005009e-15
threshold=0 -9.9999996826552254e-21 1.0350985221674878 2.1297335203366057 1.6220238095238095 1.3169856459330145 8.5 -0.23636363636363636 0.7777777777777779 1.9534632034632033 1.7533783783783785 1.7656862745098039 1.1617262423714037 1.8811764705882352 8.5 2.3266666666666667 1.9245014245014245 0.87228260869565211 0.83827375762859635 0.28636363636363638 0.63333333333333341 3.5 4
decision_type=1 2 8 10 8 10 8 2 10 10 8 10 10 8 10 10 10 10 8 2 2 2 10
left_child=4 2 18 5 -1 6 -3 8 -6 10 11 -8 13 14 -9 17 -4 -5 -2 -14 21 -15 -23
right_child=1 3 16 15 7 -7 9 12 -10 -11 -12 -13 19 20 -16 -17 -18 -19 -20 -21 -22 22 -24
leaf_value=0.0092242989641019794 -0.022066890716009507 -0.027330837757842716 0.046346851627627451 -0.031341330855127844 0.0041134980370621721 0.014757120770456603 0.012379415204664143 -0.03309059374402535 -0.026106386775540558 -0.015766699002292599 0.018217199450644005 -0.013422414148245363 -0.029090839368610923 -0.029198157683871025 -0.0073675893133382025 -0.036797615513050615 0.027975912557561711 -0.015192057559153647 -0.0030962339144090345 -0.018106068582521343 -0.030142473774751728 -0.036797615874262536 -0.036797615563470512
leaf_count=44 31 57 31 40 30 35 38 35 38 31 34 43 55 32 34 54 37 36 31 51 42 56 81
internal_value=0 -0.11570659005197827 0.33619483913115811 -0.28044212681039549 -0.49886337585392015 -0.09086091095010515 -0.18702398566815689 -0.52892911148454413 -0.27826321197911597 -0.022777298270060666 0.11492554308984762 -0.067574771783050908 -0.57462576425260203 -0.63160794292812195 -0.40308614407306498 -0.58334732131052902 0.71547524617504854 -0.45690207379522163 -0.21495806652159641 -0.45375985739235586 -0.68703514286956169 -0.7106242468159778 -0.7359523133539202
internal_count=996 498 130 368 498 238 203 454 68 146 115 81 386 280 69 130 68 76 62 106 211 169 137
cat_boundaries=0 1
cat_threshold=2
shrinkage=0.05


Tree=6
num_leaves=22
num_cat=2
split_feature=8 4 12 12 2 12 11 12 12 6 11 4 8 11 3 3 11 11 2 4 11
split_gain=71.688351471802207 6.663877266418595 2.7744520120936436 2.55171840370312 1.8474298737382924 1.60153413797702 1.6874279932606502 1.0056840412368593 2.0799119405962085 0.93526737092180667 0.71464713447346639 0.85107955610627073 0.75541596450221959 0.67567941617887328 0.37358919938366952 0.66918307319063075 0.32890536063975873 0.28250116152162796 7.7323539088069992e-05 7.1196745819790408e-05 1.6256608361686631e-05
threshold=9.9999996826552254e-21 -9.9999996826552254e-21 1.1206060606060606 0.57142857142857151 0 0.49999999999999994 1.179144385026738 0.86363636363636365 0.6545092838196287 4.5 1.2025641025641025 0.28636363636363638 7.5 0.79655172413793107 7 10.5 1.0488095238095239 0.91106719367588929 1 -9.9999996826552254e-21 1.1835016835016834
decision_type=2 2 10 8 1 8 10 10 10 2 8 2 2 10 8 8 10 10 1 2 8
left_child=18 2 7 5 10 6 -3 8 -2 -6 11 12 17 -11 -15 -16 -13 -5 19 -1 -21
right_child=1 3 -4 4 9 -7 -8 -9 -10 13 -12 16 -14 14 15 -17 -18 -19 -20 20 -22
leaf_value=-0.036394584089702725 -0.0056292813443266625 0.01181428285474238 0.037416842740368265 0.04253022015085578 0.026625592152519958 0.0088852451546633862 0.049684621366927778 -0.005424834344120005 0.030625874074925424 0.028749320900595857 0.060853969804649743 0.048265912893273595 0.054452179030891494 0.052109857092692558 0.032305678523214969 0.049208030728672247 0.059323204583467161 0.029460734189697465 -0.036633262334133603 -0.036596100392082831 -0.036494318862725438
leaf_count=59 42 49 59 42 59 34 39 30 41 45 53 53 38 36 41 55 42 41 55 53 30
internal_value=0 0.74081274164555866 0.36500236755752741 0.83942533526570706 0.89581070959451459 0.52171058680676319 0.73856240239162418 0.17135713688462265 0.31607443578759209 0.76386390634627566 1.0115526241758575 0.95759507929949883 0.82110695070727158 0.83537930136552196 0.89547286371850621 0.82289749377915378 1.0797601125335006 0.70415793240825075 -0.73042578653845969 -0.72957528102101366 -0.7310125580722443
internal_count=996 799 172 627 505 122 88 113 83 236 269 216 121 177 132 96 95 83 197 142 83
cat_boundaries=0 1 2
cat_threshold=2 1
shrinkage=0.05


Tree=7
num_leaves=25
num_cat=5
split_feature=7 8 12 2 11 2 2 9 11 9 2 12 3 9 11 9 3 2 10 11 3 1 3 10
split_gain=72.725783066504263 98.021949971411203 0.00062695094823084219 0.00029153748597110507 0.000207677248148741 8.5043716580912587e-05 7.732343560817867e-05 7.008082798876103e-05 6.2623475965750686e-05 4.1877983228744142e-05 4.8999784887371334e-05 3.0456382752674926e-05 1.5152069464896556e-05 1.1510580247175994e-05 5.6702207817949102e-06 5.5117835255913405e-06 5.2415329632182761e-06 4.2666004169689131e-06 7.8670135685854348e-06 5.834864200693346e-06 3.3707330509002986e-06 1.0766555345043116e-06 4.1220626201265986e-07 2.5012000826052372e-07
threshold=9.9999996826552254e-21 9.9999996826552254e-21 0.94444444444444453 0 1.0889328063241106 1 2 1.7958333333333334 1.1148351648351649 2.1455026455026456 3 0.67712355212355213 8.5 1.8628526645768024 1.1863425925925926 1.9245014245014245 8.5 4 2.3266666666666667 1.1644144144144144 7 25.5 10.5 2.118823529411765
decision_type=2 2 10 1 10 1 1 10 8 8 1 10 10 10 10 8 10 1 10 10 10 2 8 10
left_child=1 6 3 7 -5 -4 -1 -3 12 10 13 -12 -8 16 21 -10 -2 19 -19 22 -13 -15 23 -11
right_child=9 2 5 4 -6 -7 8 -9 15 17 11 20 -14 14 -16 -17 -18 18 -20 -21 -22 -23 -24 -25
leaf_value=-0.036633262236429903 -0.036067148482168555 0.065678608454396659 0.065274105059773699 0.065692165084738241 0.066039072689141165 0.065461526654495714 -0.036627529075086707 0.065451008472028532 -0.036390097557828273 -0.036110544640276014 -0.035893602838818831 -0.03604019081994906 -0.036516034534175255 -0.036097538343395491 -0.03606079643465087 -0.036447225340748166 -0.036002084052013689 -0.036053177728127557 -0.036110955617086681 -0.036071808734028425 -0.035995597637157435 -0.036123352332273734 -0.03613051663987641 -0.036123192271520485
leaf_count=55 32 39 45 52 33 57 35 34 40 36 42 39 37 40 32 30 38 55 46 31 32 35 47 34
internal_value=0 0.45219059243237064 1.311256674059313 1.31418894715818 1.3169210127193236 1.3074308888862904 -0.73042578608682818 1.3108161045755082 -0.72957528113728276 -0.7213446787226454 -0.72077044590062822 -0.71965164483449018 -0.73128147878177308 -0.72149073146228004 -0.72188651658991498 -0.72832782036655286 -0.72070449990992769 -0.72196983791733227 -0.72164635218198392 -0.72220599058436363 -0.72037029863005375 -0.72223017748547691 -0.72244077121550587 -0.72234250362356933
internal_count=996 457 260 158 85 102 197 73 142 539 290 113 72 177 107 70 70 249 101 148 71 75 117 70
cat_boundaries=0 1 2 3 4 5
cat_threshold=2 2 2 2 2
shrinkage=0.05


Tree=8
num_leaves=23
num_cat=4
split_feature=8 2 4 9 9 2 3 9 12 4 4 9 3 4 8 12 2 3 1 1 6 2
split_gain=150.48096192724307 0.003967626949275882 0.003597009545273977 0.00067604029009871169 0.00038649283266067869 0.00042997407703637691 0.00021301373089599451 0.00014930845109262236 0.00012138947568196556 9.1592651354943655e-05 8.4122324096824741e-05 4.2223837215971116e-05 3.5298136825900883e-05 1.5463941833715467e-05 1.4454303034483473e-05 1.4262755218652501e-05 1.7502761501475561e-05 1.2888658963206012e-05 2.8949022805591085e-06 5.1214564127377571e-06 2.7673444886744392e-06 1.3269189036435591e-06
threshold=9.9999996826552254e-21 0 -9.9999996826552254e-21 1.9682459677419355 2.1455026455026456 1 8.5 1.6141439205955335 0.66666666666666685 -0.23636363636363636 -0.15000000000000002 1.8628526645768024 5.5 0.39393939393939392 3.5 1.2052631578947368 2 10.5 12.5 19.5 6.5 3
decision_type=2 1 2 8 10 1 8 8 10 2 2 8 10 2 2 10 1 8 2 2 2 1
left_child=1 2 -1 -4 5 7 -7 -2 17 -9 -6 12 -11 20 -10 16 -12 -8 21 -20 -13 -17
right_child=4 -3 3 -5 10 6 8 9 14 11 15 13 -14 -15 -16 18 -18 -19 19 -21 -22 -23
leaf_value=0.066875175541873277 -0.036661348683573403 0.068515711081068284 0.067649773415642503 0.068280794454219682 -0.036357677211294424 -0.036337843096391702 -0.036746063466169418 -0.036425137896237567 -0.036544479952959549 -0.036208456696186907 -0.03619572059904675 -0.036200970628918458 -0.036365816859651831 -0.036249124670450779 -0.03645393695651121 -0.036181790933449386 -0.036284675646405924 -0.036637914895279615 -0.036229677985036554 -0.036175298343203405 -0.036159890423016781 -0.036155048550485298
leaf_count=59 30 55 52 31 49 58 35 38 37 34 57 32 45 43 46 49 40 34 32 51 48 41
internal_value=0 1.3547767910899708 1.3489433873342653 1.3588228411783947 -0.72631518657666894 -0.72758342463943981 -0.7299335783643307 -0.72573587079645197 -0.73147207066420106 -0.72537636521272242 -0.72450596927334054 -0.72482257959952245 -0.72616693635845475 -0.72412371496331673 -0.72985577723432149 -0.72404824488821828 -0.7246725496389318 -0.73402976993175595 -0.72366223089642234 -0.72394904237663693 -0.72351475342218785 -0.72338623958783532
internal_count=996 197 142 83 799 480 210 270 152 240 319 202 79 123 83 270 97 69 173 83 80 90
cat_boundaries=0 1 2 3 4
cat_threshold=1 2 2 2
shrinkage=0.05


Tree=9
num_leaves=24
num_cat=0
split_feature=7 4 12 12 11 10 4 8 4 12 6 6 10 8 10 12 11 11 6 9 10 10 9
split_gain=207.25635259848434 0.0068721219924725574 0.0028012491114566274 0.0024603283272739418 0.0013209678754542153 0.00082049085816038314 0.0004724809603899871 0.00032217758333175084 0.00028958272756085535 0.00024332710269092672 0.00020050319251652127 0.00018802761262293188 0.00016539625787004297 0.00020213922553580232 0.00015505733767895435 0.00015172884183201063 5.8359625262127679e-05 5.571108038182615e-05 2.5997936221600071e-05 2.0920736226059944e-05 1.9267282363344407e-05 4.7223330454926327e-06 3.7391070968340046e-06
threshold=9.9999996826552254e-21 -9.9999996826552254e-21 0.57142857142857151 1.1206060606060606 1.179144385026738 2.2466216216216219 -9.9999996826552254e-21 9.9999996826552254e-21 0.80555555555555558 0.57142857142857151 7.5 3.5 1.6885775862068966 7.5 1.9076704545454546 1.1538461538461537 1.0135135135135136 1.1371473354231976 5.5 1.9069264069264069 1.930952380952381 1.6792857142857143 2.2204861111111112
decision_type=2 2 8 10 10 10 2 2 2 10 2 2 10 2 10 10 8 10 2 10 8 8 10
left_child=6 3 4 -2 -3 8 15 19 11 -9 17 -4 -13 14 -14 16 -1 -7 -11 21 -18 -8 -20
right_child=1 2 5 -5 -6 10 7 9 -10 18 -12 12 13 -15 -16 -17 20 -19 22 -21 -22 -23 -24
leaf_value=-0.035905340072289155 0.063769706032027682 0.063685010849649601 0.062499375400325276 0.062662229789279378 0.062608872983597907 0.062169747325428376 -0.035931122075892649 -0.035959646244515808 0.062057356861436319 -0.036193740168281544 0.061819303416601239 0.062477044468511295 0.062471803816809592 0.062033221153295508 0.062208603792794998 -0.036066362722323927 -0.035696995836061972 0.061988878238861005 -0.036322349622256056 -0.035988813210251859 -0.035796393584346574 -0.03586611444671934 -0.036272414320677085
leaf_count=47 52 34 44 41 36 30 44 55 44 45 48 39 39 44 55 30 42 33 49 40 40 33 32
internal_value=0 1.2483302750816743 1.2452538848027199 1.2652934189888192 1.258864509540687 1.2434075440147794 -0.71984498532430585 -0.72168195780497479 1.2453819422148933 -0.72365049479733368 1.2391738119437428 1.2464034955831667 1.2454306912488216 1.2444819924455688 1.2460184556459379 -0.71699084736721586 -0.71599932068848893 1.2414777930233791 -0.72530267280334171 -0.71869694819097429 -0.71503517213372003 -0.71780734770564925 -0.72605800851656677
internal_count=996 539 446 93 70 376 457 298 265 181 111 221 177 138 94 159 129 63 126 117 82 77 81
shrinkage=0.05


Tree=10
num_leaves=26
num_cat=4
split_feature=7 8 2 11 3 9 10 2 11 11 1 7 3 10 11 11 1 9 9 3 11 2 2 1 11
split_gain=69.922635126056022 90.961410584248853 0.00051745748278619885 0.00025763766797837206 0.00024052942468699712 0.00012923479132354032 0.000116315031998937 6.6921074278525339e-05 6.3235381588810924e-05 5.7637540177069013e-05 2.7528271949961436e-05 1.9472186345126374e-05 1.3223623802183226e-05 1.174745128196264e-05 8.868333513767368e-06 8.4867483494122098e-06 7.8270641648003902e-06 5.0229137098511956e-06 5.0068308059536548e-06 4.9629166785081225e-06 2.97351995826034e-06 7.2305558624918831e-06 3.722873228362289e-06 2.3029131890339727e-06 1.5239625543728152e-06
threshold=9.9999996826552254e-21 9.9999996826552254e-21 0 0.81365740740740744 9.5 2.1775210084033612 1.7679487179487179 1 1.1550480769230769 1.1148351648351649 19.5 1.5 8.5 1.7119815668202765 0.92980295566502469 1.0274024024024024 12.5 1.9245014245014245 2.0350985221674875 10.5 0.84105263157894727 2 3 22.5 1.1043557168784028
decision_type=2 2 1 8 10 10 8 1 8 8 2 2 10 10 10 10 2 8 10 8 10 1 1 2 10
left_child=1 7 4 -4 10 6 -5 -1 13 12 -3 19 -9 14 23 20 -13 -11 -17 -10 22 -22 -15 -2 -20
right_child=8 2 3 5 -6 -7 -8 9 11 17 -12 16 -14 15 -16 18 -18 -19 24 -21 21 -23 -24 -25 -26
leaf_value=-0.035982277201404955 -0.035658569204082946 0.062710877954088348 0.062603732426665976 0.062891739644138536 0.062478354450240782 0.062809234596901589 0.063158265703902122 -0.035979623531429389 -0.035493792967143854 -0.035751071908935866 0.062868695492257459 -0.035613054137101273 -0.035874326706524975 -0.035622467549402674 -0.035718212547507983 -0.035559334277278164 -0.03555237954734821 -0.035806216611518241 -0.035621027694383751 -0.035546894040734224 -0.035642888866937172 -0.035583334139425819 -0.035675538780982431 -0.035608820154806688 -0.035590012052282724
leaf_count=55 33 30 39 33 54 30 40 35 56 40 34 42 37 43 37 36 44 30 32 32 53 38 31 31 31
internal_value=0 0.44332705511123677 1.2554225656889291 1.2582184408845305 1.252162506033774 1.2595905768078559 1.2611094442913533 -0.71753949377629134 -0.71189190064807961 -0.71673940529389579 1.2556983503346162 -0.71091454613855809 -0.71839403842200444 -0.71245619983571695 -0.71327171649836318 -0.71225802572235175 -0.71157503095250396 -0.71552909931085207 -0.71180836058936614 -0.71021207143984111 -0.71258077172859347 -0.71234473353343386 -0.71295081852866726 -0.71270049892798804 -0.71213796718928313
internal_count=996 457 260 142 118 103 73 197 539 142 64 174 72 365 101 264 86 70 99 88 165 91 74 64 63
cat_boundaries=0 1 2 3 4
cat_threshold=2 2 2 2
shrinkage=0.05


Tree=11
num_leaves=25
num_cat=3
split_feature=8 2 4 7 11 4 2 9 9 2 4 3 9 11 4 9 11 11 11 9 8 11 11 11
split_gain=138.85089522797816 0.0029834048990267092 0.0027204421548816526 0.0018202992673650442 0.0006703959782647928 0.00046072668260421779 0.0002686907887863299 0.0002124431744405797 0.00021172988781259505 0.00017609891105863085 0.00011156776888832098 8.1054263702640128e-05 7.2852067191320202e-05 6.7555480612213614e-05 6.2470486993149166e-05 4.1314495992317291e-05 2.3471773001659813e-05 2.3235574506230705e-05 1.765493235339477e-05 1.2420402141444242e-05 8.2124515330406211e-06 4.76369523205733e-06 2.6981360345956773e-06 2.1697686252153403e-06
threshold=9.9999996826552254e-21 0 -9.9999996826552254e-21 9.9999996826552254e-21 1.1835016835016834 -9.9999996826552254e-21 1 2.0135135135135136 2.1165158371040724 2 -9.9999996826552254e-21 9.5 1.85239651416122 1.0851449275362319 -9.9999996826552254e-21 1.9016129032258065 1.0701970443349753 1.1490740740740741 1.0513157894736842 1.8136574074074074 7.5 0.9177927927927928 1.0571895424836601 0.91106719367588929
decision_type=2 1 2 2 8 2 1 10 10 1 2 8 8 8 2 10 10 10 8 10 2 10 10 10
left_child=1 -1 -3 7 -4 9 12 10 11 -5 -2 -8 -7 19 -9 -13 -10 18 20 -12 21 -14 -11 -16
right_child=3 2 4 5 -6 6 8 14 16 22 13 15 17 -15 23 -17 -18 -19 -20 -21 -22 -23 -24 -25
leaf_value=0.064172829214349567 -0.035666910650436034 0.06276616278741054 0.063960979422150094 -0.036253576998585044 0.063338910658480893 -0.035827309756229046 -0.035857586865785968 -0.035451625906012502 -0.035797348662493185 -0.03590139152338772 -0.035449263628878229 -0.036176795122259062 -0.035663939861345147 -0.035565144702444942 -0.035238156274944601 -0.035987375124397529 -0.035688271114212008 -0.035725243568990449 -0.035600158865093878 -0.035328353778222105 -0.035622836682726741 -0.035718397609930487 -0.035949628280054005 -0.035280461461493114
leaf_count=55 49 59 53 33 30 48 31 30 49 30 31 31 41 44 30 35 35 56 47 33 33 40 30 43
internal_value=0 1.2701589659145838 1.2651590298464461 -0.71402060829764658 1.2736405998510425 -0.71618980127627774 -0.71533302921310538 -0.70892838730330421 -0.71729003827112725 -0.72084303278403183 -0.7107318981870494 -0.71951005827201175 -0.71392622469322664 -0.70920694197274936 -0.70653556934135864 -0.72115214879215683 -0.71495336894783468 -0.71343649280267663 -0.71298185706882977 -0.707386899370269 -0.71351943271429896 -0.71387621921545219 -0.71852546325126954 -0.70535306797780739
internal_count=996 197 142 799 83 539 446 260 181 93 157 97 265 108 103 66 84 217 161 64 114 81 60 73
cat_boundaries=0 1 2 3
cat_threshold=2 2 1
shrinkage=0.05


Tree=12
num_leaves=25
num_cat=0
split_feature=7 12 3 12 7 3 3 8 6 12 12 12 3 10 12 3 7 9 3 10 6 12 9 10
split_gain=188.95968343264133 0.002908143821144904 0.0014556999379067292 0.0010334638543412211 0.00088107469294484986 0.00040561527134741482 0.00031525151341327273 0.00029744780122342718 0.000285439809943 0.00025609076236321471 0.00022346640418646757 0.00018700688725203918 0.00013024528031024829 0.00012418928442770039 7.1728344673616107e-05 5.916098350322585e-05 5.8364492755202946e-05 5.4970315542135495e-05 5.082508737785929e-05 4.1862769474931838e-05 1.5960784996771338e-05 1.5807736822637253e-05 1.1704409339508004e-05 9.1369768018267905e-06
threshold=9.9999996826552254e-21 0.60357142857142865 9.5 1.0666666666666669 1.5 7 10.5 9.9999996826552254e-21 4.5 0.6545092838196287 1.0555555555555556 1.2999999999999998 8.5 2.2696969696969695 1.1277173913043479 9.5 1.5 2.0350985221674875 9.5 2.3726851851851851 5.5 0.87228260869565211 1.8355855855855856 1.8480769230769232
decision_type=2 8 10 8 2 8 10 2 2 8 10 10 10 8 10 10 2 10 10 10 2 10 10 8
left_child=7 4 5 6 -2 13 -4 18 -7 15 16 -5 20 17 -14 -9 -10 -3 22 -12 -11 23 -1 -20
right_child=1 2 3 11 -6 8 -8 9 10 12 19 -13 14 -15 -16 -17 -18 -19 21 -21 -22 -23 -24 -25
leaf_value=-0.035292592918633237 0.059227601964019286 0.058535905859230991 0.059429724877256743 0.058676500958270233 0.059942264201227724 0.059051777679612949 0.059050162333581013 -0.03538349868069695 0.058746081538643524 -0.035566927899221647 0.058680997630329704 0.058957771419728348 -0.035383017441576584 0.058406810286322192 -0.035581832418429146 -0.035178406866678835 0.058947909553212455 0.058701895795888887 -0.035237517059225114 0.058518123838363557 -0.035679377445868098 -0.035289637065100292 -0.035390805042308897 -0.035166282211101622
leaf_count=45 56 31 56 42 37 36 32 49 30 31 33 46 53 33 35 40 37 36 55 34 52 31 36 30
internal_value=0 1.1783992647997237 1.176562043373103 1.1808765941156552 1.1902146286512854 1.1736520178265666 1.1856459545941302 -0.70748468931116115 1.1757964049082472 -0.70911616810254585 1.1743919014816637 1.1762366661093022 -0.71056057449542676 1.1709202207557428 -0.70895143932046811 -0.70551595649873033 1.177219081981463 1.1723851841915398 -0.70541402802846354 1.1718080125202726 -0.71286357079515661 -0.70461331917653192 -0.70704992011336154 -0.70409882397471579
internal_count=996 539 446 176 93 270 88 457 170 260 134 88 171 100 88 89 67 67 197 67 83 116 81 85
shrinkage=0.05


Tree=13
num_leaves=25
num_cat=0
split_feature=7 8 9 12 12 12 11 4 11 12 11 4 6 9 9 4 12 7 8 12 11 11 1 11
split_gain=65.681468521237505 82.918868900588961 0.00024564649460501187 0.00021556687534030061 0.00021396609685098156 0.00017158005623940653 0.00011578934246614381 5.8390156596033194e-05 5.2253636262378222e-05 3.3380546284433876e-05 3.0231094426014238e-05 2.1280951642665968e-05 2.0158555450677795e-05 1.9199490807864095e-05 1.6716663274962684e-05 1.0955668443557443e-05 6.4520411733326455e-06 5.8334998760400936e-06 5.3580778107686911e-06 5.1879870834881103e-06 4.5169260642907716e-06 2.695424125676027e-06 2.3216039934936816e-06 1.9096883701053002e-06
threshold=9.9999996826552254e-21 9.9999996826552254e-21 1.6381818181818182 0.56594202898550727 0.94201680672268906 1.1043557168784031 1.0465367965367967 -9.9999996826552254e-21 1.1550480769230769 0.57793522267206476 1.0615530303030303 0.26136363636363635 7.5 1.9069264069264069 2.1589473684210527 0.28636363636363638 1.2981481481481483 1.5 5.5 0.92980295566502469 0.86811594202898545 1.1644144144144144 13.5 1.0488095238095239
decision_type=2 2 10 10 10 10 10 2 8 10 10 2 2 10 8 2 10 2 2 10 10 8 2 10
left_child=1 7 -3 -4 6 -6 -5 10 9 -2 -1 17 -7 21 -13 18 23 -10 19 -11 -20 -9 -21 -17
right_child=8 2 3 4 5 12 -8 13 11 15 -12 14 -14 -15 -16 16 -18 -19 20 22 -22 -23 -24 -25
leaf_value=-0.035304870245653409 -0.035175005629231093 0.059603613383773194 0.058987578555637347 0.059261102892040118 0.058997696372007725 0.059207850644213515 0.059511969179071492 -0.035307477160638576 -0.034976426506866901 -0.035028575736389136 -0.03516074936801928 -0.034902738502030663 0.059325019759857225 -0.035378751749932991 -0.034986769027157895 -0.035001680444180436 -0.035044674882774275 -0.035037330070331711 -0.035051659533738531 -0.035058296824268302 -0.034997616457161998 -0.035259416879017527 -0.035100008341867973 -0.034972065933986843
leaf_count=30 40 36 40 47 35 38 34 45 41 50 50 56 30 40 34 55 31 43 45 32 44 32 37 31
internal_value=0 0.42529215323315778 1.1845376278942161 1.1839734341851489 1.1849232032527224 1.1830338701648853 1.1875036806198844 -0.70541674510762142 -0.70015637040278933 -0.7006754353632102 -0.70406406125435805 -0.69925727929324821 1.185232625157264 -0.7065292248061682 -0.69868742358850988 -0.70050895851881434 -0.70005515524474604 -0.7001685289088766 -0.70086909775058526 -0.70119162153101044 -0.70042459694037862 -0.7056669711729362 -0.70157789457586617 -0.69979567866404591
internal_count=996 457 260 224 184 103 81 197 539 365 80 174 68 117 90 325 117 84 208 119 89 77 69 86
shrinkage=0.05


Tree=14
num_leaves=24
num_cat=4
split_feature=8 2 4 9 12 2 3 4 12 10 9 4 2 12 2 9 10 10 6 4 12 12 9
split_gain=128.46060157915306 0.002285474246534136 0.0020870941573036816 0.00041414226101110785 0.00028246381914698304 0.0001923993181236483 0.00014780020648785808 0.00014045080166269486 0.00012040123917422818 8.1828644724168953e-05 5.5801624522899829e-05 4.5174588223062528e-05 0.00010396298699788531 3.2446016160037061e-05 3.0690378006070773e-05 2.2559563401358673e-05 2.185556380496223e-05 1.9621465463970367e-05 1.8358086548708741e-05 1.712352527682981e-05 8.8255106032164576e-06 1.0020015207778954e-05 5.9503678793149106e-06
threshold=9.9999996826552254e-21 0 -9.9999996826552254e-21 1.9682459677419355 0.94444444444444453 1 9.5 -0.23636363636363636 0.49999999999999994 1.8255578093306288 1.6381818181818182 -9.9999996826552254e-21 2 1.2330316742081449 3 2.5577777777777779 1.6273148148148149 1.9436507936507936 6.5 0.31666666666666665 1.319805194805195 1.4204545454545454 2.134234234234234
decision_type=2 1 2 8 10 1 8 2 10 10 8 2 1 10 1 10 10 10 2 2 8 10 10
left_child=1 2 -1 -4 5 7 -7 -2 -8 -10 -9 12 -6 14 22 20 18 19 -12 -18 -15 -22 -13
right_child=4 -3 3 -5 11 6 8 10 9 -11 16 13 -14 15 -16 -17 17 -19 -20 -21 21 -23 -24
leaf_value=0.059221262654049367 -0.035324227839553524 0.060441389317566319 0.059792895731540632 0.060276005823412186 -0.03528265049026668 -0.035123310435831688 -0.035581190336403848 -0.03528688697262853 -0.035170930366501492 -0.03537627935442339 -0.035066624409852011 -0.034972317463431275 -0.03501873744790391 -0.034910065646667286 -0.035110614216087375 -0.03504014940429985 -0.035156139783968941 -0.03502135205021889 -0.034922378738038981 -0.035056998588124083 -0.035032103034156374 -0.034943233541045386 -0.035035441474016098
leaf_count=59 34 55 52 31 30 58 36 30 53 47 33 30 47 32 57 56 47 39 30 32 31 41 36
internal_value=0 1.1973052061682528 1.1929670369039733 1.2003231319513379 -0.70211256276527512 -0.70338930566222779 -0.7050888392447755 -0.70203261773405667 -0.70661025874648642 -0.70558582303622341 -0.70135273146225008 -0.70073796483665407 -0.70220817938740143 -0.70034151165881731 -0.70111839952156996 -0.69965733577200528 -0.70103660535098011 -0.70146546427137202 -0.69967934321780256 -0.70212771181048594 -0.69905066453783549 -0.69954031857466503 -0.70013688490403492
internal_count=996 197 142 83 799 439 194 245 136 100 211 360 77 283 123 160 181 118 63 79 104 72 66
cat_boundaries=0 1 2 3 4
cat_threshold=1 2 1 2
shrinkage=0.05


Tree=15
num_leaves=25
num_cat=2
split_feature=8 4 10 9 2 9 9 11 11 11 9 10 11 6 11 4 3 1 10 9 2 11 4 3
split_gain=56.081610201026258 4.78205275502593 2.0894967782938068 1.9768517256231726 1.7507073579413088 1.4232383518455194 0.8018866960716835 0.98194398624093182 0.6992278664883631 0.85319824341930117 0.65726617412893518 0.93385307979275822 1.2083558442836626 0.58737205315631291 0.52939778546915495 0.43900988988113454 0.35013737072030082 0.22544069874309614 0.12837668009396874 0.059179849579990673 5.1460385787294172e-05 4.8916765868156631e-05 2.9961289299329508e-05 9.8021202017406495e-06
threshold=9.9999996826552254e-21 -9.9999996826552254e-21 1.4248120300751879 2.3416666666666668 0 1.8768939393939394 2.0741758241758244 1.063508064516129 1.0678160919540229 0.93440860215053756 2.5374999999999996 2.203448275862069 0.98648648648648651 7.5 0.9486842105263158 0.28636363636363638 7 8.5 2.0444664031620556 2.2124060150375939 1 1.1148351648351649 -9.9999996826552254e-21 8.5
decision_type=2 2 8 10 1 8 8 10 10 10 10 10 10 2 8 2 10 2 10 10 1 8 2 10
left_child=20 3 13 8 6 -6 7 14 9 -2 11 12 -7 -3 -4 17 -9 -8 -10 -17 21 23 -23 -1
right_child=1 2 4 -5 5 10 15 16 18 -11 -12 -13 -14 -15 -16 19 -18 -19 -20 -21 -22 22 -24 -25
leaf_value=-0.034795287526409126 0.015550719133226063 0.024161176169423589 0.036614131257897309 0.036065716385971489 0.014272425480598658 0.026088464170495297 0.049238458771139401 0.038014321707950244 0.01251269878775897 -0.00957237490274759 0.048186381052094843 0.021267374065518166 0.046253049136387184 -0.00030340483221437333 0.017267593591501651 0.055419892943214533 0.050841909864457649 0.037591110286711228 0.021980081406770172 0.050205026434482131 -0.034794923318400811 -0.034542431467995863 -0.034680209282334513 -0.034702457294407706
leaf_count=35 36 59 30 44 46 57 33 49 32 30 34 48 54 30 31 30 30 52 30 44 55 34 36 37
internal_value=0 0.64263389805022852 0.72424703108948107 0.32358472859501192 0.75705310800086756 0.6311037182410395 0.85926034613464553 0.75000131453132379 0.19072054549898257 0.029371687751972627 0.69868868936568207 0.65002481905728149 0.74656387509856903 0.28872354782482906 0.54596176134602692 0.95701936778650887 0.88574664834063044 0.83975230867742179 0.34526335908557731 1.0515016399381296 -0.69400761288546986 -0.6932887918040388 -0.69214617697012681 -0.69484939322654149
internal_count=996 799 627 172 538 239 299 140 128 66 193 159 111 89 61 159 79 85 62 74 197 142 70 72
cat_boundaries=0 1 2
cat_threshold=2 1
shrinkage=0.05


Tree=16
num_leaves=26
num_cat=6
split_feature=7 8 2 4 11 6 4 11 4 11 11 12 4 2 2 11 4 2 3 8 2 11 2 11 12
split_gain=61.739044406234719 75.87740589951045 0.00032110684445285642 0.00033506493730328657 0.00016458482546966025 0.00012530225077966861 7.249065278003286e-05 5.3530478375307666e-05 5.0731656362046351e-05 4.4430870580924875e-05 2.7695671850125336e-05 2.322811130284208e-05 1.9476002464102748e-05 1.5497723943269648e-05 1.3868799072724869e-05 1.1652537895479043e-05 7.6305444096647079e-06 6.1701962827953594e-06 8.3121872407332376e-06 5.0182170170387508e-06 9.2181164053073417e-06 4.8646570736110561e-06 3.3435522475144808e-06 2.2018951382207774e-06 1.5101227113234472e-06
threshold=9.9999996826552254e-21 9.9999996826552254e-21 0 -9.9999996826552254e-21 0.81365740740740744 7.5 0.26136363636363635 1.0289915966386554 -9.9999996826552254e-21 1.1076254826254828 1.0615530303030303 0.57793522267206476 9.9999996826552254e-21 1 2 1.1835016835016834 0.28636363636363638 3 1.5 6.5 4 0.87228260869565211 5 0.87228260869565211 0.70000000000000007
decision_type=2 2 1 2 8 2 2 10 2 8 10 10 2 1 1 8 2 1 10 2 1 10 1 10 10
left_child=1 8 3 -3 -4 6 -6 -5 10 11 -1 -2 17 -10 24 -15 19 18 -11 20 21 -13 -18 -21 -14
right_child=9 2 4 7 5 -7 -8 -9 13 12 -12 16 14 15 -16 -17 22 -19 -20 23 -22 -23 -24 -25 -26
leaf_value=-0.034735167121358684 -0.034616900159010561 0.055808203060245892 0.056006712386793868 0.056072595055902563 0.056335703604781198 0.056438746369952088 0.056118130803142867 0.056258046753772099 -0.034820975544556897 -0.034434708618382791 -0.034595522909757863 -0.03449601980315934 -0.034389067315184013 -0.034765402963613114 -0.034438310360053445 -0.03467617824336218 -0.034437213676476029 -0.034426510272655218 -0.034524467636632812 -0.034489067790541485 -0.034465246564788825 -0.034560189676125813 -0.034475749444581615 -0.03444622504574317 -0.0343615528229246
leaf_count=30 37 41 39 41 33 39 31 36 34 30 50 31 30 53 50 30 53 38 30 42 41 39 41 32 45
internal_value=0 0.40906529402776698 1.1228040316005712 1.1202734372316285 1.1249725559491199 1.1260520678085884 1.124265855783799 1.1232929890879424 -0.69401003557797947 -0.68909893659908428 -0.69273343964860112 -0.6897002665184423 -0.68842233162303035 -0.69505964753028948 -0.68798287250338819 -0.6945111547740983 -0.68954795975762018 -0.6892847945444982 -0.68975622110690193 -0.68986189582956658 -0.69016806321227619 -0.69070087991619178 -0.68910329721161523 -0.68935034562820352 -0.6874627625890769
internal_count=996 457 260 118 142 103 64 77 197 539 80 316 223 117 125 83 279 98 60 185 111 70 94 74 75
cat_boundaries=0 1 2 3 4 5 6
cat_threshold=2 2 2 2 2 2
shrinkage=0.05


Tree=17
num_leaves=25
num_cat=2
split_feature=8 2 11 4 3 2 4 11 10 11 3 4 11 10 10 11 6 4 8 10 1 11 3 8
split_gain=119.1611911038592 0.0017796307141964007 0.001668822217595789 0.0010410276462522461 0.00034610373449339704 0.00018234167130515289 0.00017269320333923588 0.00023586527145891267 0.00014563568183945108 0.00010033251178853675 7.620680180053796e-05 7.075558897895462e-05 5.4123459982236e-05 4.2663109365292939e-05 2.5402557156439798e-05 2.3151903748797054e-05 1.8150920196191578e-05 1.5837151508435454e-05 1.5226053841743692e-05 1.0477776644535197e-05 9.2052186184687912e-06 6.3038458524289354e-06 1.3950268519025144e-05 2.6486568556194356e-06
threshold=9.9999996826552254e-21 0 1.1148351648351649 -9.9999996826552254e-21 8.5 1 -9.9999996826552254e-21 0.98648648648648651 2.2817460317460316 1.2928921568627452 8.5 -0.23636363636363636 1.3288288288288288 1.9677083333333334 1.9177927927927927 1.0655913978494622 4.5 0.63333333333333341 3.5 1.8903903903903903 28.5 1.0333704115684093 4 4.5
decision_type=2 1 8 2 10 1 2 10 10 8 8 2 10 10 8 10 2 2 2 10 2 8 10 2
left_child=1 2 4 -4 -1 11 7 -7 9 10 19 -2 14 18 15 16 -13 21 -12 -8 -18 22 -16 -10
right_child=5 -3 3 -5 -6 6 8 -9 23 -11 13 12 -14 -15 17 -17 20 -19 -20 -21 -22 -23 -24 -25
leaf_value=0.057209702760871055 -0.034612358836774153 0.057206389722170327 0.055868443463767563 0.056600507355869571 0.056710211098990541 -0.034532077722784833 -0.034433597207692804 -0.034956610568249974 -0.034409929423996365 -0.034780796341514611 -0.034773062257213994 -0.034572163705162105 -0.034573228917993519 -0.034565667109481973 -0.03438349969699666 -0.034576947963941729 -0.03441429885197702 -0.03448708541169123 -0.034654392638112548 -0.034523275997427404 -0.034498901826813949 -0.034393214836835335 -0.034490353491393254 -0.034452876446740208
leaf_count=35 59 55 34 36 37 35 32 36 32 30 38 30 53 48 33 49 55 43 43 30 30 58 33 32
internal_value=0 1.1340340324136355 1.1302294031451621 1.1242304959376224 1.1384952035777265 -0.69090847490772156 -0.692105465206316 -0.69535762386160815 -0.69134997921417185 -0.69227916539706569 -0.69157372771983816 -0.68993816937471253 -0.68958476151363801 -0.69271544732964485 -0.68920188276868066 -0.68999574110120032 -0.6893834101314128 -0.6886896866705996 -0.6941007009163781 -0.68967672067247987 -0.68888104723921062 -0.68829325117299489 -0.68882608956617108 -0.6886020507206646
internal_count=996 197 142 70 72 799 356 71 285 221 191 443 384 129 331 164 115 167 81 62 85 124 66 64
cat_boundaries=0 1 2
cat_threshold=1 2
shrinkage=0.05


Tree=18
num_leaves=26
num_cat=3
split_feature=7 4 2 9 9 10 4 10 9 9 4 3 3 9 9 11 2 9 11 2 3 10 10 9 3
split_gain=163.29782116955982 0.011238758540542904 0.005990206649130414 0.0034136776427295956 0.0027885465565091749 0.0027237502852557327 0.00091177183309554266 0.00068199076054042962 0.000463383618971136 0.00043852279672762506 0.00042956609431854531 0.00029932928677212089 0.0002636227521080059 0.00022486193862469861 0.00021033814656234995 0.00018072557009674028 0.00013945263427039833 0.00016903531435019659 0.00012460766886590591 0.00018380589904509748 0.00011906966286012732 0.00010244985346474778 6.5674134603455059e-05 6.1614504776486001e-05 3.3914917570321279e-05
threshold=9.9999996826552254e-21 -9.9999996826552254e-21 0 2.2817460317460316 1.8615900383141764 1.7071078431372548 -9.9999996826552254e-21 1.957427536231884 2.4924242424242422 1.8903903903903903 0.28636363636363638 5.5 8.5 2.1801948051948052 1.9344086021505378 1.1043557168784028 1 2.118823529411765 1.0135135135135136 2 8.5 2.2752525252525251 1.9878048780487805 1.8027777777777778 8.5
decision_type=2 2 1 10 10 8 2 8 10 10 2 10 8 10 10 8 1 10 8 1 8 8 10 10 10
left_child=6 3 5 14 -4 -3 13 11 12 20 15 -7 -6 18 -2 -9 -11 -18 -1 -20 -8 -12 -14 24 -22
right_child=1 2 4 -5 8 7 9 10 -10 16 21 -13 22 -15 -16 -17 17 -19 19 -21 23 -23 -24 -25 -26
leaf_value=-0.034433908816649088 0.055547665032841989 0.054041440909798233 0.054836534706164342 0.053992435079349865 0.053731882677637156 0.053671916280543575 -0.03468617301049786 0.053400751826380266 0.053510055776283587 -0.034945672229169195 0.053006436742522978 0.053243086698400721 0.054163828844505484 -0.034587495423647079 0.055146953679877334 0.053070060654575403 -0.034557538121804975 -0.034858136696224284 -0.03439974813188449 -0.034066618222665067 -0.034457458488414444 0.052797650013387959 0.053969173905171475 -0.034558911836298833 -0.034264406333933711
leaf_count=44 30 58 43 33 34 31 47 33 33 51 33 39 30 38 30 33 39 53 30 47 46 38 41 30 32
internal_value=0 1.0754616176724978 1.0715923374839587 1.0967531492726608 1.0801217432759151 1.0655087533834311 -0.69101065461441957 1.0628702146050242 1.0766283156071967 -0.69363038962148982 1.0606143913445365 1.0681296869667523 1.0784439991588368 -0.68691125351363758 1.106378902727299 1.0645166315172554 -0.69610753230283096 -0.69445260480914128 -0.68550734445309358 -0.68397570132536034 -0.69021275379730063 1.057877934220697 1.0806809339395691 -0.68865460936978329 -0.68703513591374898
internal_count=996 539 446 93 181 265 457 207 138 298 137 70 105 159 60 66 143 92 121 77 155 71 71 108 78
cat_boundaries=0 1 2 3
cat_threshold=2 2 2
shrinkage=0.05


Tree=19
num_leaves=25
num_cat=0
split_feature=7 8 4 8 10 4 11 10 9 12 12 4 11 10 3 9 4 8 6 8 11 3 12 8
split_gain=59.451316802007078 70.932345506308181 0.00092146534933590374 0.00025733146637207938 0.00023362668635940054 0.00014813617736564311 9.6560827707037333e-05 9.5582217049638984e-05 7.8039473578428442e-05 7.2823017791989741e-05 4.7281147244504496e-05 4.4201244342900736e-05 2.419426006206038e-05 2.2548287926582589e-05 1.6422486426748151e-05 1.5685227523931644e-05 1.2802925052568526e-05 1.3385363985207732e-05 1.1426578183204583e-05 1.466877882450035e-05 4.1233210890112559e-06 3.1999320153630606e-06 1.9037817171607685e-06 1.0779283767803349e-06
threshold=9.9999996826552254e-21 9.9999996826552254e-21 -9.9999996826552254e-21 4.5 1.6530100334448159 -9.9999996826552254e-21 1.1570723684210527 2.203448275862069 1.9154761904761906 0.56594202898550727 1.1538461538461537 -9.9999996826552254e-21 1.0615530303030303 1.7071078431372548 8.5 1.9069264069264069 0.45454545454545447 5.5 7.5 4.5 1.0274024024024024 8.5 1.179144385026738 2.5
decision_type=2 2 2 2 8 2 8 10 8 10 8 2 10 10 10 10 2 2 2 2 10 10 10 2
left_child=1 11 3 -3 -4 10 9 8 -6 -7 -2 12 -1 -11 18 21 17 23 19 -8 -18 -13 -19 -15
right_child=5 2 4 -5 7 6 14 -9 -10 13 -12 15 -14 16 -16 -17 20 22 -20 -21 -22 -23 -24 -25
leaf_value=-0.034196714685946018 -0.034250775417989501 0.053830772073542477 0.054169930305856942 0.054188140514992281 0.054415479812630077 -0.034289729946568155 -0.033958714107018603 0.054330615309800503 0.054609008346698268 -0.034125309315548871 -0.03407748186158964 -0.034203088209824983 -0.034064503917083808 -0.034100055543090473 -0.033906681680978872 -0.034261892674841317 -0.034024833691485033 -0.033999744747446999 -0.033924369704183006 -0.034056653833827444 -0.033977219702573197 -0.034149132793294852 -0.034038916641760925 -0.034073038006754729
leaf_count=30 59 41 57 38 38 33 36 34 52 50 34 44 50 39 44 40 42 31 30 36 34 33 32 39
internal_value=0 0.4037220316475455 1.0852016410341667 1.0797740566971679 1.0880862085271994 -0.68093589166121526 -0.68043136572086171 1.0893830498608053 1.0905290084778372 -0.68122701402787733 -0.68367993037498798 -0.68327664527571341 -0.68206943698454414 -0.6809460893428958 -0.6790886201811378 -0.68426893092982144 -0.68067576107096051 -0.68110779680326716 -0.67959997468548883 -0.6800688991420738 -0.68002545257513647 -0.68346959977676236 -0.68034694066258783 -0.68175034173901106
internal_count=996 457 260 79 181 539 446 124 90 300 93 197 80 267 146 117 217 141 102 72 76 77 63 78
shrinkage=0.05


Tree=20
num_leaves=25
num_cat=2
split_feature=8 7 2 11 3 2 12 9 9 9 9 3 11 12 3 3 3 12 3 3 3 12 11 11
split_gain=110.88862953571766 0.0042460204310827976 0.001388561211342676 0.0013179355153312144 0.00097693122338426974 0.00041747174930151232 0.00029865077205215584 0.00019713393102804844 0.00016824454897701457 0.00013673171121908467 9.6407620137739514e-05 8.8980858819809328e-05 7.8596811813547163e-05 7.4741353872198601e-05 6.3913207325683175e-05 5.1459285340449412e-05 4.6692049740393315e-05 3.2608621902241453e-05 3.2445499162037095e-05 1.9609603770120998e-05 1.1087982560553655e-05 8.6937244283546988e-06 6.4337675960146612e-06 6.2760109775794604e-06
threshold=9.9999996826552254e-21 9.9999996826552254e-21 0 1.0135135135135136 8.5 1 0.67928571428571438 2.1297335203366057 2.0135135135135136 1.893796992481203 2.5962962962962965 9.5 1.0678160919540229 0.62284482758620685 9.5 8.5 8.5 0.61834733893557425 8.5 9.5 7 1.1538461538461537 1.0135135135135136 1.042572463768116
decision_type=2 2 1 8 10 1 10 8 10 8 10 10 10 8 10 10 10 10 10 8 8 8 8 10
left_child=2 8 3 -1 -5 7 -7 11 13 -6 14 17 -13 15 20 -2 -15 -3 -10 -9 -8 -21 -23 -19
right_child=1 5 -4 4 9 6 10 19 18 -11 -12 12 -14 16 -16 -17 -18 23 -20 21 -22 22 -24 -25
leaf_value=0.054258197984065386 -0.033720795299552769 -0.034257907180852011 0.054376573551370412 0.054113577830406462 0.053235952332481143 -0.0345843388544168 -0.034205903295120334 -0.033994147035588382 -0.033454728189001283 0.053511488545788903 -0.034092483620738731 -0.034467610453643015 -0.034226388344086464 -0.03353488865260925 -0.034407662021016493 -0.033942525807217572 -0.033718244132227231 -0.034141447259717822 -0.033585586447055032 -0.034133757227331182 -0.034285243787891877 -0.034091028446826786 -0.034024012807340402 -0.034073004440494929
leaf_count=48 42 31 55 32 31 56 31 51 49 31 30 33 43 40 45 31 44 35 54 30 52 41 31 30
internal_value=0 -0.68096395240583363 1.0786589542942218 1.0753111335833097 1.0713700676134708 -0.6843721689925788 -0.68673621817354535 -0.68273578910394461 -0.67282784670255691 1.0676736201660721 -0.68536960564282845 -0.68443439486422242 -0.68627569609921979 -0.67450041646690284 -0.6861613434018089 -0.67655872963852826 -0.67309338570045241 -0.68296934163110645 -0.67060269458444244 -0.68091595245956404 -0.68502518380997734 -0.68153252620460958 -0.68113789109879674 -0.68215832045353808
internal_count=996 799 197 142 94 539 214 325 260 62 158 172 76 157 128 73 84 96 103 153 83 102 72 65
cat_boundaries=0 1 2
cat_threshold=1 2
shrinkage=0.05


Tree=21
num_leaves=25
num_cat=2
split_feature=8 4 12 10 2 12 12 12 6 10 10 1 1 1 4 8 3 12 12 3 2 11 4 3
split_gain=48.019410311642218 3.9303633014634443 1.7275828142511314 1.7134288120261516 1.4310469557003529 1.3584165057216744 0.70543249675513131 1.4145793436207246 0.49222680950700604 0.46506209068927262 0.38538780474657131 0.48895571544833416 0.3938112048171476 0.53872847096576848 0.61147181426548514 0.37516959623317092 0.33013407496986247 0.7040570884426387 0.18522403911989649 0.032805007546947706 3.7464945538800976e-05 3.5830885455112593e-05 2.2290678893810423e-05 7.3457237688145938e-06
threshold=9.9999996826552254e-21 -9.9999996826552254e-21 1.1206060606060606 1.4248120300751879 0 0.71428571428571441 0.86363636363636365 0.6545092838196287 7.5 1.6273148148148149 1.7379862700228834 27.5 18.5 8.5 0.28636363636363638 11.5 10.5 0.99999999999999978 1.0833333333333335 7 1 1.1148351648351649 -9.9999996826552254e-21 8.5
decision_type=2 2 10 8 1 8 10 10 2 8 10 2 2 2 2 2 8 10 8 10 1 8 2 10
left_child=20 2 6 8 9 -6 7 -2 -3 -5 -11 12 13 -12 -15 16 17 -7 -18 -14 21 23 -23 -1
right_child=1 3 -4 4 5 15 -8 -9 -10 10 11 -13 19 14 -16 -17 18 -19 -20 -21 -22 22 -24 -25
leaf_value=-0.033740205225285452 -0.0050954733649839247 0.022291805673681026 0.029842789101458829 0.024028659765411253 0.013667191436083779 0.041028512985735358 -0.004891772407895071 0.025137814621069905 -0.00023556231109957116 0.050033576441004847 0.045341700930300197 0.030753622005730921 0.049327540886730206 0.019160815041522505 0.039131920193745985 0.021797288067122916 0.034105931639080038 0.024346350068680196 0.044908815224955594 0.045079763484071014 -0.033739017415334693 -0.033517014048323135 -0.033639051369181258 -0.033657703605190929
leaf_count=35 42 59 59 30 47 31 30 41 30 31 53 55 33 30 33 36 34 59 32 34 55 34 36 37
internal_value=0 0.59113867443549084 0.30050121376130789 0.66472776704842507 0.69422209800604073 0.58030283659859616 0.14349467221674356 0.26393365189366647 0.26855932989944031 0.7862659683982145 0.80641973584802229 0.77840468923076711 0.82677352573304297 0.75548045199975122 0.6349999893533631 0.65286084119708709 0.6879216168922806 0.61924136103606908 0.80111245122187646 0.94245396474854659 -0.67312422636642988 -0.67249433568426242 -0.67148994358224101 -0.67386544775463419
internal_count=996 799 172 627 538 239 113 83 89 299 269 238 183 116 63 192 156 90 66 67 197 142 70 72
cat_boundaries=0 1 2
cat_threshold=2 1
shrinkage=0.05


Tree=22
num_leaves=24
num_cat=3
split_feature=7 11 9 2 6 3 11 9 10 9 3 4 11 10 2 9 2 4 11 9 10 9 10
split_gain=55.951796629114448 2.9645445969454247 1.4015290524448587 1.2421088321308567 1.2061010468957294 1.0770512063988127 0.89785448769592779 0.72827725964465806 0.68080575919847797 0.63505830438816568 0.6158401811535037 0.0001297241339486277 8.1932381661431464e-05 6.2166530540253007e-05 4.1380295794368749e-05 3.7293192922227547e-05 2.5595651937493358e-05 3.2006629243852558e-05 1.3256902733793652e-05 1.0972065538794595e-05 7.1393809175646084e-06 2.9223588668969569e-06 2.8825705218338271e-06
threshold=9.9999996826552254e-21 1.1449579831932772 1.6830143540669855 0 7.5 10.5 0.98648648648648651 1.9864864864864864 1.7119815668202765 1.9402852049910875 9.5 -9.9999996826552254e-21 1.1570723684210527 1.7071078431372548 1 2.1297335203366057 2 0.28636363636363638 0.92450142450142447 2.1550480769230766 2.0678160919540232 2.2709790209790208 2.0488095238095236
decision_type=2 8 8 1 2 8 10 10 10 10 10 2 8 10 1 8 1 2 10 10 8 10 10
left_child=1 3 -3 7 9 6 -5 10 -7 -4 -1 15 13 18 20 -2 17 21 -13 -18 -14 -15 -19
right_child=11 2 4 5 -6 8 -8 -9 -10 -11 -12 12 14 16 -16 -17 19 22 -20 -21 -22 -23 -24
leaf_value=0.040535349804649019 -0.033752628545550938 -0.013531939821894452 0.011353637646090063 0.037543907463152393 0.00025267731683101323 -0.0066814591772666986 0.016714850323810478 0.043851260469820214 0.017801986292309096 0.028667370321231147 0.015711707320058884 -0.033625396929664229 -0.033452255470346998 -0.03358877808515192 -0.033533102804400618 -0.03360060428728625 -0.033533754829221635 -0.033476753382363465 -0.033737876765905561 -0.033610493464982426 -0.033391634538999113 -0.033537229219788994 -0.033430715083202882
leaf_count=33 51 47 40 57 43 37 46 47 37 40 30 48 39 35 57 42 35 30 35 56 50 31 30
internal_value=0 0.3900164450944586 0.17863147501812232 0.53753020642258931 0.25846447742763473 0.41337796828307211 0.55240379620231905 0.71620017820458792 0.17888842042076888 0.40190741040573874 0.51894757269603475 -0.67100912930977197 -0.67053046549221551 -0.67127331149109259 -0.66927659869180078 -0.67361141649938994 -0.67074763980261609 -0.67007445684004407 -0.6734142335349701 -0.67160496954576421 -0.66836393275636985 -0.67132801531631248 -0.66904667911553428
internal_count=996 457 170 287 123 177 103 110 74 80 63 539 446 300 146 93 217 126 83 91 89 66 60
cat_boundaries=0 1 2 3
cat_threshold=2 2 2
shrinkage=0.05


Tree=23
num_leaves=24
num_cat=3
split_feature=8 4 11 2 11 12 4 2 10 10 2 1 4 1 10 10 8 4 1 11 11 11 12
split_gain=103.29556180429144 0.0011006862977112064 0.00060790641871832918 0.00034824763895713318 0.00025765775826513959 0.00021503275945633504 0.00018862406312081248 0.00010318439459311435 5.6766274980191156e-05 0.0001136146207869615 5.4872341983980277e-05 6.8431123803947003e-05 4.9594858131385422e-05 4.2604999258344378e-05 3.1638646939669002e-05 3.6016787944959106e-05 5.2980014963122102e-05 4.7902901058272107e-05 2.8865137632116955e-05 2.6265590197027677e-05 4.0889672160204782e-05 2.2594948275056481e-05 6.3035586848059211e-06
threshold=9.9999996826552254e-21 -9.9999996826552254e-21 1.0615530303030303 0 1.1835016835016834 0.90322580645161299 -0.23636363636363636 1 1.7817460317460316 1.6273148148148149 2 6.5 0.45454545454545447 15.5 1.9384469696969697 1.6273148148148149 2.5 0.28636363636363638 23.5 1.1526806526806528 1.0350985221674878 0.8355855855855856 1.3571428571428572
decision_type=2 2 10 1 8 10 2 1 8 10 1 2 2 2 8 10 2 2 2 10 10 10 8
left_child=1 2 -1 -3 -5 6 -2 14 9 -9 19 -12 13 -13 15 16 -8 -17 -10 20 21 22 -7
right_child=5 3 -4 4 -6 10 7 8 18 -11 11 12 -14 -15 -16 17 -18 -19 -20 -21 -22 -23 -24
leaf_value=0.051638621970677104 -0.033831132145733987 0.052000306148478795 0.05105124959030817 0.051761931513175555 0.051385044844945472 -0.033379647942108237 -0.033618107391355838 -0.033725562118993184 -0.033657481493633228 -0.03341994334780047 -0.033396370116657137 -0.03372565669648362 -0.033491728534891463 -0.033565037001636377 -0.033454080592560928 -0.033699987563051974 -0.033362065338563049 -0.033524367314489649 -0.033793102647029075 -0.033525397562725649 -0.033356663553175528 -0.033520617510578513 -0.033463777953293354
leaf_count=30 53 34 50 53 30 31 37 59 40 31 35 37 48 55 43 45 39 35 30 48 44 57 32
internal_value=0 1.0297934900421617 1.0244696044352042 1.0341962907804272 1.0318641488662925 -0.6710413292541284 -0.67229420419402353 -0.67168370287629786 -0.67310753934848988 -0.67148160198122175 -0.66988974346113139 -0.67081347887162535 -0.67148751103150117 -0.67253964169891389 -0.67052525320513523 -0.67116062232424112 -0.66946479863404595 -0.6720473477446266 -0.67435158707603771 -0.66912482478694923 -0.66867780398445797 -0.66950240348461509 -0.66831604986666449
internal_count=996 197 80 117 83 799 412 359 160 90 387 175 140 92 199 156 76 80 70 212 164 120 63
cat_boundaries=0 1 2 3
cat_threshold=2 2 2
shrinkage=0.05


Tree=24
num_leaves=25
num_cat=0
split_feature=8 4 9 12 10 9 11 10 12 12 11 9 8 1 11 4 12 4 12 10 4 11 9 1
split_gain=43.760311449214541 3.6347600604409749 1.6212310628856486 1.6000213035759616 0.91974946676625002 0.83045828874402616 0.8967893057608336 0.8124350930241846 0.64567674669281128 1.3120130504757821 0.54485849636805916 0.42451007750578196 0.41284328488919186 0.54539895387318893 0.32457184071722089 0.30930237461743459 0.29355400028280521 0.27883387017158234 0.26634336475024334 0.22129203440696799 2.5720024167341649e-05 7.6837760474290917e-06 5.0630608399160337e-06 2.0734869767835562e-06
threshold=9.9999996826552254e-21 -9.9999996826552254e-21 1.8768939393939394 1.1206060606060606 1.5857843137254901 2.5577777777777779 0.79655172413793107 2.1972222222222224 0.86363636363636365 0.6545092838196287 1.2466216216216215 1.8116554054054053 7.5 16.5 1.1234756097560976 0.55000000000000004 1.2857142857142858 9.9999996826552254e-21 0.90322580645161299 2.2296703296703297 -9.9999996826552254e-21 1.0615530303030303 1.9701426024955437 19.5
decision_type=2 2 8 10 10 8 10 10 10 10 10 10 2 2 10 2 10 2 10 10 2 10 10 2
left_child=20 3 4 8 17 6 16 12 9 -2 14 -6 13 -8 -9 18 -4 -3 -15 -7 21 -1 23 -22
right_child=1 2 5 -5 11 19 7 10 -10 -11 -12 -13 -14 15 -16 -17 -18 -19 -20 -21 22 -23 -24 -25
leaf_value=-0.033069041738778913 -0.0052521262035261094 0.016749986677421835 0.012664280285119589 0.028442537636592109 0.032350827469894726 0.035866305491308419 0.043866656053899576 0.025264017540280004 -0.0049275221605846603 0.02384811505439156 0.016388853514556635 0.018370059821635521 0.046082740578764721 0.033269200563373375 0.037976017495927432 0.038628036464744761 0.029373073287936671 -0.0014916172216203143 0.02146197822517135 0.04670709099907086 -0.033109837014290447 -0.032992142346510565 -0.033132621166783137 -0.033064694450055949
leaf_count=30 42 45 38 59 59 35 54 37 30 41 33 33 40 38 33 30 30 37 33 52 33 50 35 49
internal_value=0 0.56356076827378032 0.63424110426243818 0.28422045050035155 0.43137185742672191 0.6886343818611117 0.64800773688728175 0.68371821328780535 0.1330049962566581 0.24786356330112799 0.54591578865214652 0.53599238719684816 0.75470659174830468 0.70959237946484999 0.63437244514400848 0.63424509001740925 0.38134019443041345 0.1483627201897682 0.55914700290305186 0.86506896062122607 -0.66124566207176383 -0.66029558423507373 -0.66202665084272794 -0.66160136211364995
internal_count=996 799 627 172 174 453 366 298 113 83 103 92 195 155 70 101 68 82 71 87 197 80 117 82
shrinkage=0.05


Tree=25
num_leaves=24
num_cat=0
split_feature=7 8 11 4 10 6 4 11 10 11 12 12 11 9 11 10 6 8 4 8 9 12 10
split_gain=53.863629273642289 63.637857166158952 0.0020140010424398724 0.0013177553172027956 0.00068954651889541196 0.00039242140151785065 0.00030200212675168814 0.00015232502886064481 0.0001458430347867079 0.00014018001401794322 0.00010318247300222794 6.3546618074283856e-05 4.7196935987869892e-05 3.9316974047132192e-05 2.1625602627750595e-05 2.1332804454043952e-05 1.5532374957771822e-05 2.0291668986871514e-05 1.1015885185372554e-05 1.0370802170811544e-05 7.3772537625416135e-06 5.300722079937259e-06 2.2096789686898433e-06
threshold=9.9999996826552254e-21 9.9999996826552254e-21 1.1449579831932772 -9.9999996826552254e-21 1.5577777777777779 6.5 -9.9999996826552254e-21 1.2198067632850242 1.6348484848484848 0.98648648648648651 1.0501253132832078 1.0408333333333335 1.1570723684210527 1.7101018675721562 1.0350985221674878 1.4248120300751879 7.5 5.5 0.39393939393939392 5.5 2.127016129032258 1.179144385026738 1.9384469696969697
decision_type=2 2 8 2 10 2 2 8 8 10 8 10 8 10 10 10 2 2 2 2 10 10 10
left_child=1 7 3 -3 -5 -4 10 11 15 -6 -2 14 18 -9 -1 -8 17 -14 19 22 -20 -21 -10
right_child=6 2 5 4 9 -7 8 13 12 -11 -12 -13 16 -15 -16 -17 -18 -19 20 21 -22 -23 -24
leaf_value=-0.033637548172286952 -0.033497661544867038 0.050388164916291792 0.051132044503765885 0.050504997120345188 0.051003105730899612 0.051585101670164474 -0.033424110309782894 -0.033316084439216138 -0.033229313320023234 0.051272209172130413 -0.033241688589426728 -0.033759721273411862 -0.03306556997574539 -0.033488988670448465 -0.033513331898130119 -0.033262427559896869 -0.033025119789184945 -0.033171317095926939 -0.03316580964254244 -0.0331128928581804 -0.033103793911602584 -0.033180513001540533 -0.033189438574078085
leaf_count=53 52 57 34 47 47 43 43 32 39 32 41 31 55 34 47 35 44 33 30 33 55 31 48
internal_value=0 0.38345053069938922 1.0194279292992929 1.0153468280516285 1.0197194909181995 1.027765207687438 -0.66364201352867203 -0.67107468615651111 -0.66290148663094639 1.0225633822692413 -0.66764540717758958 -0.67278018530848049 -0.66247939106709142 -0.66857274535134459 -0.6715402182765805 -0.66692071930257013 -0.66151226060773638 -0.66201477451416457 -0.66310667867737139 -0.66352645549230749 -0.66255057461872502 -0.66282850234839941 -0.66407901866378061
internal_count=996 457 260 183 126 77 539 197 446 79 93 131 368 66 100 78 132 88 236 151 85 64 87
shrinkage=0.05


Tree=26
num_leaves=24
num_cat=0
split_feature=7 11 9 4 9 1 11 1 12 3 12 11 4 10 12 12 10 10 1 1 9 3 9
split_gain=36.877390130642723 2.7934943863888919 1.4119159899816929 1.3121902753069534 0.94407376358671069 0.83176774213982663 1.0740863951735813 0.79814015751625211 0.57423947125941055 0.48474493862435031 0.40628392771445743 0.088994261487527093 0.00087381978072187394 0.00032847866494734035 0.00028387233389981503 8.4038298695077174e-05 5.2722321527198801e-05 4.9382796885932834e-05 1.5326419486427767e-05 9.5248497409272659e-06 2.1261283411178056e-05 1.0916226139912055e-05 4.3977459629473969e-06
threshold=9.9999996826552254e-21 1.1449579831932772 2.2679487179487179 0.47727272727272729 1.6830143540669855 31.5 0.81365740740740744 22.5 0.56594202898550727 8.5 0.83333333333333326 0.78174603174603174 -9.9999996826552254e-21 1.6273148148148149 1.0501253132832078 0.66666666666666674 2.2752525252525251 1.4248120300751879 8.5 19.5 2.1096096096096097 8.5 2.2466216216216219
decision_type=2 8 10 2 8 2 10 2 10 10 8 8 2 8 8 8 8 10 2 2 10 8 10
left_child=1 2 3 5 -3 6 -1 9 -8 -6 -10 -4 14 17 -2 -15 19 -14 -18 22 21 -21 -17
right_child=12 4 11 -5 7 -7 8 -9 10 -11 -12 -13 13 15 -16 16 18 -19 -20 20 -22 -23 -24
leaf_value=-0.0058397172699826208 -0.03385946929703721 0.037132829996598594 -0.021263109671147893 -0.011826084418102121 -4.5752820672882656e-05 -0.0023807668401349602 0.00099801992486956087 0.027629368303493398 0.03167807223050479 0.016204867371427279 0.015836890625190524 -0.011075141835825798 -0.033689145640429574 -0.033361198509156656 -0.033438147581750177 -0.033259431390183856 -0.03311268834570899 -0.0334422327411764 -0.033192777413338724 -0.033222166812912707 -0.03317340176402369 -0.03329864745259082 -0.033316289468692757
leaf_count=36 52 47 30 45 32 44 34 37 38 54 30 30 43 51 41 35 53 34 59 33 52 50 36
internal_value=0 0.21075696680345055 0.052923818808248368 0.13615480825781254 0.40803687326435806 0.22407519771347942 0.31855551674246518 0.33728204574852844 0.42117358959592577 0.22465802368603344 0.49473649393982133 -0.28743801323649532 -0.66665826125121863 -0.66539872688280743 -0.67340842866063622 -0.6647721600849662 -0.66433546830382051 -0.67145135911847975 -0.66316295142990078 -0.6650103782755018 -0.66468040321189115 -0.66529561550211047 -0.66569302432550725
internal_count=996 457 287 227 170 182 138 123 102 86 68 60 539 446 93 369 318 77 112 206 135 83 71
shrinkage=0.05


Tree=27
num_leaves=24
num_cat=2
split_feature=7 8 3 12 2 3 12 1 9 2 12 3 3 9 12 12 12 12 3 12 9 3 9
split_gain=135.72114912010625 0.016849809261415771 0.0059824112395148177 0.0049053381784247563 0.004440516135517214 0.0030009860428208412 0.0022254891925577169 0.0019173287455949151 0.0018289631375267845 0.0010051473117584919 0.00095000465938355205 0.0009461037057434396 0.00044595516549605918 0.00040245862634691321 0.00032468952662689787 0.00028750890129103368 0.00015890705217813661 0.00014416706106956667 5.7219493431404089e-05 2.3833296291186912e-05 1.3141603586674933e-05 1.1592296272233682e-05 8.5133150076188713e-06
threshold=9.9999996826552254e-21 9.9999996826552254e-21 9.5 1.0666666666666669 0 10.5 0.67928571428571438 19.5 2.063508064516129 1 1.1206060606060606 9.5 9.9999996826552254e-21 1.8768939393939394 0.63157894736842113 1.333333333333333 0.96904761904761894 0.61043360433604343 9.5 0.87228260869565211 1.7171428571428571 7 1.7101018675721562
decision_type=2 2 10 8 1 10 10 2 8 1 8 10 10 10 10 10 10 10 10 10 10 10 10
left_child=1 18 4 5 8 7 -6 -4 13 -5 11 14 -10 -2 -3 16 -8 -13 20 22 -1 -12 -20
right_child=2 10 3 9 6 -7 15 -9 12 -11 21 17 -14 -15 -16 -17 -18 -19 19 -21 -22 -23 -24
leaf_value=-0.032787351675136911 0.048104595675410061 -0.034145600628906612 0.049824205909024324 0.047715761658871758 0.049131141191400191 0.048308005531425148 0.048048589289415612 0.048835366342967014 0.047508570049265675 0.048378296859762603 -0.03469408297753495 -0.033660710246733304 0.047072093420087939 0.047668619783708427 -0.034615734869801261 0.047829983874347594 0.048333529134531879 -0.033972650276359546 -0.032665423201556548 -0.032828060508667198 -0.032917611590442264 -0.03459548955371726 -0.032743021366700625
leaf_count=30 40 47 41 55 32 43 38 44 45 33 30 31 57 47 55 30 34 58 34 31 51 39 51
internal_value=0 -0.6728347770686014 0.96229021771378453 0.97019129986234409 0.95675667180827195 0.97827432072755716 0.96548240047670364 0.98596927964423742 0.95043277683054939 0.95942339488919415 -0.68518298673678579 -0.68248167771936152 0.94464969291103529 0.95721110035844859 -0.68840137117928057 0.96164269567930627 0.96370637039667306 -0.67782738105485929 -0.65592629746913378 -0.65501758269688715 -0.65777493245745666 -0.69272323511853628 -0.65434147317925762
internal_count=996 457 539 216 323 128 134 85 189 88 260 191 102 87 102 102 72 89 197 116 81 69 85
cat_boundaries=0 1 2
cat_threshold=2 2
shrinkage=0.05


Tree=28
num_leaves=26
num_cat=2
split_feature=7 11 9 2 6 4 9 9 12 10 9 9 4 10 12 2 11 10 4 9 9 12 9 9 9
split_gain=52.036625521685551 2.5595330502572669 1.2840145455605965 1.2110889497437718 1.1484959170399649 0.89886038016284697 1.2912342819714255 0.96458267500797745 0.88716463090769793 0.89255670230079343 0.79744517889879507 0.55765460871591088 0.00052087847404891363 0.00025334544261568226 0.00018497158911046085 0.0001461582816233431 6.0960739862281343e-05 2.9892306102397015e-05 2.8856921368003441e-05 1.6305135464023124e-05 3.4186189158624813e-05 1.5809303254954443e-05 9.914676567746028e-06 7.8537441119408413e-06 5.0754363991600826e-06
threshold=9.9999996826552254e-21 1.1526806526806528 1.6830143540669855 0 7.5 0.47727272727272729 2.2594670406732118 2.0501253132832078 0.84495192307692302 1.3699248120300753 1.7958333333333334 1.9402852049910875 -9.9999996826552254e-21 1.6348484848484848 1.0501253132832078 1 1.1043557168784028 1.4248120300751879 0.28636363636363638 2.1695402298850572 2.5485893416927903 0.71428571428571441 2.2709790209790208 1.957427536231884 2.2679487179487179
decision_type=2 8 8 1 2 2 8 10 10 8 10 10 2 8 8 1 8 10 2 8 8 8 10 10 8
left_child=1 3 -3 8 11 6 7 10 9 -1 -5 -4 14 17 -2 16 18 -14 22 23 -21 -18 -15 -17 -23
right_child=12 2 4 5 -6 -7 -8 -9 -10 -11 -12 -13 13 15 -16 19 21 -19 -20 20 -22 24 -24 -25 -26
leaf_value=0.041880271248178981 -0.033253715125870324 -0.013017041651539184 0.01142637553850343 -0.0017152908730694882 -0.00015633069404201534 0.035766574187948368 0.036355793532990448 -0.0064788204318295007 0.042989640975781868 0.011391475568864919 0.024485649069366955 0.027706641514845781 -0.033144295431163408 -0.032860215347623629 -0.032907842193578979 -0.032840607851214655 -0.032696767020261627 -0.032951140816467626 -0.032700932828541314 -0.032931736292098633 -0.032781830309978228 -0.032636476861283556 -0.032761838717108409 -0.032768797356363448 -0.032577753143643133
leaf_count=35 52 46 40 36 41 35 30 30 47 30 47 40 43 36 41 31 38 35 49 46 30 37 30 39 32
internal_value=0 0.37985907872338526 0.17880111925646475 0.51487207211270969 0.2559903159710688 0.39190167167840195 0.30793383208572261 0.1907030546350586 0.68946283231952443 0.46603639322717977 0.33737468107772967 0.3935681823468421 -0.65666501733488558 -0.65567853768776574 -0.66196685813765488 -0.65511399468462239 -0.65395011344867704 -0.66102298071092802 -0.65519175283870901 -0.65676752308175423 -0.65747306405446349 -0.65284859955134811 -0.65636573715807012 -0.65603090835661559 -0.6522326754639477
internal_count=996 457 167 290 121 178 143 113 112 65 83 80 539 446 93 368 222 78 115 146 76 107 66 70 69
cat_boundaries=0 1 2
cat_threshold=2 2
shrinkage=0.05


Tree=29
num_leaves=26
num_cat=0
split_feature=7 11 9 4 9 1 11 1 12 3 12 11 4 10 12 9 12 10 10 4 9 9 11 11 3
split_gain=35.489848715699111 2.5378516109635081 1.3006026165155864 1.2003344735573958 0.84997830061444279 0.76030784337690083 0.97961770400185699 0.7235609647881196 0.52256030242482243 0.43727498351383476 0.36672765442491961 0.085280039175642308 0.0011846260011338927 0.00046959289240078306 0.00040099595024045698 0.00011238709841165928 6.1165700270038315e-05 6.0837805932578704e-05 2.2267853280411032e-05 2.1541791799251087e-05 1.9954090772600352e-05 1.8217017156985094e-05 1.6403521504670948e-05 1.2779813725494193e-05 2.9844981916937741e-06
threshold=9.9999996826552254e-21 1.1449579831932772 2.2679487179487179 0.47727272727272729 1.6830143540669855 31.5 0.81365740740740744 22.5 0.56594202898550727 8.5 0.83333333333333326 0.78174603174603174 -9.9999996826552254e-21 1.6273148148148149 1.1206060606060606 2.5485893416927903 0.66666666666666674 1.3920807453416149 2.4880952380952381 0.39393939393939392 2.0363756613756614 2.2240143369175627 1.0377492877492878 0.85504201680672265 10.5
decision_type=2 8 10 2 8 2 10 2 10 10 8 8 2 8 10 8 8 10 10 2 10 10 10 8 8
left_child=1 2 3 5 -3 6 -1 9 -8 -6 -10 -4 14 17 -2 16 -15 -14 -17 22 -21 -22 23 -18 -24
right_child=12 4 11 -5 7 -7 8 -9 10 -11 -12 -13 13 15 -16 18 19 -19 -20 20 21 -23 24 -25 -26
leaf_value=-0.0054405042328458334 -0.033597736717146102 0.035696666239129531 -0.020588013866995502 -0.011226605893449603 0.00025036609221529472 -0.0020763765550421247 0.0011675953793852452 0.026697038433505113 0.030517905861655842 0.015769398762388 0.015437860405710983 -0.010482358704611745 -0.033414630618693396 -0.03300000606744944 -0.033092403042884667 -0.032807785599191945 -0.032872410265543252 -0.033137775420656289 -0.032684250459467032 -0.032893700835662454 -0.032746693236414701 -0.03285895300088211 -0.032837876685505911 -0.032972620500887451 -0.032884833871161694
leaf_count=36 52 47 30 45 32 44 34 37 38 54 30 30 37 49 41 35 33 40 39 35 31 30 30 51 36
internal_value=0 0.20803405240512898 0.056258838101778744 0.13616255986876219 0.39624136975288216 0.22016218759951059 0.31057697400175743 0.32878413969396686 0.40838245021901892 0.22097906032404044 0.47846340781414964 -0.27469608673093171 -0.65951058040753285 -0.65802307707992092 -0.66743568978839962 -0.6572628796552864 -0.6578546447696354 -0.66532407115187475 -0.65478448070284823 -0.65739377453624015 -0.65668753824254955 -0.65596786882525904 -0.65799278540569262 -0.65875215458899972 -0.65720876067753664
internal_count=996 457 287 227 170 182 138 123 102 86 68 60 539 446 93 369 295 77 74 246 96 61 150 84 66
shrinkage=0.05


Tree=30
num_leaves=25
num_cat=3
split_feature=8 10 3 9 9 1 2 12 9 12 12 2 3 10 10 3 11 2 1 12 11 3 10 11
split_gain=38.700496118444839 2.0311864734961134 1.3721747763393806 1.4682865003705432 0.88739576252972086 0.75589546382646233 0.57634656440913756 0.48337041053061802 0.45563731566643639 0.72497890354283356 0.50906097719971655 0.63796352651393207 0.49155533490736758 0.91678028039193027 0.41518584574760231 0.30901420035662808 0.25088756650200361 0.24504858321628298 0.22206852389818899 0.12112745338012054 8.5788802618225191e-05 6.3014295188068559e-05 2.1585002066615289e-05 1.7301524747104224e-05
threshold=9.9999996826552254e-21 1.8198051948051948 7 1.8480769230769232 2.5690476190476192 6.5 0 0.61834733893557425 1.7763888888888888 0.93844696969696972 1.0741758241758244 1 9.5 1.9878048780487805 1.5092592592592593 10.5 0.96225071225071224 2 14.5 1.2222222222222223 1.0350985221674878 8.5 1.9878048780487805 0.90399385560675882
decision_type=2 8 10 10 8 2 1 10 10 10 10 1 8 10 8 8 8 1 2 10 8 10 10 10
left_child=20 2 3 16 5 -3 7 -4 -7 12 -11 18 -10 -14 -8 -13 -2 -6 -12 -20 23 -22 -23 -1
right_child=1 4 6 -5 17 8 14 -9 9 10 11 15 13 -15 -16 -17 -18 -19 19 -21 21 22 -24 -25
leaf_value=-0.032633525965708864 0.019910292478826225 0.01133394373224411 0.0044784618173793677 0.039379076799750425 0.042304043789625656 0.016410059097406074 0.014140318939633984 0.024049022166869088 0.042417509016502146 0.018524027077031848 0.027182588801709047 0.016526500866525063 0.020146334384988723 0.041010324822894864 -0.0055440259591750321 0.02950331651329979 0.0034021847922038454 0.032575500489071672 0.041142157982601665 0.032864108781565496 -0.032521739691730694 -0.032285035817991921 -0.032398297657824864 -0.032501230232387088
leaf_count=34 37 34 36 57 52 30 31 40 40 56 32 49 41 36 32 30 43 52 30 41 43 55 30 35
internal_value=0 0.52514520806462051 0.34123067431822701 0.53655429623564688 0.58593910216648071 0.54690593056647141 0.1855732483350071 0.32866658076438082 0.56824743885990092 0.58655226511014646 0.52120007669792834 0.57615298030137907 0.7016911043690035 0.60561496020633221 0.025208690981419594 0.43668701818709615 0.24432822552938224 0.7524499773492902 0.67771341671518037 0.74127223229624395 -0.6487943346903432 -0.64774454651651703 -0.64673847688981301 -0.65125457056634994
internal_count=996 799 276 137 523 419 139 76 385 355 238 182 117 77 63 79 80 104 103 71 197 128 85 69
cat_boundaries=0 1 2 3
cat_threshold=2 2 2
shrinkage=0.05


Tree=31
num_leaves=24
num_cat=2
split_feature=7 11 9 2 6 3 11 12 3 12 9 4 12 2 11 12 9 11 4 9 12 9 9
split_gain=49.018674787303397 2.3346244142477417 1.1808567489763313 1.1447630254180368 1.0775530869890426 0.8372534983656541 0.86489144311618382 0.82976144137719388 0.8358162463466261 0.79824907576960413 0.51810895698959536 0.00047173069889083763 0.00016512009870250921 0.00013827414114331305 9.9529852437996169e-05 6.531980353052802e-05 6.2210710126464619e-05 3.737711594098414e-05 2.7374309377492523e-05 2.1383256061824341e-05 2.0011221497640008e-05 6.675917450849056e-06 4.4174545648090202e-06
threshold=9.9999996826552254e-21 1.1526806526806528 1.6830143540669855 0 7.5 10.5 0.98648648648648651 0.84495192307692302 8.5 0.87749999999999995 1.9402852049910875 -9.9999996826552254e-21 1.1206060606060606 1 1.1043557168784028 0.75768872320596459 1.8628526645768024 0.82971014492753625 0.28636363636363638 2.1550480769230766 0.71428571428571441 2.2412121212121212 2.2817460317460316
decision_type=2 8 8 1 2 8 10 10 10 10 10 2 10 1 8 10 8 10 2 10 8 10 8
left_child=1 3 -3 7 10 6 -5 8 -1 -7 -4 12 -2 14 15 -13 -15 -18 21 -19 -16 -17 -22
right_child=11 2 4 5 -6 9 -8 -9 -10 -11 -12 13 -14 16 20 18 17 19 -20 -21 22 -23 -24
leaf_value=0.039235502845572139 -0.032812401952181006 -0.012549882637704197 0.011023364963837892 0.034568164444660883 -0.0002347019647023827 -0.006389824271395235 0.014246588369240891 0.04141574794300789 0.0101025072092128 0.019447376986634846 0.026695648695385474 -0.032546430492562353 -0.03248086164144965 -0.032599195382649132 -0.032290781102515063 -0.032432230911880695 -0.032527901469329774 -0.032333985114285119 -0.032274500432662362 -0.032428835087701502 -0.032218501717831652 -0.032350089044344658 -0.032162543227041346
leaf_count=34 52 46 40 57 41 41 47 47 31 33 40 38 41 39 45 35 30 54 47 58 38 31 31
internal_value=0 0.36506997663817981 0.17293884473447077 0.49385737672447533 0.24650396072439115 0.37444916805143297 0.49558228299033186 0.66357719594053366 0.44766993589216536 0.16599870267632535 0.37945498870356037 -0.64815307256970367 -0.65327120524947957 -0.64719961419387972 -0.64609314029793308 -0.64753581375814673 -0.64873320645418631 -0.64817284035241307 -0.64672649123070325 -0.64763489730527191 -0.64463566792801652 -0.64787914861548457 -0.64391543116756533
internal_count=996 457 167 290 121 178 104 112 65 74 80 539 93 446 265 151 181 142 113 112 114 66 69
cat_boundaries=0 1 2
cat_threshold=2 2
shrinkage=0.05


Tree=32
num_leaves=26
num_cat=0
split_feature=8 11 9 4 1 4 9 11 9 12 7 7 11 9 9 10 8 11 9 4 9 12 11 12 1
split_gain=90.981842572605075 0.0070061840493451655 0.0042404274175105172 0.0015508369475014661 0.0015211567280069005 0.0012012427802901016 0.00058544300772922497 0.0005558598904773504 0.00029936378156669718 0.00029083501075888307 0.0002977769102940897 0.00017741324312492424 0.00014672172374741166 0.00011707144984995921 8.8904576980297634e-05 5.2453265787733017e-05 2.364888009331878e-05 3.258118315141445e-05 1.8936076774167532e-05 1.8033206934831014e-05 1.7430625022463175e-05 8.4103260826751125e-06 7.7333914800803427e-06 7.1152087994796887e-06 7.0354520893545214e-06
threshold=9.9999996826552254e-21 1.0350985221674878 1.7071078431372548 -9.9999996826552254e-21 17.5 -9.9999996826552254e-21 1.6141439205955335 1.1719211822660098 2.2679487179487179 0.67928571428571438 9.9999996826552254e-21 9.9999996826552254e-21 1.1126984126984127 2.2279220779220781 2.6201923076923075 1.6711711711711712 1.5 1.2970588235294118 2.0579831932773107 0.39393939393939392 2.2366946778711485 0.85540069686411146 1.1126984126984127 0.58578431372549022 19.5
decision_type=2 8 8 2 2 2 8 10 10 8 2 2 8 10 10 8 2 10 8 2 8 10 8 10 2
left_child=1 4 -3 -4 -1 7 -7 8 11 16 12 -2 13 -11 15 -12 -8 23 21 22 -21 -17 24 -18 -20
right_child=5 2 3 -5 -6 6 9 -9 -10 10 14 -13 -14 -15 -16 18 17 -19 19 20 -22 -23 -24 -25 -26
leaf_value=0.049443982311798071 -0.032628674974329024 0.046580352700693842 0.047481856385043299 0.048270397076880578 0.048397549927852196 -0.033067213002475289 -0.032480772951922948 -0.033118717350318828 -0.032393387690521067 -0.032216259444515526 -0.032618314786180096 -0.032990896570795486 -0.032419403922819293 -0.031899697006978665 -0.032274829623632144 -0.032441866892919773 -0.032582658475296303 -0.03267678801985098 -0.032507772532605998 -0.032316749352839957 -0.03241982049206206 -0.032508682561701627 -0.032394809904390885 -0.032493953175170377 -0.032431825303060248
leaf_count=31 41 42 36 50 38 47 30 48 44 45 30 39 30 35 47 47 36 34 36 31 40 42 30 30 37
internal_value=0 0.96005030324058804 0.9521075535811131 0.95838197417640125 0.97886465749051277 -0.65031702646023537 -0.64877453200574442 -0.65590381954847965 -0.6530554024701517 -0.64834815115280509 -0.64749120942825555 -0.65581111348023302 -0.64385264783629181 -0.6420264838879095 -0.64847246896233435 -0.64892727607512801 -0.6515604933971163 -0.65210697610279356 -0.64865959253282457 -0.64821272454370937 -0.64746615973809962 -0.64946117407801429 -0.64892437328446473 -0.65079408140975525 -0.64935720265196761
internal_count=996 197 128 86 69 799 627 172 124 580 450 80 110 80 340 293 130 100 263 174 71 89 103 66 73
shrinkage=0.05


Tree=33
num_leaves=24
num_cat=1
split_feature=7 4 10 2 12 4 9 12 9 10 9 9 1 4 9 10 6 9 11 4 3 4 9
split_gain=120.54917326529147 0.015818966532421541 0.0087004865883386628 0.0060838604142929853 0.0060650292674857553 0.002836328737828353 0.0015796360789792629 0.0014560803853811422 0.0011403733832615615 0.0010774695283686242 0.0010362670483274883 0.00062990352923719684 0.00058163260403532036 0.00055861718072236499 0.00065145319362436283 0.00051593733453358936 0.00047131639059383446 0.00043595921519479219 0.00037202532136149102 0.00028555090834458952 0.0002553941995264708 0.00013960412493929653 0.0001155231930471956
threshold=9.9999996826552254e-21 -9.9999996826552254e-21 1.6273148148148149 0 1.1206060606060606 -9.9999996826552254e-21 2.5879629629629628 1.25 1.7071078431372548 1.3920807453416149 2.5485893416927903 2.1801948051948052 20.5 0.47727272727272729 1.8224789915966386 1.9534632034632033 7.5 1.8873015873015873 1.2113237639553429 0.28636363636363638 1.5 0.31666666666666665 1.9864864864864864
decision_type=2 2 8 1 10 2 8 10 10 10 8 10 2 2 10 10 2 10 8 2 10 2 10
left_child=5 4 9 6 -2 8 15 13 -1 -3 12 17 -5 14 20 21 22 -10 -15 -17 -7 -4 -16
right_child=1 2 3 10 -6 7 -8 -9 11 -11 -12 -13 -14 18 16 19 -18 -19 -20 -21 -22 -23 -24
leaf_value=-0.031950992810594478 0.047083273288867383 0.046725812290067829 0.044796738401903284 0.045463126059097532 0.045376039813075163 -0.032991508213425287 0.043788409371216523 -0.033946473913704506 -0.033052036296614865 0.045714876515805192 0.04463967732049931 -0.033240025913238311 0.045050748567305232 -0.033667883349976821 -0.033272992962108498 0.044527775911230756 -0.032898342126398472 -0.032523652058699094 -0.033125476358388591 0.044213953511972548 -0.032447055511486717 0.044536980177842564 -0.033591012733255217
leaf_count=32 52 37 49 57 41 51 39 47 31 40 30 38 59 49 30 47 30 58 30 53 31 35 30
internal_value=0 0.90096626009151881 0.8963342996099869 0.89354521294632872 0.92619760106962856 -0.66172293781608227 0.88714705433773355 -0.66649976751824325 -0.65408157678334411 0.92361189539178401 0.90271012321360933 -0.65661463380353957 0.90516005574269109 -0.66404976884942801 -0.66137971221506942 0.88941916263002829 -0.66482994632639636 -0.65360724134427151 -0.66928780826919909 0.88678465511400761 -0.65424276025883721 0.89326448871310804 -0.66868063022299673
internal_count=996 539 446 369 93 457 223 298 159 77 146 127 116 251 172 184 90 89 79 100 82 84 60
cat_boundaries=0 1
cat_threshold=2
shrinkage=0.05


Tree=34
num_leaves=25
num_cat=2
split_feature=8 0 12 10 2 10 12 11 11 6 11 10 3 8 12 1 10 11 11 10 11 12 10 3
split_gain=11.695050348496363 4.7540559748953095 1.9959893908824227 1.4779576631896996 1.3695078775813609 1.1301676333299766 0.89048082284335095 0.79876963057730155 0.88265579797396132 1.4697475097596646 0.76267231973600735 0.64282387199941082 0.63726350193171033 0.63174679954189161 0.56298037902524078 0.58370466372288266 0.31188838740765529 0.30852252137309844 0.090898685854363517 0.062250191218354622 0.00093925553768947623 0.00049180048637609275 0.00017270347482334358 0.00010143041203836134
threshold=9.9999996826552254e-21 0 0.57142857142857151 2.0488095238095236 1 1.8480769230769232 0.47213622291021673 0.91106719367588929 1.0135135135135136 6.5 1.1449579831932772 1.4037037037037037 10.5 6.5 0.96904761904761894 14.5 2.2886904761904763 1.0307765151515151 0.98648648648648651 2.0889328063241104 1.2158385093167703 0.99999999999999978 1.8856209150326797 10.5
decision_type=2 5 8 8 1 10 10 10 10 2 8 8 8 2 10 2 8 8 10 10 8 10 10 8
left_child=20 3 6 7 12 -6 -3 11 -9 -10 16 -2 17 18 -7 -16 -5 -4 -14 -19 21 23 -22 -1
right_child=1 2 4 10 5 14 -8 8 9 -11 -12 -13 13 -15 15 -17 -18 19 -20 -21 22 -23 -24 -25
leaf_value=-0.033380803325541816 0.025076815076632182 -0.0047358957344151836 -0.016386265963617714 0.015845186647762199 0.01073887366667107 -0.021186886705123139 0.01940690510182045 0.03359828038173384 0.032964966920441499 0.0011974030318133197 -0.0089211308109499159 -0.00061370430975337276 -0.010103230311215449 -0.025878232036077361 -0.014782548875870469 0.002076170223788705 0.00062491809764782626 -0.031889293682595597 -0.0012499339394915303 -0.025246296466732061 -0.032668927079764716 -0.033755784573598478 -0.033032464532206408 -0.033102388362423997
leaf_count=50 30 54 42 35 47 37 33 38 39 45 56 57 33 32 48 46 31 32 34 30 30 34 37 46
internal_value=0 -0.023099300219277478 -0.15966454843136338 0.17680336515026249 -0.24308067660494681 -0.10593793766535757 0.15276540638425751 0.33144131682685496 0.4355787847683954 0.28432118021815267 0.015578856414293024 0.12486277270237568 -0.37379218127944985 -0.22890172609230955 -0.20045927369417987 -0.11289454699795701 0.17508063404473762 -0.48623379753226997 -0.10085552299952877 -0.57461020128080376 -0.66430951966697893 -0.66863909628755613 -0.65809644878796469 -0.66494886528929964
internal_count=996 799 468 331 381 178 87 209 122 84 122 87 203 99 131 94 66 104 67 62 197 130 67 96
cat_boundaries=0 2 3
cat_threshold=2634047488 9609 2
shrinkage=0.05


Tree=35
num_leaves=24
num_cat=2
split_feature=7 9 12 2 3 9 9 10 12 3 10 2 12 3 12 9 9 3 9 9 3 12 9
split_gain=32.583653087126066 1.9039655284135515 1.713966784288159 1.7862110525123138 1.3240356296724904 1.0368820021935636 0.73070057150698808 1.143919458959628 0.60600471840644554 0.52036053923393799 0.00054720644158123832 0.00040726024163717511 0.00019293897017114148 0.00019137994031126482 0.00016354898946424612 0.00011514302296378176 0.00010284218453904259 6.9697502425469793e-05 6.5692435702757734e-05 2.1281376980653022e-05 1.7052382566440372e-05 7.5202157461262686e-06 5.143534362872515e-06
threshold=9.9999996826552254e-21 2.1775210084033612 1.1126984126984127 0 9.5 1.9420168067226891 1.7261363636363636 1.8280788177339902 1.2834821428571428 8.5 1.6273148148148149 1 0.72318007662835249 9.5 1.0666666666666669 1.7593103448275862 2.5962962962962965 8.5 2.5577777777777779 2.0678160919540232 1.5 1.0147058823529411 1.8956442831215972
decision_type=2 10 8 1 8 8 10 10 10 10 8 1 10 10 8 10 10 10 8 10 10 10 10
left_child=1 2 3 5 -5 9 -6 -8 -3 -1 15 13 -13 18 -15 -2 17 21 19 22 -21 -14 -12
right_child=10 8 -4 4 6 -7 7 -9 -10 -11 11 12 16 14 -16 -17 -18 -19 -20 20 -22 -23 -24
leaf_value=-0.0048955010939070245 -0.032863221891167235 0.0036722063691128591 0.035341343981929195 -0.0012118101358539475 0.0355414264776222 -0.015528956996717287 0.0035298905407909497 0.026605761913083437 -0.014530366111407476 0.014371426095523299 -0.032116835889582328 -0.032554592906620189 -0.032187905826594143 -0.032328080745285058 -0.03205476322674438 -0.032472398377456906 -0.032061983123143144 -0.032405609165701343 -0.031854913217785982 -0.032067983782551143 -0.031939936689909541 -0.032263468694829739 -0.032053265903698301
leaf_count=49 36 50 32 41 47 31 50 53 56 48 32 30 31 59 55 58 30 44 32 31 33 37 31
internal_value=0 0.20133029372474248 0.27841242343460387 0.22011725738487939 0.35256742787473627 -0.0031270150389556602 0.44524644575493322 0.35483113701348468 -0.081502318301533302 0.14679881797965189 -0.64436227113639333 -0.64358358290235795 -0.64622477535211809 -0.64179381413968273 -0.64402325022416163 -0.65174024638388239 -0.64508563508446592 -0.64603388717550658 -0.64012224537829721 -0.64086243096610385 -0.63982992063783517 -0.64455143501604217 -0.64173660805163657
internal_count=996 457 351 319 191 128 150 103 106 97 539 445 172 273 114 94 142 112 159 127 64 68 63
cat_boundaries=0 1 2
cat_threshold=2 2
shrinkage=0.05


Tree=36
num_leaves=25
num_cat=1
split_feature=8 4 10 12 2 9 4 9 11 12 12 11 9 10 11 4 12 8 12 12 9 4 10 10
split_gain=33.653039462823713 2.6950557559730157 1.2064947349192394 1.1809966143607942 1.0861887806892341 1.0609907201796958 0.62649715128750039 0.54696245077085592 0.58998822375305693 0.50856143137040355 1.0051164056210387 0.42605622414482847 0.39381162218373866 0.61323318213490907 0.70449394154873346 0.28457199301438507 0.2625462724219485 0.1718115845914987 0.15974310803529868 0.07621077774920515 7.0913786959891922e-05 4.7307803441754004e-05 2.5814214019703741e-05 1.9488423558478019e-05
threshold=9.9999996826552254e-21 -9.9999996826552254e-21 1.2029411764705882 1.1206060606060606 0 1.8768939393939394 0.28636363636363638 2.0741758241758244 1.063508064516129 0.86363636363636365 0.6545092838196287 0.94201680672268906 2.5374999999999996 2.203448275862069 0.98648648648648651 0.28636363636363638 1.1277173913043479 1.5 1.3999999999999999 1.2834821428571428 2.1526806526806528 -9.9999996826552254e-21 1.5092592592592593 1.8973684210526316
decision_type=2 2 8 10 1 8 2 8 10 10 10 8 10 10 10 2 8 2 10 10 10 2 8 10
left_child=20 3 -3 9 7 6 -6 8 11 10 -2 -4 13 14 16 18 -7 -10 -9 -17 21 -1 -23 -24
right_child=1 2 4 -5 5 12 -8 15 17 -11 -12 -13 -14 -15 -16 19 -18 -19 -20 -21 -22 22 23 -25
leaf_value=-0.031595892037665094 -0.0051471308298526091 0.0035716072819475656 0.028595414692061567 0.024534481485057616 -0.0067953299974248581 0.027020605036974274 0.018027705937775834 0.035771355620305284 0.039162227905844726 -0.0049830506501127164 0.02080325328121449 0.011601804150339411 0.036902528104455989 0.01545314453008927 0.03553224603775567 0.042693574836649567 0.013399805727452009 0.029891695901994114 0.026059095190989281 0.036537017710099415 -0.031863198172585233 -0.031890343744695591 -0.031637910309461857 -0.031764711338898133
leaf_count=59 42 44 36 59 32 31 33 54 30 30 41 34 35 48 55 42 32 55 34 32 36 35 35 32
internal_value=0 0.48864239872523402 0.55019135626439808 0.24410223020592181 0.56780743072698237 0.47055629317935971 0.1953063525490118 0.64875512421209958 0.56031177805432852 0.11108493084258585 0.21426011418121968 0.40639667699916404 0.53205678368669562 0.49473953817027516 0.57088625758469536 0.73088409193795956 0.40700379572854889 0.66603692675867454 0.63636123704174163 0.80799267408720066 -0.63430114121012415 -0.63353796602524748 -0.63470886735713916 -0.634133257889123
internal_count=996 799 627 172 583 266 65 317 155 113 83 70 201 166 118 162 63 85 88 74 197 161 102 67
cat_boundaries=0 1
cat_threshold=2
shrinkage=0.05


Tree=37
num_leaves=24
num_cat=0
split_feature=7 8 11 9 4 10 9 11 4 11 10 11 6 10 10 11 10 6 7 9 1 4 11
split_gain=46.373268913674934 56.314560318551486 0.018894147583786491 0.004138333351498602 0.0021524793186884494 0.0016233979332334059 0.0010403159254774863 0.00083164881446506911 0.00074388927178148379 0.00055823559265100187 0.00050399885590479698 0.00035901090366996513 0.0002612889837916299 0.00014639901447122128 0.00010809022422009207 9.7301472269606393e-05 4.1328780058247361e-05 3.5742687071405044e-05 3.8642641452923954e-05 3.5432925550082928e-05 1.852825213966014e-05 2.97826173207838e-05 1.3301400911380767e-05
threshold=9.9999996826552254e-21 9.9999996826552254e-21 1.1408730158730158 1.9402852049910875 -9.9999996826552254e-21 1.5577777777777779 1.7018518518518517 0.98648648648648651 -9.9999996826552254e-21 1.0350985221674878 1.6348484848484848 1.1570723684210527 7.5 1.9215384615384616 1.8355855855855856 1.1076254826254828 1.4248120300751879 7.5 1.5 2.5879629629629628 19.5 0.28636363636363638 0.97182539682539681
decision_type=2 2 8 10 2 10 10 10 2 10 8 10 2 10 8 8 10 2 2 10 2 2 10
left_child=1 6 4 -4 -3 -6 11 -7 13 -8 16 -1 -11 -2 22 19 -10 18 -17 20 -16 -22 -12
right_child=8 2 3 -5 5 7 9 -9 10 12 14 -13 -14 -15 15 17 -18 -19 -20 -21 21 -23 -24
leaf_value=-0.032787210328130319 -0.032429367209346395 0.046521528920540664 0.049672655362040352 0.048243522064239625 0.046550614125855198 0.047220645024497285 -0.033391055348124872 0.047890961550034895 -0.032319185320942717 -0.033091442873540738 -0.031856916722247962 -0.032078104923428601 -0.032711028717758509 -0.032094706751969924 -0.031905520411138741 -0.031656724794152755 -0.032085193842287002 -0.031620814580325077 -0.031793720406107687 -0.031700926523685689 -0.03189166459775649 -0.031743944487988528 -0.031968227939070337
leaf_count=30 37 56 42 39 46 47 55 30 43 41 31 31 40 56 42 45 35 54 54 33 40 36 33
internal_value=0 0.36106427548030146 0.95323975471651867 0.97781627433069973 0.94021000526417275 0.94591814498742599 -0.65851670518641159 0.95039122506418372 -0.63760232183304577 -0.66136578356320419 -0.63637388694704333 -0.64786151275074155 -0.65816755271973237 -0.64413344024502417 -0.63554161441648571 -0.635009224162424 -0.64413358024629186 -0.63383206691494876 -0.63461600082547531 -0.63639874567569565 -0.63694438814722132 -0.63622843801041695 -0.63842222712574681
internal_count=996 457 260 81 179 123 197 77 539 136 446 61 81 93 368 304 78 153 99 151 118 76 64
shrinkage=0.05


Tree=38
num_leaves=24
num_cat=2
split_feature=2 0 9 9 9 9 11 9 11 4 12 3 11 9 3 10 4 3 10 4 6 10 3
split_gain=4.5799010914739604 4.1059927543929406 2.7595189251566818 1.7643655407213243 1.4043451025741014 1.212533512479359 1.0792497219919515 0.94282119106109397 1.0194716433387032 0.70975680256264972 0.7833119430760368 0.50127559262692123 0.42282824047758183 0.50822305503527154 0.47486509089745266 0.2341429872222669 0.22835833909365322 0.22011236909776022 0.10345802751674615 0.081539915918279249 0.09882391840384841 5.2562064185579516e-05 4.3337615531768847e-05
threshold=0 1 2.2709790209790208 2.1297335203366057 1.6972222222222222 1.6220238095238095 1.3169856459330145 2.0579831932773107 1.0350985221674878 -0.23636363636363636 0.7777777777777779 8.5 1.1617262423714037 1.8811764705882352 8.5 2.2535714285714286 0.28636363636363638 2.5 1.7165178571428572 0.63333333333333341 3.5 2.1017241379310345 9.5
decision_type=1 5 10 10 8 8 8 10 8 2 10 10 10 8 10 10 2 10 10 2 2 8 10
left_child=5 2 4 6 -2 -1 11 8 -6 10 -7 17 13 14 -11 -5 -14 18 -3 20 -15 22 -22
right_child=1 3 -4 15 7 9 -8 -9 -10 12 -12 -13 16 19 -16 -17 -18 -19 -20 -21 21 -23 -24
leaf_value=0.0062258079487286988 0.039223794724886164 -0.022141827956272508 -0.01891109553272563 -0.020755948895335566 -0.013670761934501558 0.0028865827396319789 0.0069961255331757802 0.023148771121551923 0.011790384391179956 -0.02788914580642753 -0.021511532424761219 -0.0046508267349666746 -0.023989572801471352 -0.023754567177117443 -0.0054192460162456714 -0.031782039645715666 -0.01372010179420179 -0.026324875131261201 -0.0096426083635057433 -0.024550981269787803 -0.031598273704067432 -0.031534757111901811 -0.031785054850018854
leaf_count=44 32 31 51 51 31 30 38 41 53 35 38 50 55 32 34 50 51 39 31 42 46 57 34
internal_value=0 -0.082459966927471567 0.14540627838239714 -0.24191148745225097 0.3010961687419777 -0.40251175760502633 -0.14860917049560207 0.21508468611378889 0.082448390251861597 -0.42940060293166021 -0.21905958572109446 -0.26085155298553442 -0.47084907289134253 -0.52610874996769752 -0.31948087200141134 -0.52870437252381086 -0.35833880043547217 -0.38533984777643543 -0.27213750239736695 -0.58003794992776991 -0.60536375929661901 -0.63230493638918928 -0.63370435181482687
internal_count=996 498 208 290 157 498 189 125 84 454 68 151 386 280 69 101 106 101 62 211 169 137 80
cat_boundaries=0 1 3
cat_threshold=2 222306464 41344
shrinkage=0.05


Tree=39
num_leaves=25
num_cat=2
split_feature=7 8 4 10 2 10 4 10 10 10 10 10 4 1 11 8 3 3 2 10 3 11 10 4
split_gain=109.66354010511552 0.025472139594441501 0.021690435142218689 0.01077595170536938 0.0085194040176617136 0.0041649857757519726 0.0022746280797036889 0.0017635291272668496 0.0015788166480916743 0.0012366896007947048 0.00079353303207874148 0.00059733165266795396 0.00048288650898697938 0.00042076841934246545 0.00026407061557875977 0.00018045949815359563 0.00017635531919779623 0.000152274961967791 0.00013436898304952649 0.00010015123259510261 9.143100603115073e-05 8.0524805010639966e-05 4.3199434491825173e-05 2.2496792085213713e-05
threshold=9.9999996826552254e-21 9.9999996826552254e-21 -9.9999996826552254e-21 1.6273148148148149 0 1.9215384615384616 -9.9999996826552254e-21 1.9486842105263158 1.3920807453416149 1.9136645962732919 1.7379862700228834 1.9742913645352669 0.28636363636363638 13.5 1.1371473354231976 6.5 5.5 9.5 1 1.3203947368421054 7 1.0350985221674878 1.9878048780487805 -9.9999996826552254e-21
decision_type=2 2 2 8 1 10 2 8 10 10 8 10 2 2 10 2 10 8 1 10 10 8 10 2
left_child=1 17 5 8 7 -2 11 16 -4 -6 19 -3 15 -11 -14 -9 -5 -1 -12 -8 -20 -19 23 -23
right_child=2 6 3 4 9 -7 10 12 -10 13 18 -13 14 -15 -16 -17 -18 21 20 -21 -22 22 -24 -25
leaf_value=-0.031778914083832772 0.045322811962088608 -0.032621846546636558 0.044745894507185469 0.042556420677100089 0.043449788799187948 0.043818146153988206 -0.03303515473119762 0.042188053625431418 0.043515165811643913 0.042593416125182207 -0.033990819706447455 -0.033255968875650264 0.041520128981605023 0.042956540062033664 0.041858649028211695 0.041855147007778641 0.042260725402275781 -0.031634237690397089 -0.033869441431941316 -0.033392802465056076 -0.033602058784817507 -0.031298718578462274 -0.031519081128859094 -0.031457135056326434
leaf_count=37 37 45 37 42 38 56 33 35 40 50 45 34 40 58 32 32 42 55 37 36 30 34 39 32
internal_value=0 -0.65302251981833204 0.8566361860941647 0.85114637085550426 0.84800331751880953 0.88632568309528736 -0.66834483513534693 0.84034300638413306 0.88167312955507648 0.85892525311780821 -0.67343202677945702 -0.65829120438005162 0.83645034937312057 0.8559997719397886 0.83351710221414466 0.84061548729590363 0.84791258869045216 -0.63096549212133246 -0.67669636031385494 -0.66520036247952619 -0.67465971257435897 -0.62989698336797662 -0.62874546770099682 -0.62725812398012293
internal_count=996 457 539 446 369 93 260 223 77 146 181 79 139 108 72 67 84 197 112 69 67 160 105 66
cat_boundaries=0 1 2
cat_threshold=2 2
shrinkage=0.05


Tree=40
num_leaves=24
num_cat=0
split_feature=7 8 11 9 3 10 4 9 4 11 10 11 6 9 10 11 6 9 10 9 11 4 1
split_gain=44.358717835871914 54.026276480097835 0.018045500905124356 0.0037880214211156726 0.0025666407390687596 0.0016944648638386184 0.0013010284155399177 0.0012761655447448561 0.00086164876582728311 0.00067081318781525567 0.00057730238825826063 0.00034179963046199191 0.00025376526313536374 0.00015933673067358711 0.00011420365176473268 0.00010457354482440451 4.8777850937042899e-05 4.261815437622829e-05 2.8193205324100745e-05 3.9137279554957161e-05 2.2363922406398729e-05 2.1516972928736777e-05 1.4460273561667236e-05
threshold=9.9999996826552254e-21 9.9999996826552254e-21 1.1408730158730158 1.9402852049910875 9.9999996826552254e-21 1.5741758241758241 -9.9999996826552254e-21 1.7018518518518517 -9.9999996826552254e-21 1.0333704115684093 1.7071078431372548 1.1570723684210527 7.5 2.1297335203366057 1.418010752688172 1.1076254826254828 7.5 2.5879629629629628 2.3530950305143854 1.9016129032258065 0.86237373737373746 0.45454545454545447 25.5
decision_type=2 2 8 10 10 10 2 10 2 10 8 10 2 10 8 8 2 8 10 8 10 2 2
left_child=1 7 4 -4 -3 -6 -7 11 13 -9 14 -1 -11 -2 -10 17 18 20 19 -17 -12 22 -22
right_child=8 2 3 -5 5 6 -8 9 10 12 15 -13 -14 -15 -16 16 -18 -19 -20 -21 21 -23 -24
leaf_value=-0.032506726459268838 -0.032077992818184478 0.046857586773223082 0.048585233668174028 0.047216844374745631 0.045053527984014366 0.045607896342566651 0.046326268407204663 -0.033229332781037367 -0.032052352289229945 -0.032878532874585593 -0.031607370499955705 -0.031807454636584791 -0.032500977191062673 -0.031744087486922964 -0.031715149195768989 -0.031488917650381476 -0.031301510202010989 -0.031373654466512323 -0.031519269633110518 -0.031327547388125522 -0.031608685533194993 -0.031440564540559317 -0.031493089853883868
leaf_count=30 51 48 42 39 42 41 48 54 43 42 48 31 40 42 55 31 59 33 32 48 31 34 32
internal_value=0 0.35397013241564629 0.93271190246287727 0.95674210890493161 0.91994534994100852 0.91606215049971185 0.91966858039111121 -0.65430811616810358 -0.63131671721396287 -0.65747399020862463 -0.62997299816027252 -0.64236902826693909 -0.65393991762629156 -0.63842429580418159 -0.63664204520488443 -0.62883211498513258 -0.62762083170997796 -0.63016459616634601 -0.62852438737830141 -0.62782445275957188 -0.63067783002538635 -0.63009051879063005 -0.63099910235706413
internal_count=996 457 260 81 179 131 89 197 539 136 446 61 82 93 98 348 170 178 111 79 145 97 63
shrinkage=0.05


Tree=41
num_leaves=26
num_cat=2
split_feature=7 11 2 12 10 3 11 12 9 12 12 12 2 12 9 3 9 3 11 9 3 11 12 9 11
split_gain=29.825221513061003 1.8846472712223279 1.1317504678608667 1.1062697375684798 0.97015504508893513 0.78477622034073169 0.78581900197633536 0.63915722301431366 0.91062388087935364 0.6804905495904503 0.47473154919737848 0.17856649919058321 0.00072002315871344535 0.00064081557914441589 0.0004948766045629327 0.00027276261857167583 0.00020020350898519723 0.00013420922216944575 0.00011810185329519385 7.5158494082572247e-05 4.0374626966155347e-05 2.7761808927273535e-05 1.4084427357730078e-05 1.2547053640510342e-05 4.6209168269584211e-06
threshold=9.9999996826552254e-21 1.1449579831932772 0 0.84495192307692302 1.3605555555555555 10.5 0.98648648648648651 0.054804804804804708 2.1695402298850572 0.70588235294117652 0.87749999999999995 0.53229166666666661 1 0.67928571428571438 2.1297335203366057 9.5 2.5962962962962965 9.5 1.0678160919540229 1.8429276315789473 9.5 0.9177927927927928 1.1538461538461537 2.5313725490196077 1.063508064516129
decision_type=2 8 1 10 10 8 10 8 8 10 10 10 1 10 8 10 10 10 10 10 8 10 8 8 10
left_child=1 2 3 4 -1 6 -4 -3 9 11 -7 -9 14 -14 15 19 17 21 -17 -2 -16 -15 -22 -24 -21
right_child=12 7 5 -5 -6 10 -8 8 -10 -11 -12 -13 13 16 20 18 -18 -19 -20 24 22 -23 23 -25 -26
leaf_value=-0.019013078830100498 -0.031639306408077314 0.034153560495065814 -0.0091881205845065535 -0.019582278165108439 0.016850420864558621 0.028751239790515682 0.012083987035051723 0.0061308391103104655 -0.0030007746673381382 0.027642096238227627 0.0089320705628784421 0.016913509467114674 -0.03214018522532576 -0.031710947136732906 -0.031222337238531756 -0.031987830443699815 -0.031360777531661291 -0.031858123440188534 -0.031667219437884225 -0.031431577040200956 -0.031432611465136089 -0.031565307152566266 -0.0313680706800449 -0.031263356854154593 -0.031365871406060584
leaf_count=34 31 32 57 46 30 41 46 30 32 46 33 30 56 32 51 33 30 45 43 33 30 51 42 30 32
internal_value=0 0.19153429833897456 0.057184685772660553 -0.14349430463539556 0.10975721895031111 0.17687897870771374 0.041032668531173232 0.35491176026784443 0.30464242047238921 0.37896709928616834 0.37261783266615689 0.23874169654417013 -0.6316431032567229 -0.63501141554462437 -0.62927606488877741 -0.63220105610780108 -0.63280496665257324 -0.63403810340847566 -0.63568964265142602 -0.62937514118843019 -0.62608606135510914 -0.63223297956858859 -0.62705687533182763 -0.62650279610818249 -0.62793365226906406
internal_count=996 457 287 110 64 177 103 170 138 106 74 60 539 214 325 172 158 128 76 96 153 83 102 72 65
cat_boundaries=0 1 2
cat_threshold=2 2
shrinkage=0.05


Tree=42
num_leaves=25
num_cat=3
split_feature=7 4 10 2 12 12 4 10 10 10 12 2 10 12 2 11 1 4 12 11 4 4 11 11
split_gain=102.38904051252462 0.017701036007338189 0.0087761510675221643 0.0069603953851924416 0.006301018189468266 0.0027833228187326142 0.0023763074295679587 0.0014404312642923855 0.0012771032101595026 0.0010088214752812519 0.00047240578522789178 0.00046345016815685369 0.00045221332311751183 0.00043386718703430915 0.00040850481722465304 0.00073070695472399194 0.00040664489371966539 0.00039621959447089239 0.00033715344100393452 0.00021652301279218023 0.00014816915575988077 0.0001399848859069408 0.00013963770011748977 9.9760296860651465e-05
threshold=9.9999996826552254e-21 -9.9999996826552254e-21 1.6273148148148149 0 1.0501253132832078 1.2222222222222223 -9.9999996826552254e-21 1.9486842105263158 1.3920807453416149 1.9136645962732919 1.376689189189189 1 1.7379862700228834 1.0147058823529411 2 1.0135135135135136 13.5 0.28636363636363638 0.87228260869565211 1.1371473354231976 0.47727272727272729 0.28636363636363638 1.054093567251462 1.106203007518797
decision_type=2 2 8 1 8 10 2 8 10 10 10 1 10 10 1 8 2 2 10 10 2 2 8 8
left_child=5 4 8 7 -2 6 14 21 -3 -5 13 12 -8 -11 -1 -16 -7 23 20 -19 22 -4 -13 -9
right_child=1 2 3 9 -6 16 11 17 -10 10 -12 18 -14 -15 15 -17 -18 19 -20 -21 -22 -23 -24 -25
leaf_value=-0.031942448433613657 0.04369617953174048 0.043288339183330325 0.041308857293062398 0.042115985714280907 0.041935885782709376 -0.032660266530656394 -0.03222256173646821 0.040950960655228991 0.042175067990427931 0.041443330752165553 0.041201237194419787 -0.031719119384487071 -0.03281079877307564 0.041872408704730711 -0.03203517235126143 -0.031261557573335236 -0.033234257605315613 0.04035907716625968 -0.032506427464436126 0.040668044347955436 -0.03232051884147296 0.041041959193221587 -0.032100434390713438 0.040701916185694596
leaf_count=53 52 37 45 38 41 42 51 35 40 40 30 32 42 38 31 50 34 40 36 32 34 39 52 32
internal_value=0 0.83109344254315343 0.82609206220844111 0.82323104049410623 0.85805876000657122 -0.6446512554490339 -0.6418486257783147 0.81625060011476602 0.85379793962365447 0.83316722244709085 0.83050542963792751 -0.64687494529770695 -0.65150986100924524 0.8327777083704313 -0.63406056022057888 -0.63047769280847166 -0.65820831051991024 0.81270380801865805 -0.64416471347058224 0.81002511429924062 -0.64173639391044002 0.82314060250341969 -0.63982027506107675 0.81650502984517692
internal_count=996 539 446 369 93 457 381 223 77 146 108 247 93 78 134 81 76 139 154 72 118 84 84 67
cat_boundaries=0 1 2 3
cat_threshold=2 2 2
shrinkage=0.05


Tree=43
num_leaves=25
num_cat=3
split_feature=8 0 9 2 12 9 9 10 2 12 10 9 9 8 10 9 12 12 6 8 12 9 12 10
split_gain=11.001687453962813 3.9392736805247774 1.8149449353280378 1.6652223843010656 1.4051613680364681 1.3723452103591978 0.59709562455945253 0.56291978571484735 0.56204195479967378 0.63303465191345087 0.5391586360844135 0.50637865773030788 0.41880195492027567 0.4112715536831596 0.40954179703462573 0.40526224834619107 0.27068629034849534 0.24146623650312726 0.2367371218568155 0.13658703474902495 0.090891742089408645 0.0012481677792077761 0.00052439762257527889 0.00018124608387459773
